{"version":"0.5.4","metadata":{"date":{"year":2025,"month":10,"day":11,"hour":8,"minute":50,"second":20},"loudness":-20.336627960205078,"gain":0.700814549527567,"name":"valslowfr 3","modeled_by":"mcyu1222","gear_type":"amp_cab","gear_make":"tz-make","gear_model":"tz-model","tone_type":"overdrive","input_level_dbu":12,"output_level_dbu":null,"training":{"settings":{"ignore_checks":true},"data":{"latency":{"manual":0,"calibration":{"algorithm_version":1,"delays":[1],"safety_factor":1,"recommended":0,"warnings":{"matches_lookahead":false,"disagreement_too_high":false}}},"checks":{"version":4,"passed":false}},"validation_esr":0.006486820481172899}},"architecture":"WaveNet","config":{"layers":[{"input_size":1,"condition_size":1,"head_size":8,"channels":16,"kernel_size":3,"dilations":[1,2,4,8,16,32,64,128,256,512],"activation":"Tanh","gated":false,"head_bias":false},{"input_size":16,"condition_size":1,"head_size":1,"channels":8,"kernel_size":3,"dilations":[1,2,4,8,16,32,64,128,256,512],"activation":"Tanh","gated":false,"head_bias":true}],"head":null,"head_scale":0.02},"weights":[0.04594702646136284,0.478039026260376,-0.8109781742095947,-0.6944039463996887,-0.32231196761131287,0.18115974962711334,0.007061399985104799,0.7868335843086243,-0.08186975121498108,0.21146973967552185,-0.306506872177124,0.007006408646702766,-0.9114071130752563,-0.6676019430160522,-0.37401360273361206,0.011188775300979614,0.022686246782541275,-0.021815631538629532,-0.3061181604862213,-0.06418173760175705,0.07475633174180984,0.05015374347567558,-0.023336369544267654,0.0807311162352562,0.05195682495832443,0.020089497789740562,0.10348459333181381,-0.05986851081252098,-0.08157138526439667,-0.06072365120053291,0.02630915492773056,0.11065205931663513,-0.07322733849287033,-0.1489376723766327,-0.14606617391109467,-0.1885085105895996,-0.017262695357203484,0.11648251116275787,0.09184639900922775,-0.008020753040909767,0.021255003288388252,-0.06702961772680283,0.11579019576311111,-0.14020590484142303,-0.08776271343231201,-0.155532106757164,0.10306034982204437,0.06463220715522766,0.019809909164905548,-0.05045076087117195,0.07940130680799484,0.20061829686164856,0.06142447143793106,-0.008291240781545639,0.1705024689435959,-0.07814811915159225,-0.00038423368823714554,-0.03558158874511719,-0.0913429856300354,-0.09712215512990952,0.14556699991226196,0.09851974248886108,-0.02597060427069664,-0.07912739366292953,0.288910835981369,-0.05203922092914581,0.08510972559452057,0.18754670023918152,-0.1447192132472992,0.10162258893251419,-0.25613611936569214,0.19032703340053558,0.09358575940132141,-0.029925210401415825,0.36622679233551025,0.1640155017375946,-0.12118649482727051,0.10362549126148224,0.03910994157195091,0.07056932151317596,-0.35246527194976807,0.11495277285575867,0.004565620329231024,-0.05826780945062637,0.04426451772451401,0.12118139117956161,-0.2666438817977905,-0.10201706737279892,-0.13693203032016754,0.09739378094673157,0.04187525808811188,0.23009580373764038,-0.11497563868761063,0.031996019184589386,-0.30028221011161804,0.13346564769744873,0.09424537420272827,-0.13770511746406555,-0.0062057808972895145,-0.07452011108398438,-0.01106853224337101,0.34027722477912903,-0.024490172043442726,-0.18420568108558655,0.10391837358474731,0.03240593150258064,-0.2579661011695862,0.12092965096235275,0.020279964432120323,0.0027725084219127893,-0.12279179692268372,0.03538943827152252,-0.052568674087524414,0.09774693846702576,-0.04744534566998482,-0.049851905554533005,0.12307193875312805,-0.012020193040370941,-0.05458695441484451,-0.13307952880859375,0.08214279264211655,-0.06492183357477188,-0.23625710606575012,0.09232176095247269,-0.2043968141078949,-0.24109341204166412,0.00021576166909653693,-0.01864791102707386,0.0940169245004654,-0.1609521359205246,0.016068750992417336,0.03469204530119896,-0.07299219816923141,0.06796912848949432,0.27089202404022217,-0.04231078177690506,-0.02341245673596859,-0.1170642301440239,0.0860280841588974,0.1552131623029709,0.2801717519760132,0.05488111823797226,0.07366819679737091,-0.16308574378490448,-0.09220476448535919,-0.07762277871370316,0.11612875014543533,-0.05118464305996895,-0.14764323830604553,-0.27853500843048096,-0.11247049272060394,-0.1948048621416092,-0.19524474442005157,0.10600332915782928,0.009030343033373356,-0.2969871461391449,0.12321054935455322,-0.06914427876472473,-0.017330046743154526,-0.1206376850605011,-0.05747517570853233,0.009873745031654835,0.0688292384147644,-0.20336180925369263,-0.19877353310585022,0.041586924344301224,0.016439825296401978,0.23943082988262177,-0.17680445313453674,0.07041759788990021,0.30985531210899353,-0.10393193364143372,0.2017655223608017,0.2239200472831726,-0.1876847743988037,0.03520660474896431,-0.17801374197006226,-0.00000999392523226561,0.09850428998470306,-0.08961030840873718,-0.013915333896875381,-0.11164171248674393,-0.0821479856967926,0.08915738016366959,0.1031857430934906,0.16985903680324554,-0.11626976728439331,-0.09927485138177872,-0.2779204845428467,0.13707926869392395,0.183338925242424,0.26812800765037537,-0.1616998016834259,0.030673936009407043,-0.09021854400634766,-0.05611584708094597,-0.0014451128663495183,0.2349209487438202,-0.12951719760894775,0.07611797749996185,0.18943160772323608,0.044869448989629745,-0.03449798375368118,0.07556529343128204,-0.13874565064907074,0.07105807214975357,-0.07511955499649048,0.1289125382900238,0.047643616795539856,-0.018748270347714424,-0.18972815573215485,0.05182366445660591,0.20769965648651123,-0.04697614163160324,-0.08460604399442673,-0.17929832637310028,-0.09169375896453857,-0.15757809579372406,-0.0801682397723198,-0.09818973392248154,-0.08320926874876022,-0.04174933210015297,0.08353147655725479,0.0642823576927185,0.048355892300605774,0.03429647535085678,-0.09192977100610733,-0.11230061948299408,-0.05393902212381363,0.062005627900362015,0.19938905537128448,0.0963660255074501,-0.01629621535539627,-0.006043735425919294,0.13986268639564514,-0.021065274253487587,0.23789188265800476,-0.1342587023973465,-0.1322842836380005,-0.13965648412704468,0.08055383712053299,0.048465508967638016,-0.08175456523895264,-0.044825613498687744,-0.009701501578092575,-0.33828967809677124,0.12200987339019775,-0.200486958026886,-0.19433894753456116,-0.0023394820746034384,-0.15267668664455414,-0.16858434677124023,0.14811936020851135,-0.00007764088513795286,0.01085358764976263,-0.06941474974155426,-0.14995314180850983,0.039533551782369614,-0.142584890127182,-0.08622242510318756,0.06605979800224304,0.0959237664937973,0.06012134626507759,-0.04578148573637009,0.04431315138936043,-0.06124692037701607,-0.19588346779346466,0.03384013473987579,0.11006814241409302,-0.10660644620656967,-0.0645504891872406,-0.07308442145586014,-0.001694679376669228,0.01816738210618496,-0.008300600573420525,-0.16132551431655884,0.11419325321912766,-0.07750596851110458,0.1405797153711319,0.04737440496683121,0.0360579788684845,-0.19509099423885345,-0.08935800939798355,0.11952822655439377,0.15752853453159332,0.11597028374671936,-0.052998580038547516,-0.10053440928459167,-0.02752154879271984,0.05547745153307915,-0.09887681156396866,-0.00486775441095233,0.0299337487667799,-0.16056524217128754,-0.04288935661315918,-0.10237406194210052,-0.05607078596949577,-0.11378607153892517,0.048523109406232834,-0.195757195353508,-0.0698833242058754,0.03629513457417488,-0.048534926027059555,-0.06341821700334549,-0.0242992602288723,-0.16983294486999512,-0.11109209805727005,0.02729279175400734,0.06424832344055176,-0.09695761650800705,-0.08841488510370255,-0.034649405628442764,0.1328936070203781,-0.020953914150595665,0.04257921501994133,0.1778188943862915,-0.03839556872844696,-0.00417790561914444,0.15037140250205994,-0.03221742808818817,0.010131132788956165,-0.0798741802573204,-0.09908244758844376,-0.02417657896876335,0.1040148064494133,0.09932456910610199,0.09702106565237045,-0.06529897451400757,0.12568774819374084,-0.04648933932185173,-0.013408957980573177,-0.1638123095035553,0.14117322862148285,-0.0009572843555361032,-0.05936191976070404,0.05489705130457878,0.20229418575763702,0.17682915925979614,0.1425742357969284,0.17560097575187683,-0.00294708926230669,-0.06380595266819,0.19895116984844208,0.11251139640808105,-0.09880497306585312,0.21324007213115692,0.10383810847997665,0.07271014899015427,-0.0020928753074258566,0.02996077761054039,0.023230159655213356,0.03027813509106636,-0.084672711789608,-0.01856776885688305,0.02571272663772106,0.03526804968714714,-0.0019462157506495714,0.18906976282596588,-0.07924383878707886,-0.020429259166121483,-0.21362417936325073,-0.11854194104671478,-0.1688336879014969,-0.002624278888106346,0.10702216625213623,0.0891498327255249,0.012813439592719078,-0.16549676656723022,-0.05910337716341019,0.072459876537323,-0.10224579274654388,-0.003893062938004732,-0.21507763862609863,-0.09256814420223236,-0.08598584681749344,0.03208443894982338,0.16948635876178741,0.10574784874916077,0.01977219618856907,0.08014150708913803,0.16597038507461548,0.06556302309036255,0.09518884122371674,0.08607300370931625,-0.054624710232019424,0.15839296579360962,0.04716211557388306,-0.008406096138060093,-0.02883521094918251,0.015074677765369415,-0.10171674191951752,-0.010655242018401623,-0.1341066211462021,-0.19541800022125244,-0.08474698662757874,0.05020056664943695,-0.005767630413174629,-0.009230513125658035,0.008744965307414532,0.17894652485847473,0.1416073441505432,-0.034519534558057785,-0.22057664394378662,0.20078127086162567,0.2096269726753235,-0.132411390542984,0.06792495399713516,-0.050168756395578384,-0.024224234744906425,0.011761175468564034,-0.23960836231708527,0.005111901089549065,0.06078657507896423,-0.14141561090946198,-0.062137406319379807,-0.0027664785739034414,0.09775897115468979,-0.073262520134449,0.027364084497094154,0.12723666429519653,0.026691965758800507,-0.018853336572647095,0.16733062267303467,0.03857184946537018,0.04736708477139473,-0.2275392711162567,0.03382273018360138,-0.047459881752729416,0.07321491092443466,0.011571750044822693,-0.16131411492824554,-0.09104817360639572,0.16331855952739716,-0.0290642399340868,-0.09130922704935074,-0.07174708694219589,-0.03994450345635414,-0.26988446712493896,0.09779004007577896,-0.19910921156406403,-0.29690539836883545,-0.11012464761734009,-0.09279947727918625,-0.05306768789887428,-0.10011394321918488,0.16554772853851318,-0.03572686389088631,0.010125904344022274,-0.011651572771370411,-0.19091342389583588,0.09651476889848709,0.060138437896966934,0.1223871111869812,0.03373256325721741,-0.07875338941812515,0.1410626620054245,0.0514187291264534,0.0852179154753685,-0.09588410705327988,0.0010413640411570668,-0.12833571434020996,-0.03861142322421074,0.07549650222063065,-0.12337338924407959,0.027971908450126648,0.033927299082279205,-0.01112567912787199,-0.11956485360860825,-0.03419788181781769,-0.0610140785574913,0.04193273186683655,0.09845492243766785,0.0964827686548233,0.00747684808447957,0.09377149492502213,-0.15397626161575317,-0.1435960978269577,0.024348918348550797,-0.06470760703086853,0.09287959337234497,-0.055423106998205185,-0.09122803062200546,-0.11481611430644989,0.08419165760278702,0.0020876359194517136,0.13136103749275208,0.13154345750808716,0.09639190137386322,0.023905975744128227,-0.0007167647709138691,-0.016569487750530243,0.04021468758583069,0.11450249701738358,-0.01808384247124195,0.12963847815990448,-0.0761355310678482,0.0051927207969129086,-0.00684183556586504,0.04528634250164032,0.28161314129829407,-0.10816303640604019,0.06374568492174149,-0.06506624817848206,0.06173357367515564,0.1631602793931961,-0.2214154303073883,0.02093014493584633,0.0992780402302742,-0.17430543899536133,0.02388448640704155,-0.004156734794378281,0.22309352457523346,-0.0127281304448843,-0.07758971303701401,-0.0880410298705101,-0.0013117787893861532,-0.0647573173046112,0.14946822822093964,0.10825777053833008,-0.05679778754711151,-0.108356773853302,-0.057736147195100784,0.06564417481422424,0.03373011201620102,-0.06018327549099922,-0.11164762824773788,-0.003667260520160198,-0.06562282145023346,0.03684796765446663,-0.22781354188919067,0.11053144931793213,0.13087987899780273,-0.2513967454433441,-0.1416594684123993,-0.06863535195589066,-0.14019125699996948,-0.06090978533029556,-0.05472134053707123,-0.18532787263393402,0.002341051120311022,-0.03600573539733887,0.16403770446777344,0.058166541159152985,0.030547386035323143,-0.06793176382780075,0.1347283571958542,0.04487504065036774,-0.1075727716088295,-0.2311355024576187,0.1506166011095047,-0.018423471599817276,0.047484684735536575,0.1249692440032959,0.024922046810388565,0.21297654509544373,-0.027775045484304428,0.07748084515333176,0.1425548791885376,0.06399975717067719,-0.08670628070831299,-0.3043416440486908,-0.050248097628355026,-0.0862242728471756,0.1069735512137413,-0.1585189402103424,0.017461437731981277,-0.21890272200107574,-0.00634655961766839,0.184098482131958,0.1949915587902069,0.07625450193881989,-0.022243980318307877,-0.20577184855937958,-0.06937595456838608,0.09610190242528915,0.2915307283401489,-0.07739906013011932,-0.07813138514757156,0.08600816130638123,0.1874721348285675,0.07774218171834946,0.06767641752958298,-0.14495734870433807,0.15183323621749878,0.1743207573890686,-0.09170764684677124,0.14085069298744202,0.23119208216667175,0.09022756665945053,0.09554048627614975,-0.07058609277009964,0.02085360698401928,-0.15565572679042816,0.2377939075231552,0.12534435093402863,0.041271746158599854,-0.12980231642723083,0.07877062261104584,0.15529920160770416,0.13976900279521942,-0.0749039277434349,-0.03547781705856323,-0.09034352749586105,0.18457132577896118,-0.04444027319550514,-0.05799056589603424,0.11368982493877411,-0.07898593693971634,-0.07825785130262375,-0.049463365226984024,-0.006475419737398624,-0.0774042010307312,0.04880375787615776,-0.0819769948720932,0.04179222509264946,0.0803879126906395,0.08428536355495453,0.004390236455947161,0.1514536440372467,-0.0026322822086513042,-0.06911956518888474,0.09576950967311859,0.04925490543246269,-0.13726089894771576,-0.0015815447550266981,-0.025725487619638443,0.135778546333313,0.019705776125192642,-0.11204217374324799,-0.000058740872191265225,0.1396174132823944,0.05551779642701149,0.055298395454883575,0.05943433195352554,0.07154232263565063,-0.028540028259158134,-0.016258614137768745,-0.15948675572872162,-0.09689602255821228,0.10989001393318176,-0.1320619434118271,0.04422306641936302,0.20650552213191986,-0.06422794610261917,-0.2563885748386383,0.16256695985794067,-0.006564913783222437,0.2902733087539673,-0.14435991644859314,0.04082305356860161,0.24795089662075043,-0.08790963888168335,0.18797104060649872,0.05934710428118706,-0.16281403601169586,-0.11645761132240295,-0.12471324950456619,0.18024012446403503,-0.06668426096439362,0.11127591878175735,-0.01726594939827919,-0.10798333585262299,-0.06556153297424316,-0.07997553795576096,0.04557612165808678,0.2429586946964264,-0.08278314769268036,0.04815606027841568,-0.19103260338306427,0.15909524261951447,-0.07522252202033997,0.13565121591091156,-0.06809347122907639,0.06816425919532776,0.057423535734415054,0.11346645653247833,0.056613754481077194,0.16611459851264954,0.07164659351110458,0.03576284274458885,0.29641488194465637,-0.12721975147724152,0.05402110144495964,0.15401916205883026,0.02638968452811241,0.0539214164018631,-0.07991727441549301,-0.16287782788276672,0.2765568196773529,-0.07241741567850113,-0.12417121976613998,0.14530009031295776,0.15963152050971985,0.08237645030021667,-0.22155322134494781,-0.21031048893928528,0.16416092216968536,-0.34136831760406494,-0.04033906012773514,0.08204043656587601,-0.2868809700012207,-0.01520014088600874,-0.056232597678899765,0.23966513574123383,-0.03460220247507095,-0.09073299914598465,-0.057882342487573624,0.12231329828500748,-0.002589037176221609,0.3263891339302063,0.05717509612441063,-0.13417375087738037,-0.31796619296073914,-0.14771415293216705,0.22184938192367554,0.1844359040260315,0.060190748423337936,-0.031595636159181595,-0.12213144451379776,0.06046950817108154,0.1896963119506836,-0.29535436630249023,0.036885760724544525,-0.08899544179439545,-0.31878602504730225,-0.04134287312626839,0.19552551209926605,-0.34794625639915466,0.013244378380477428,-0.01083504781126976,-0.25375476479530334,0.047562722116708755,0.03703088313341141,0.1181008592247963,-0.10065187513828278,-0.03759435936808586,-0.13014665246009827,-0.1306287795305252,0.205060675740242,-0.24632689356803894,-0.3580060601234436,0.016001587733626366,0.2593272030353546,0.21368525922298431,0.05215730890631676,0.26793429255485535,0.34747806191444397,-0.08895941078662872,0.11816009134054184,0.19341984391212463,-0.143099844455719,-0.12038342654705048,-0.1203206405043602,0.154851034283638,0.015354524366557598,0.04212324693799019,-0.09364324063062668,-0.03568880259990692,-0.31464749574661255,-0.08258619904518127,0.12268027663230896,0.2696397304534912,-0.17742159962654114,-0.003149433294311166,-0.1733884960412979,-0.07390383630990982,0.1019710823893547,0.36241474747657776,-0.13913561403751373,0.07818679511547089,0.054654210805892944,-0.05422721430659294,0.22490553557872772,0.32945361733436584,0.07752145081758499,0.050840236246585846,0.39622780680656433,-0.10234764218330383,0.28243857622146606,0.10492181032896042,-0.15269973874092102,0.006387822329998016,-0.04710286483168602,0.05381937325000763,-0.018711451441049576,-0.2755946218967438,-0.1412557065486908,-0.07618486881256104,0.0681554451584816,-0.08495501428842545,-0.05264892429113388,-0.1018209159374237,0.13029049336910248,0.017023278400301933,-0.16725857555866241,-0.05426730588078499,-0.07920598983764648,0.04458159580826759,0.06900900602340698,0.00910264067351818,0.3759992718696594,-0.4731690287590027,0.7813805937767029,-0.664787769317627,-0.008377504535019398,0.9163402915000916,0.9199181795120239,-0.45409074425697327,0.1590808480978012,0.07618506997823715,-0.5107441544532776,-0.33746859431266785,0.21807365119457245,-0.6758086681365967,0.11088472604751587,0.438119500875473,-0.03404098376631737,0.09664754569530487,0.1927739381790161,-0.03559281304478645,0.4320034086704254,0.07687409967184067,0.24016885459423065,0.044979047030210495,0.10612187534570694,0.0364258736371994,0.09524429589509964,-0.20574897527694702,-0.0569380559027195,-0.128794327378273,0.48206213116645813,-0.30726155638694763,0.05572313070297241,-0.059452641755342484,-0.28079190850257874,0.1519441306591034,-0.057103972882032394,0.0007419355097226799,-0.14570415019989014,0.056234005838632584,-0.05846503749489784,0.2128206044435501,-0.053870826959609985,0.10167554020881653,0.031245095655322075,-0.021291181445121765,0.08123240619897842,0.37107524275779724,0.042847007513046265,0.15785029530525208,-0.049205806106328964,0.25456130504608154,-0.18000303208827972,-0.1858280599117279,0.12823767960071564,-0.08653602749109268,-0.05031914636492729,-0.1695629209280014,0.3071575462818146,-0.1782652884721756,0.13672475516796112,0.3173998296260834,0.08268893510103226,0.08299491554498672,0.1035061627626419,-0.21236121654510498,-0.02669832855463028,-0.21600334346294403,0.0137229785323143,0.17211197316646576,0.054278649389743805,0.0235082246363163,-0.12924537062644958,0.13186946511268616,-0.031077757477760315,-0.06862255185842514,0.028342854231595993,0.16941577196121216,-0.12445133924484253,-0.030760468915104866,-0.035986870527267456,-0.35007697343826294,-0.2561827600002289,0.15672636032104492,0.1507101058959961,0.16956855356693268,0.11549079418182373,-0.07720307260751724,0.10057537257671356,0.19169287383556366,-0.23960180580615997,0.15301565825939178,-0.049080006778240204,0.1287049800157547,-0.17183437943458557,0.18003496527671814,-0.21008004248142242,-0.12482018023729324,0.11862111836671829,0.025444336235523224,0.22987686097621918,0.26349934935569763,0.17299550771713257,0.016377272084355354,0.17598092555999756,-0.09871064126491547,-0.2972753345966339,-0.09695632010698318,0.03236605226993561,-0.1808134764432907,0.04281188175082207,0.026968717575073242,0.07280460745096207,0.08211476355791092,0.2204669862985611,0.15754243731498718,-0.32041457295417786,-0.022169210016727448,0.07640600204467773,0.033480457961559296,0.07162408530712128,-0.2908020615577698,-0.2632487416267395,0.11501306295394897,0.23701928555965424,-0.17880754172801971,-0.000782610906753689,0.06372727453708649,0.21484270691871643,-0.02869931235909462,0.37442725896835327,-0.31680312752723694,-0.09558311849832535,0.2460700273513794,0.2213728427886963,0.13196732103824615,0.23421531915664673,-0.15888163447380066,0.11600750684738159,-0.30116888880729675,0.0353388637304306,-0.23207712173461914,0.08058487623929977,-0.15723632276058197,-0.07841569930315018,-0.0030503147281706333,-0.2323472648859024,-0.22354388236999512,0.0843568742275238,-0.1122264713048935,-0.1550944745540619,-0.010327695868909359,-0.15671612322330475,-0.17294467985630035,0.19949766993522644,0.040336307138204575,-0.016984185203909874,-0.14929962158203125,0.09799525141716003,0.027886442840099335,-0.11715508252382278,0.010208617895841599,0.17367374897003174,-0.24235941469669342,-0.17958860099315643,-0.0020312187261879444,0.056873876601457596,-0.2097112387418747,0.0728161633014679,0.20596522092819214,0.04695947468280792,0.0777924433350563,0.020340070128440857,0.18915142118930817,-0.20183855295181274,-0.011480393819510937,0.12999388575553894,0.274262011051178,-0.2912527918815613,0.16206465661525726,-0.12642061710357666,-0.24773827195167542,0.10763902217149734,-0.0010316254338249564,0.022683050483465195,-0.16522085666656494,-0.1654941588640213,-0.031225578859448433,-0.058940328657627106,0.15725140273571014,-0.04013362154364586,0.3014976978302002,0.04532155022025108,-0.1966693252325058,0.22494500875473022,-0.07343220710754395,0.10684829205274582,-0.02152036316692829,-0.0027610724791884422,-0.13702644407749176,0.029018308967351913,-0.16114461421966553,-0.0016448384849354625,-0.250168114900589,-0.038665805011987686,0.06742729246616364,-0.17020519077777863,-0.25141656398773193,-0.06861027330160141,-0.09495989978313446,0.16381371021270752,0.028437061235308647,0.15077096223831177,-0.07941718399524689,0.04384760558605194,0.05584919825196266,0.2220323234796524,-0.12423360347747803,-0.16683758795261383,-0.006288021337240934,0.10353787243366241,-0.18928895890712738,-0.2817062735557556,0.1399795264005661,0.031693678349256516,-0.20265501737594604,-0.16170109808444977,0.09804809093475342,-0.10810109227895737,0.1838415414094925,0.21648474037647247,0.11757455766201019,0.010024478659033775,-0.1760311871767044,0.02943352237343788,-0.012871363200247288,-0.1804085373878479,-0.05808562412858009,-0.2370663434267044,0.27914464473724365,-0.056462809443473816,0.33023402094841003,-0.11911068856716156,-0.08905833214521408,0.03160271421074867,0.00860571302473545,0.1392946094274521,0.129557803273201,-0.2712812125682831,0.04749618470668793,0.07590541988611221,-0.10487177968025208,0.07243316620588303,0.21257971227169037,-0.27349573373794556,0.12330872565507889,0.2057386189699173,0.03510336950421333,0.23252803087234497,-0.07353214174509048,-0.11483348160982132,0.242823526263237,0.02500976249575615,0.04183172062039375,-0.14167267084121704,-0.16152311861515045,-0.07822854071855545,-0.1807100623846054,0.11403973400592804,0.2036406546831131,0.07978507876396179,-0.03857556730508804,0.07803942263126373,-0.054566629230976105,0.18374788761138916,-0.069819875061512,-0.10234741866588593,-0.08890915662050247,0.08384442329406738,0.006763406563550234,0.028141791000962257,-0.03295225650072098,0.07048594951629639,-0.03008154220879078,0.01473336573690176,0.14958764612674713,0.13047640025615692,0.03499879688024521,0.1900666207075119,-0.2368139922618866,0.07968156039714813,0.08792392909526825,0.15901800990104675,0.024212587624788284,-0.019660916179418564,0.18532249331474304,0.004220579285174608,-0.40967264771461487,-0.08975265175104141,-0.14397896826267242,-0.279172420501709,-0.00805769581347704,-0.07095342129468918,0.12575338780879974,-0.3099057376384735,0.05777652561664581,-0.16898570954799652,0.03971810266375542,-0.05770883336663246,0.09369561076164246,-0.264017790555954,-0.08371862769126892,-0.10265924036502838,0.08076874166727066,-0.03844386711716652,-0.12497556954622269,-0.0015502411406487226,-0.07832712680101395,-0.17023378610610962,0.2410578727722168,0.015827322378754616,-0.21758396923542023,-0.3709941506385803,-0.032950520515441895,-0.32567837834358215,-0.07029765844345093,-0.13906751573085785,-0.25953245162963867,0.20381106436252594,-0.16058681905269623,-0.20238825678825378,0.28602489829063416,-0.03478941693902016,0.27168041467666626,-0.15207239985466003,-0.09096218645572662,-0.14268551766872406,-0.030646871775388718,0.07485131919384003,-0.059730999171733856,0.07812246680259705,0.12636926770210266,-0.19713632762432098,-0.06834857165813446,0.1321985274553299,-0.0058653936721384525,-0.026446590200066566,-0.14809246361255646,0.2571336030960083,-0.05586525797843933,0.15854176878929138,0.004694876726716757,-0.09022213518619537,-0.005564152263104916,0.19059745967388153,-0.12374890595674515,-0.13689757883548737,0.15602746605873108,-0.0603514239192009,0.03161022812128067,-0.13447993993759155,-0.0017687343060970306,-0.013172305189073086,0.13090458512306213,0.03764338791370392,-0.13079498708248138,-0.01323091983795166,0.03104923851788044,-0.002380659803748131,0.03499287739396095,-0.07901094853878021,0.025957144796848297,0.05175742879509926,-0.08916614949703217,0.02437533251941204,0.10941332578659058,0.049800124019384384,0.05487632378935814,-0.0406038723886013,-0.0024870187044143677,0.013697292655706406,-0.01619694009423256,0.15988710522651672,-0.10649312287569046,-0.18967172503471375,-0.21802985668182373,0.26251891255378723,0.10790138691663742,0.125739187002182,-0.31489524245262146,0.23637107014656067,0.07720404118299484,-0.21078136563301086,0.24174349009990692,0.02378222532570362,-0.10558164864778519,0.27574703097343445,-0.026380274444818497,-0.07656485587358475,-0.3209541440010071,-0.010132811032235622,0.37454697489738464,0.14744286239147186,-0.08916034549474716,-0.2528339922428131,-0.3592272996902466,-0.11249059438705444,0.3667467534542084,0.18963181972503662,-0.03657819703221321,-0.19684071838855743,-0.2713145613670349,0.11401161551475525,-0.029479539021849632,0.1575802117586136,-0.06431131809949875,-0.17198070883750916,-0.06559357792139053,-0.07956282794475555,0.35460150241851807,0.2728598117828369,-0.004227877594530582,-0.12879323959350586,0.21297195553779602,0.06263145804405212,-0.12142042070627213,0.1342536211013794,0.14837077260017395,-0.1887907236814499,-0.32155343890190125,0.07971788942813873,0.33053210377693176,-0.17745743691921234,-0.11379507184028625,0.18213677406311035,-0.10981633514165878,0.2716164290904999,0.1120317205786705,0.13683928549289703,-0.38547810912132263,-0.13400186598300934,0.27637675404548645,-0.08284666389226913,-0.22298920154571533,0.12892724573612213,-0.08027186989784241,-0.21941004693508148,-0.17361827194690704,0.2983449101448059,-0.008745325729250908,0.09888989478349686,0.16851164400577545,-0.01816403865814209,-0.278371661901474,0.23942245543003082,0.12328965961933136,0.21330349147319794,-0.2721767723560333,0.06871391832828522,-0.02881798893213272,0.19472184777259827,-0.14274604618549347,0.21411101520061493,-0.2711581587791443,-0.08161228150129318,0.07824354618787766,0.08014731109142303,0.08400969207286835,0.2182072103023529,-0.13780547678470612,-0.27342507243156433,0.2417106032371521,-0.2349916696548462,-0.24845461547374725,0.07262060791254044,-0.12072834372520447,0.026814812794327736,-0.0922681912779808,0.1836787611246109,0.19261839985847473,-0.26979175209999084,0.05667739734053612,-0.12383835017681122,0.025226902216672897,-0.11658088117837906,0.06904914975166321,-0.04694262519478798,-0.041304316371679306,-0.06500071287155151,0.09039972722530365,0.15497365593910217,0.1987064629793167,0.183034747838974,-0.051349490880966187,0.057033248245716095,-0.14809714257717133,0.2171899378299713,-0.039868783205747604,0.15499217808246613,-0.26582205295562744,0.055761389434337616,-0.09906621277332306,0.24620528519153595,0.08092178404331207,0.1485084444284439,0.078582763671875,-0.11646392196416855,-0.19887107610702515,-0.1851053535938263,-0.02718259207904339,0.19812045991420746,-0.2557361125946045,-0.01898944564163685,-0.033375564962625504,0.2747473120689392,0.10722628980875015,0.005096061620861292,-0.09020847082138062,0.12303580343723297,0.17222413420677185,-0.10218322277069092,0.07059408724308014,0.0771663635969162,-0.24707280099391937,-0.07449381798505783,-0.03291156142950058,0.07725247740745544,-0.058884184807538986,-0.03106476552784443,-0.10835996270179749,-0.015784697607159615,-0.1481475979089737,0.014819076284766197,0.01572573371231556,-0.11643240600824356,0.237468421459198,-0.1169547364115715,-0.08032295852899551,0.10882294923067093,0.06368120014667511,-0.09781873226165771,-0.01491593848913908,-0.006695397198200226,0.1807195395231247,-0.3456677198410034,0.07700394093990326,0.07810190320014954,-0.18427400290966034,-0.0816527009010315,0.13461999595165253,-0.339773952960968,0.22884219884872437,-0.05396685376763344,0.2755727767944336,-0.0890827476978302,0.3551172614097595,-0.21108418703079224,0.23923368752002716,0.03536560758948326,0.3166274428367615,0.025208674371242523,0.17860089242458344,-0.1924266368150711,0.20646820962429047,0.08173505961894989,0.15182003378868103,0.0542999804019928,-0.10560992360115051,-0.012184062972664833,0.06303196400403976,-0.10152170062065125,0.3141176998615265,-0.21230271458625793,0.12806729972362518,-0.13220222294330597,0.10136446356773376,0.03705272451043129,0.0021527856588363647,0.1752774715423584,-0.009786195121705532,0.19602705538272858,-0.15939593315124512,0.12052373588085175,-0.032445069402456284,0.13005603849887848,0.20637598633766174,-0.027502382174134254,0.07815451920032501,-0.02525428496301174,0.06774655729532242,-0.1075730100274086,-0.017547568306326866,-0.07342103123664856,0.07828712463378906,0.019196366891264915,0.1533849537372589,0.16499976813793182,-0.23958812654018402,0.016103602945804596,-0.010128110647201538,0.16044209897518158,-0.04563228785991669,0.022757703438401222,-0.09548289328813553,0.06922736018896103,-0.10679411888122559,0.2446431964635849,0.09968071430921555,0.04612600430846214,-0.10065875947475433,-0.054393041878938675,0.06274835765361786,0.20574530959129333,0.05002913624048233,0.22377939522266388,0.11621245741844177,0.14720167219638824,-0.17229537665843964,-0.042278412729501724,0.10926495492458344,-0.08696691691875458,-0.15878209471702576,-0.06948025524616241,-0.033720262348651886,-0.18846938014030457,0.1332281529903412,-0.053677480667829514,0.08675495535135269,-0.176343634724617,-0.18157453835010529,-0.13735918700695038,-0.13988284766674042,0.16340230405330658,0.09536668658256531,0.011320753023028374,0.16112591326236725,0.024422120302915573,-0.15239804983139038,0.017120610922574997,0.12184777110815048,0.0829462856054306,-0.031326089054346085,-0.0010840503964573145,-0.16271395981311798,0.12530986964702606,0.025197288021445274,0.11321750283241272,-0.07989320904016495,0.12142600864171982,-0.14172819256782532,0.10154388099908829,0.08151991665363312,0.17843277752399445,-0.10223342478275299,0.06827207654714584,-0.3861544728279114,-0.03638240322470665,-0.034666504710912704,0.10475865006446838,0.09836385399103165,-0.017597930505871773,0.0163253303617239,0.20680056512355804,-0.09387199580669403,-0.13795806467533112,-0.019558273255825043,0.07404656708240509,-0.12046152353286743,0.22168725728988647,-0.17874610424041748,0.032049983739852905,-0.028189659118652344,0.1550745666027069,-0.07000898569822311,0.0573994480073452,-0.16566912829875946,-0.04918678104877472,-0.03373212367296219,0.24030406773090363,0.20299489796161652,0.029996197670698166,0.16203616559505463,0.08470575511455536,-0.1442742645740509,0.12800024449825287,0.19365201890468597,-0.05077172815799713,-0.14687618613243103,-0.10087873041629791,0.06038421019911766,0.04492727294564247,0.16557590663433075,0.022561954334378242,-0.2083001583814621,-0.2861407995223999,0.17866972088813782,-0.04477467015385628,-0.06786397099494934,0.11683781445026398,-0.043766699731349945,0.131796732544899,0.0014524920843541622,0.10972245782613754,0.23163564503192902,-0.09051539748907089,-0.03968609869480133,-0.169343963265419,0.12400923669338226,0.05677468702197075,0.20121745765209198,-0.08823713660240173,0.01097080484032631,0.10701440274715424,-0.20866228640079498,-0.007009091787040234,0.11480136215686798,-0.12197185307741165,0.06572193652391434,-0.14599649608135223,-0.018538065254688263,0.17196299135684967,0.07304641604423523,-0.00964818149805069,-0.1296454817056656,0.14937560260295868,-0.0019246122101321816,-0.20371194183826447,0.05393774062395096,-0.029006745666265488,-0.10675358027219772,0.1180516704916954,-0.20974713563919067,0.023049674928188324,0.0973026305437088,-0.10315687954425812,0.0028378753922879696,-0.12741036713123322,0.056250326335430145,0.013730053789913654,0.0577685609459877,0.008311254903674126,0.012926533818244934,-0.09935023635625839,0.1514730006456375,-0.07610126584768295,0.060842957347631454,-0.06977739930152893,-0.08773953467607498,-0.09538201987743378,0.09577096998691559,-0.1859937161207199,0.1333228200674057,0.12347391992807388,0.1166905090212822,-0.11724025756120682,0.08246131241321564,-0.0687766820192337,0.0069913179613649845,-0.13217811286449432,-0.1889297068119049,0.11182349175214767,0.010503948666155338,-0.17388254404067993,-0.08120901137590408,0.05332842096686363,0.028678620234131813,-0.07996221631765366,-0.06437724083662033,-0.09570269286632538,0.18241265416145325,-0.20378771424293518,0.059105537831783295,0.1680828481912613,-0.10715335607528687,-0.1298288255929947,-0.09877979755401611,0.17192202806472778,-0.22935989499092102,-0.14514045417308807,0.014418914914131165,-0.021581100299954414,-0.031185077503323555,-0.0639248937368393,0.1296786516904831,0.19528493285179138,-0.024479934945702553,-0.03425906226038933,0.08134441077709198,0.12432970106601715,0.0940408706665039,0.2150837928056717,0.035077545791864395,-0.029379455372691154,-0.025458479300141335,0.17189371585845947,-0.0075936163775622845,-0.17323201894760132,-0.190920889377594,0.034325383603572845,-0.20231100916862488,-0.05971522256731987,0.02702130749821663,0.03590110316872597,-0.1027902215719223,-0.17692044377326965,-0.14190402626991272,0.09056456387042999,-0.01366746798157692,-0.17993715405464172,0.09224776923656464,0.018019871786236763,-0.08231718093156815,0.03524326905608177,-0.030625689774751663,-0.07095057517290115,-0.018680132925510406,0.14852744340896606,-0.02171364426612854,-0.1689285933971405,0.06147758662700653,0.019872160628437996,-0.26158037781715393,-0.18771637976169586,0.4311881363391876,0.052127398550510406,-0.08907657861709595,0.019683271646499634,-0.017478683963418007,-0.10759423673152924,0.032258935272693634,-0.07885651290416718,0.12236455082893372,-0.13567239046096802,0.10365215688943863,-0.03957022354006767,0.021053360775113106,0.039429474622011185,0.35802313685417175,-0.11881379038095474,0.11088652908802032,0.01777791976928711,-0.007727671880275011,-0.14313243329524994,-0.08604215830564499,-0.09716013073921204,-0.033045243471860886,-0.1877562403678894,0.2856280505657196,-0.06810670346021652,-0.19532909989356995,-0.22233767807483673,0.1418394297361374,-0.32361000776290894,-0.016448169946670532,0.15459893643856049,-0.0395575687289238,0.04921184480190277,-0.053694769740104675,-0.050579167902469635,0.14964808523654938,-0.13157767057418823,0.0910496935248375,-0.09356865286827087,0.11788380891084671,0.16671064496040344,0.09566514939069748,-0.2381569743156433,-0.02217678725719452,0.18977752327919006,-0.00330917676910758,-0.20296818017959595,0.07347430288791656,0.13781769573688507,-0.15902437269687653,-0.009677980095148087,-0.06705725938081741,-0.10410120338201523,0.055846549570560455,-0.05433962866663933,0.27248814702033997,-0.06724566221237183,-0.02232692576944828,-0.16417434811592102,0.043148480355739594,0.021902231499552727,0.25507253408432007,-0.12431719154119492,-0.09357381612062454,-0.2602134048938751,0.009691089391708374,0.20320165157318115,-0.0285504087805748,-0.012053161859512329,-0.26639625430107117,-0.28476354479789734,0.09146060049533844,0.1679595559835434,0.411103218793869,-0.21379394829273224,-0.20611926913261414,-0.14786073565483093,-0.07415100932121277,0.1864205300807953,-0.29844871163368225,-0.04610247164964676,0.0001295253896387294,-0.24684709310531616,-0.1144493892788887,0.173544242978096,0.29854628443717957,0.09184025228023529,-0.08546663820743561,-0.03294955566525459,-0.059304431080818176,0.24383588135242462,0.16297504305839539,0.24411408603191376,0.03851920738816261,0.07292263209819794,-0.05446568876504898,0.0595615953207016,-0.3053439259529114,-0.2638409733772278,-0.13482509553432465,-0.045519761741161346,-0.10740900039672852,-0.03270379453897476,-0.04123156517744064,-0.07977309077978134,-0.09560525417327881,0.09967876970767975,0.29013973474502563,0.15032008290290833,0.14375333487987518,0.010263396427035332,0.0782904252409935,-0.16482117772102356,-0.12707066535949707,0.11786392331123352,0.1332099288702011,-0.11835458874702454,0.10756611824035645,0.004282678943127394,0.15969453752040863,-0.08572402596473694,-0.08555413782596588,-0.15460985898971558,-0.04062724485993385,-0.3340761065483093,-0.29060474038124084,-0.19122812151908875,0.03699900209903717,0.0619165301322937,-0.21438616514205933,-0.05471712350845337,0.03068011999130249,-0.22785986959934235,0.09024292230606079,-0.04227171465754509,0.111001156270504,-0.099423848092556,0.04508606716990471,-0.03813547641038895,-0.009881068021059036,-0.10953957587480545,-0.20160283148288727,0.0572262741625309,0.07056603580713272,-0.0023826193064451218,-0.0850718542933464,0.03519994392991066,0.03432580828666687,-0.05373561009764671,0.04374619573354721,0.0184080358594656,0.010731951333582401,-0.03373180329799652,-0.07517722994089127,-0.20678436756134033,-0.03389817103743553,-0.005348658189177513,-0.06384129822254181,-0.011791544035077095,-0.12549860775470734,0.1508955955505371,-0.16427890956401825,-0.068516306579113,-0.15987534821033478,-0.1569206416606903,0.08799052238464355,0.03612978011369705,0.10130094736814499,0.11142329126596451,0.0018653421429917216,0.20353949069976807,0.04074108973145485,-0.07652421295642853,0.1177087053656578,0.06547459214925766,-0.09393345564603806,-0.0503651462495327,-0.05189967155456543,-0.13048632442951202,-0.036923546344041824,-0.22340740263462067,0.11030009388923645,0.024652862921357155,-0.014528320170938969,-0.0013078555930405855,0.070380300283432,0.015389332547783852,-0.022059159353375435,0.1135009229183197,0.035890717059373856,-0.012575110420584679,0.2108084112405777,0.04789667949080467,-0.02503976598381996,0.06835392862558365,-0.10815753042697906,-0.13305051624774933,-0.0036935561802238226,-0.09201689064502716,0.021570058539509773,-0.29729387164115906,-0.014993554912507534,0.004182162694633007,0.1437968611717224,-0.2431963086128235,0.12605616450309753,-0.2961716055870056,-0.08065561205148697,-0.22109559178352356,-0.0026548828464001417,0.05338779091835022,0.0535287968814373,0.0903191864490509,0.23085059225559235,-0.05000269040465355,0.301809161901474,-0.08735451102256775,0.045268379151821136,-0.08858168125152588,0.11383982002735138,-0.06745303422212601,-0.07483929395675659,0.04107256233692169,-0.05964670702815056,0.19941021502017975,-0.1310161054134369,-0.01558142900466919,0.03713411092758179,-0.010141395032405853,0.16031628847122192,0.07217464596033096,0.13228309154510498,0.2277129590511322,0.05939929932355881,0.03645775467157364,0.012217405252158642,0.010656815953552723,0.070311039686203,0.17215712368488312,0.058346036821603775,-0.07238871604204178,-0.004855390638113022,0.07295916974544525,0.0668066143989563,0.13804826140403748,0.10282839834690094,0.07961086928844452,-0.1846456229686737,-0.22868424654006958,0.2203608900308609,0.4588278532028198,-0.5313976407051086,0.13526934385299683,-0.5821899771690369,-0.4533126950263977,-0.5885648727416992,1.0046337842941284,-0.8779211044311523,-0.6406540870666504,-0.7998952269554138,0.03608785197138786,-0.5984159708023071,0.2188180685043335,-0.6465140581130981,-0.2671723961830139,-0.09022162854671478,-0.07811623811721802,0.3535739481449127,0.2401244193315506,-0.0776398554444313,-0.3325991630554199,0.005588463973253965,-0.1727074831724167,-0.07459753751754761,0.19081223011016846,0.1828511357307434,0.26007866859436035,0.05256890505552292,-0.10155243426561356,-0.15148350596427917,0.2516254186630249,-0.20866432785987854,0.05933509021997452,-0.25174441933631897,-0.3635226786136627,0.3040623962879181,-0.02626113034784794,-0.2369077205657959,0.2514175474643707,-0.11813104152679443,-0.04748980700969696,0.21798521280288696,-0.03842826560139656,-0.08480627089738846,0.06467081606388092,0.236614391207695,-0.09912475943565369,-0.031278595328330994,0.1367509514093399,0.2197587639093399,0.1371871381998062,0.09591367095708847,-0.06283831596374512,0.14581751823425293,-0.10208377242088318,0.04313962534070015,-0.12424639612436295,-0.05712076649069786,-0.0022422601468861103,-0.005216109100729227,0.041049446910619736,-0.006252769380807877,0.18447254598140717,0.06723660230636597,-0.39420822262763977,-0.29451340436935425,-0.23624905943870544,0.0250007975846529,-0.18515178561210632,-0.10684261471033096,-0.1498536765575409,0.10805749148130417,0.1295933574438095,0.26413264870643616,0.22125259041786194,0.06746163964271545,0.02979251928627491,0.007076033856719732,0.3665938377380371,-0.07435105741024017,-0.36436349153518677,-0.3640690743923187,0.10385768115520477,-0.0013563149841502309,-0.1327972412109375,0.20368632674217224,0.1008235365152359,0.15297061204910278,-0.05131769925355911,0.3701403737068176,-0.0055938661098480225,-0.20762522518634796,-0.09658628702163696,-0.1000470519065857,-0.07358434051275253,0.18395286798477173,-0.18974080681800842,-0.11856690049171448,-0.08231832832098007,0.07973259687423706,0.11016669124364853,-0.13310948014259338,0.29266321659088135,0.33174264430999756,-0.1857765167951584,-0.004854264669120312,-0.22520498931407928,-0.07656578719615936,0.07147495448589325,0.14457787573337555,0.07959172129631042,0.05989240109920502,0.11969327181577682,-0.35876786708831787,0.21105900406837463,0.09179497510194778,-0.3988659977912903,-0.12578490376472473,0.07280424237251282,-0.0819651409983635,-0.11729416996240616,-0.08139672130346298,0.12501521408557892,-0.2453106939792633,-0.20503754913806915,-0.05457566678524017,0.06537721306085587,0.004485628567636013,0.02346942387521267,0.09472762048244476,0.14487192034721375,-0.13379433751106262,-0.07286563515663147,0.07094655185937881,-0.032860781997442245,0.26944541931152344,-0.28195562958717346,-0.07348653674125671,-0.1305633783340454,0.11863599717617035,0.10344202816486359,0.06276051700115204,-0.06939174979925156,-0.04635436460375786,-0.29598280787467957,-0.1485731452703476,-0.06265487521886826,-0.09499521553516388,-0.10501128435134888,0.01815992407500744,-0.18157263100147247,-0.010801379568874836,0.34721285104751587,0.04160192236304283,-0.0804307758808136,0.1163289025425911,-0.10186254978179932,0.1815616637468338,-0.21832188963890076,-0.016776250675320625,-0.2976638376712799,0.12427007406949997,0.1643480807542801,-0.19468802213668823,-0.0030835727229714394,0.05581945180892944,-0.18842603266239166,-0.0025116950273513794,0.23476603627204895,0.19275584816932678,0.3615821897983551,-0.02703734114766121,0.03441350907087326,-0.1519007831811905,-0.18827296793460846,-0.03147459030151367,-0.10958617925643921,0.13064782321453094,0.23446165025234222,-0.12540532648563385,-0.13523030281066895,0.043587397783994675,0.02707114815711975,0.03208779916167259,-0.056775886565446854,0.131226047873497,0.1008158028125763,0.15196174383163452,-0.10613493621349335,0.020467078313231468,-0.04789181426167488,0.12586453557014465,-0.4362289607524872,0.03340889886021614,-0.11303399503231049,-0.19850565493106842,0.06964834034442902,0.11488086730241776,-0.33134007453918457,0.07708121836185455,0.31605517864227295,-0.16356562077999115,0.13763724267482758,-0.05086171254515648,0.07616954296827316,-0.2495100200176239,-0.12137897312641144,-0.22055095434188843,-0.4563744366168976,0.05767630785703659,0.0681348443031311,0.01746026985347271,-0.14574651420116425,0.05140597000718117,-0.13973116874694824,-0.06272685527801514,-0.2049589902162552,-0.12149126082658768,0.20338882505893707,-0.14677317440509796,0.03084377385675907,-0.07395543903112411,0.1736537665128708,-0.07827416062355042,-0.236024409532547,0.0562414675951004,-0.21235276758670807,0.06531857699155807,-0.0810522511601448,-0.05475045368075371,0.046265050768852234,0.2735295593738556,0.09971333295106888,0.017487695440649986,0.25974351167678833,0.14010250568389893,0.0776413083076477,-0.09761273860931396,0.06511103361845016,0.09067102521657944,0.09288749098777771,-0.12834839522838593,-0.1454026699066162,-0.09169667959213257,0.1145142912864685,-0.055033568292856216,-0.034633588045835495,0.10693824291229248,-0.1538260579109192,0.07028497010469437,-0.08950285613536835,0.05823855847120285,0.11839772760868073,0.18415707349777222,0.2564595341682434,-0.13822637498378754,-0.006251479033380747,-0.027125773951411247,-0.32409313321113586,0.04812706261873245,-0.18684235215187073,0.06942521780729294,0.3319419324398041,-0.01550329476594925,0.0453653410077095,0.13406264781951904,-0.1932416707277298,0.22213125228881836,-0.07853064686059952,-0.11803732067346573,-0.007452217396348715,-0.060672830790281296,-0.03364188224077225,-0.0763697698712349,-0.12941431999206543,-0.0006853583035990596,0.03986222669482231,0.1391683667898178,0.07848981022834778,0.08405880630016327,0.011668243445456028,-0.15076890587806702,0.09853297472000122,-0.18488949537277222,-0.04080832749605179,0.00937124527990818,-0.20001909136772156,0.22610236704349518,-0.020097527652978897,0.25621795654296875,-0.43471455574035645,-0.06830988079309464,0.25580331683158875,-0.008523569442331791,-0.04369637370109558,0.12407591938972473,-0.2277190238237381,-0.1563713550567627,0.30015185475349426,-0.017411991953849792,-0.10661546140909195,0.10476640611886978,-0.03184695169329643,0.16911613941192627,0.1341605931520462,-0.2580941319465637,-0.0711071789264679,-0.22057828307151794,0.12152419984340668,-0.010922443121671677,-0.01525343582034111,0.11415383219718933,-0.00747578265145421,-0.2266145795583725,0.2838563621044159,-0.000963052676524967,0.1708659529685974,0.04879271239042282,-0.1420506089925766,-0.38309910893440247,0.24197959899902344,0.0051978775300085545,-0.03632289916276932,0.20479822158813477,0.03303733468055725,0.09202463179826736,-0.1498776078224182,-0.11383403837680817,0.3308729827404022,-0.18829657137393951,-0.1876966506242752,0.07784797251224518,-0.31496694684028625,0.2175845056772232,-0.019458090886473656,-0.14559686183929443,0.2441551238298416,-0.09492836892604828,0.16721850633621216,-0.18252414464950562,0.20244000852108002,0.16372141242027283,-0.11782681941986084,-0.16260723769664764,0.0420953705906868,0.06459758430719376,0.057699013501405716,-0.014413303695619106,0.09141369163990021,-0.10858698189258575,-0.06907213479280472,-0.0301405880600214,0.11164133995771408,-0.24277622997760773,0.14217162132263184,-0.1588745415210724,-0.17283840477466583,0.028897030279040337,-0.003192078322172165,0.06196403503417969,-0.14997148513793945,0.1668010801076889,0.0343455970287323,0.25075817108154297,0.20446863770484924,0.06677410006523132,-0.019917508587241173,-0.07868035137653351,-0.1605915129184723,0.09937527775764465,-0.036770906299352646,0.10059710592031479,0.25342273712158203,-0.018878770992159843,0.10594554245471954,-0.08834020793437958,-0.04893271625041962,0.24314960837364197,-0.09531430155038834,-0.009256386198103428,-0.01232163980603218,0.08126410841941833,-0.10890251398086548,0.07446151226758957,-0.13390831649303436,0.15478894114494324,-0.12386170774698257,-0.1086612418293953,0.23613490164279938,0.007102835923433304,0.08455143123865128,-0.0042459676042199135,0.026159130036830902,0.07711921632289886,0.06082053482532501,-0.09667927026748657,0.05154402181506157,-0.1047988086938858,-0.08526181429624557,-0.09426888078451157,-0.016014527529478073,0.0009175086161121726,-0.05541868135333061,-0.27314552664756775,0.043769266456365585,0.06382980197668076,0.19102269411087036,0.07176391780376434,0.12375659495592117,-0.159846693277359,0.1857047826051712,-0.0779065415263176,0.05081149935722351,0.09578101336956024,0.015019438229501247,-0.13543014228343964,0.12231389433145523,-0.02151949144899845,0.3606286346912384,0.21170350909233093,0.10532835125923157,0.16891656816005707,-0.007027044892311096,0.16174040734767914,0.18485426902770996,-0.31386691331863403,-0.046244099736213684,-0.30972525477409363,-0.09463392943143845,0.16261696815490723,-0.15987533330917358,-0.3197483718395233,0.38707658648490906,-0.10410179942846298,0.24479348957538605,-0.22677689790725708,0.2412826269865036,0.28088271617889404,-0.2753526270389557,-0.009623615071177483,-0.016896860674023628,-0.20232132077217102,0.0159187912940979,-0.08631660044193268,-0.19378884136676788,0.0573936402797699,0.02567330375313759,0.1491183340549469,-0.04409632459282875,0.001964372117072344,-0.43134233355522156,-0.10734596848487854,-0.057240139693021774,0.280516117811203,-0.03666962310671806,-0.007807601243257523,-0.01966463029384613,-0.15384896099567413,-0.34888240694999695,0.033144477754831314,0.0886027067899704,0.10705725848674774,-0.08583270758390427,0.14518898725509644,-0.25981712341308594,0.18698664009571075,0.04640815407037735,-0.14230242371559143,0.16373614966869354,0.030978048220276833,-0.017125755548477173,-0.23371359705924988,0.1337699592113495,0.1812126189470291,-0.12299834191799164,-0.13368861377239227,0.06291962414979935,0.0985264852643013,0.34428179264068604,-0.27005910873413086,-0.010488643310964108,-0.2801912724971771,0.32894742488861084,0.06713846325874329,-0.04934924468398094,0.13273456692695618,-0.06654185801744461,0.30543386936187744,-0.1380847841501236,-0.0829734206199646,-0.008960067294538021,-0.09043032675981522,0.07665470987558365,-0.1768912822008133,0.31240323185920715,0.05674319714307785,-0.41149479150772095,-0.1182560846209526,0.15190356969833374,0.012160776183009148,-0.018301090225577354,-0.07423171401023865,0.18982809782028198,-0.37625113129615784,0.045758455991744995,0.3114166259765625,-0.1358044445514679,0.012561241164803505,-0.18518252670764923,-0.2544271647930145,0.1407463252544403,0.3838137686252594,-0.3055664896965027,-0.04629656299948692,0.16879898309707642,-0.46258363127708435,-0.05568816885352135,-0.07752994447946548,-0.2221892923116684,0.11598179489374161,-0.14886651933193207,0.016809945926070213,0.22183717787265778,-0.16935493052005768,0.5084233283996582,0.07163435220718384,-0.06636450439691544,0.1570834070444107,-0.18603235483169556,0.16540873050689697,-0.17417722940444946,0.02793309837579727,0.048220861703157425,-0.13985680043697357,-0.12952466309070587,0.03254349157214165,-0.1875733584165573,0.15270058810710907,0.10888013243675232,-0.19571775197982788,0.14936992526054382,0.1074182391166687,0.024479933083057404,0.2163742184638977,-0.11590837687253952,-0.12866635620594025,0.28326037526130676,-0.18184900283813477,-0.053250476717948914,0.06916098296642303,0.1811428666114807,-0.1916755735874176,-0.11252965778112411,-0.3139491081237793,0.09785456210374832,-0.0027488714549690485,0.006889542564749718,-0.09629280865192413,0.0646015927195549,-0.13882265985012054,0.21710994839668274,0.04496327042579651,0.1602717787027359,0.02644382044672966,0.006919273640960455,0.0005427301512099802,-0.10562833398580551,0.15595488250255585,0.07792739570140839,-0.2937985956668854,-0.1123429536819458,0.23288856446743011,0.017523285001516342,-0.0028931493870913982,-0.4106242060661316,0.3223322033882141,0.04635877162218094,0.2957519292831421,-0.43086645007133484,-0.020213987678289413,0.2702249586582184,-0.24364249408245087,-0.23050732910633087,-0.16036362946033478,-0.3223477602005005,0.08349432051181793,0.13020849227905273,-0.4122518301010132,0.06872064620256424,-0.0458863265812397,-0.006442531943321228,0.022889845073223114,0.46860629320144653,-0.21267834305763245,0.09992753714323044,-0.03326193615794182,0.3509588837623596,0.06741363555192947,-0.15523304045200348,-0.15503232181072235,0.21757040917873383,-0.3496597707271576,0.3930375874042511,-0.03253483027219772,0.07033529877662659,-0.12216179817914963,-0.2200542390346527,-0.4524886906147003,0.1184859350323677,-0.056312110275030136,-0.22751981019973755,-0.05887359753251076,0.10692619532346725,0.17747075855731964,-0.5259163975715637,0.1251077502965927,0.12292815744876862,-0.35270702838897705,0.05545109510421753,0.07984118908643723,-0.21307364106178284,0.05508757382631302,-0.15050353109836578,0.35834965109825134,-0.20186008512973785,0.1112789437174797,-0.27011245489120483,0.08746408671140671,-0.04785158857703209,0.07108798623085022,0.06159711629152298,-0.5885269045829773,-0.11736402660608292,0.013233461417257786,-0.2631860375404358,-0.12318072468042374,-0.13201898336410522,0.19007351994514465,-0.041835807263851166,-0.16350066661834717,-0.12725071609020233,-0.1243920549750328,0.0011859204387292266,-0.01810770481824875,0.240358367562294,-0.007139449007809162,-0.25531303882598877,0.15377919375896454,0.052274033427238464,-0.3463710844516754,0.29390957951545715,-0.14952969551086426,-0.127772718667984,-0.20654791593551636,-0.000026563995561446063,-0.33154234290122986,0.24942483007907867,-0.22670422494411469,-0.27748095989227295,0.2262611836194992,0.0891379565000534,-0.3325098752975464,-0.1916656643152237,0.1760787069797516,0.02213387005031109,-0.3999323546886444,-0.09062149375677109,0.12340829521417618,-0.3109540343284607,-0.11197561025619507,-0.22665935754776,0.10067738592624664,-0.04372389614582062,0.21589209139347076,-0.1921236217021942,0.054122161120176315,0.047218214720487595,0.014066283591091633,-0.07803253084421158,0.33875957131385803,0.04500829800963402,0.10149206221103668,0.0759519711136818,-0.04935798421502113,0.017546793445944786,-0.2256859838962555,-0.03063669241964817,0.04975394904613495,0.29014986753463745,-0.11406918615102768,0.2170247882604599,-0.12515243887901306,0.031379979103803635,0.06186657398939133,0.31646719574928284,-0.03877297043800354,0.18550936877727509,-0.04546835273504257,0.19759467244148254,0.12747551500797272,0.3118674159049988,-0.09798210859298706,-0.09065773338079453,0.015082153491675854,0.15068425238132477,-0.12590013444423676,-0.004281231202185154,0.10337930917739868,-0.018832173198461533,0.3858652412891388,-0.15816131234169006,0.2085423767566681,0.23432596027851105,-0.13809546828269958,-0.06350589543581009,0.05045158416032791,0.3618905246257782,-0.005891842767596245,0.028995592147111893,-0.10825400054454803,0.02601052261888981,0.11726829409599304,0.11022145301103592,-0.10208544880151749,-0.13556213676929474,-0.00391441211104393,0.09503486007452011,-0.11888625472784042,0.01569189690053463,-0.12706923484802246,-0.09511405974626541,0.027831995859742165,-0.021180491894483566,0.2611067295074463,-0.10787288844585419,-0.2792833149433136,-0.039879824966192245,0.22874698042869568,-0.3414098918437958,0.1372968703508377,-0.22196362912654877,-0.09383950382471085,-0.2257903516292572,-0.1258392333984375,0.1023171916604042,0.23214682936668396,0.008808822371065617,0.1980210542678833,-0.023683711886405945,0.26583918929100037,0.03588239848613739,-0.0549125038087368,0.2032351791858673,0.10604921728372574,-0.10608251392841339,0.07424915581941605,0.07211887091398239,-0.12768641114234924,-0.0864071398973465,-0.15394093096256256,-0.0939168781042099,0.16548791527748108,-0.14823460578918457,0.39560920000076294,-0.2376563549041748,-0.3299553096294403,-0.0860576182603836,-0.1512291580438614,0.12730520963668823,-0.009214903227984905,0.026258978992700577,0.028687728568911552,0.05730748176574707,0.027830280363559723,0.03139406442642212,-0.1511542946100235,0.17650747299194336,0.1447819173336029,0.0346657894551754,0.0693243145942688,0.032761961221694946,0.22949077188968658,-0.09208289533853531,0.029372725635766983,0.28884774446487427,0.21714146435260773,-0.5016003847122192,-0.026137348264455795,-0.07796868681907654,0.032540831714868546,-0.08677148073911667,0.1800713837146759,0.1458825320005417,-0.040200237184762955,-0.06921868771314621,0.06253337115049362,0.17351169884204865,0.10649046301841736,0.025318611413240433,0.026032214984297752,-0.03887096419930458,0.20955725014209747,0.17704378068447113,0.17460232973098755,0.13316012918949127,0.024927550926804543,-0.07991135865449905,-0.16956692934036255,-0.07180172950029373,0.23312267661094666,-0.22319549322128296,-0.12829235196113586,-0.23430514335632324,0.06941285729408264,0.04607873409986496,0.12387695163488388,-0.13026916980743408,-0.03956574946641922,-0.2641618549823761,0.191557377576828,0.0109338890761137,-0.21869739890098572,0.2890240252017975,-0.25790005922317505,0.1752767264842987,-0.05816527456045151,-0.07602498680353165,0.07005065679550171,-0.02716449461877346,-0.2122073620557785,-0.15421436727046967,-0.07194940000772476,-0.13875111937522888,0.18296387791633606,0.3453822433948517,0.220400869846344,-0.0024234624579548836,-0.17998234927654266,-0.12258464843034744,0.14968359470367432,-0.11243845522403717,-0.18051272630691528,0.23935747146606445,-0.26114702224731445,-0.1382143795490265,-0.050771161913871765,0.018039366230368614,-0.010394996032118797,0.2613045573234558,-0.2263609766960144,-0.0907861515879631,0.26800572872161865,-0.17558686435222626,-0.0846107080578804,0.009704778902232647,0.314915269613266,-0.1447506994009018,-0.36573830246925354,0.2395426481962204,0.17355872690677643,-0.23486939072608948,-0.1956358551979065,0.12887366116046906,-0.385514497756958,0.18817800283432007,0.012232455424964428,0.2246069312095642,-0.15872569382190704,-0.1905347853899002,-0.22659392654895782,-0.04868561401963234,-0.20175912976264954,0.3124118149280548,-0.02504657208919525,-0.14973022043704987,0.5244892239570618,0.08643940091133118,-0.00633529806509614,-0.02447955124080181,-0.3078528344631195,-0.2802411913871765,0.3871508538722992,-0.05835386738181114,0.29920247197151184,-0.21300557255744934,-0.042188677936792374,-0.0335683636367321,0.01013096608221531,0.05183076113462448,0.06719229370355606,-0.11064446717500687,0.04088304564356804,-0.13047441840171814,0.22620396316051483,0.12630154192447662,0.1321062445640564,-0.1463242620229721,0.17193156480789185,-0.25135257840156555,0.17554830014705658,-0.05527656525373459,-0.13114915788173676,0.3981153964996338,-0.02572372369468212,-0.14283707737922668,0.32484766840934753,-0.15962840616703033,0.37119513750076294,-0.09500513970851898,-0.10228200256824493,-0.04053002968430519,-0.17358100414276123,0.09434205293655396,0.08909188210964203,-0.1253301203250885,-0.12749968469142914,0.22185118496418,0.05753634497523308,-0.1640184372663498,-0.20686569809913635,-0.0646848976612091,0.060203373432159424,-0.2016272246837616,0.12811143696308136,0.00585795845836401,-0.03276897594332695,-0.0663435086607933,-0.3687377870082855,-0.13986606895923615,-0.3731287717819214,-0.2042405754327774,-0.08289367705583572,-0.0701988935470581,-0.0672604888677597,-0.08512801676988602,-0.05763256549835205,-0.04417216405272484,0.059031616896390915,-0.20172952115535736,0.2633427083492279,0.15150588750839233,-0.11028847098350525,-0.06279212981462479,-0.05422521382570267,0.014244933612644672,0.16381998360157013,-0.046294204890728,0.03565158322453499,-0.08856043964624405,0.13903488218784332,0.1491207480430603,-0.12386398762464523,-0.003749249503016472,0.11504270881414413,-0.11285333335399628,-0.17970424890518188,0.11341972649097443,0.10055550187826157,-0.22865347564220428,0.24902260303497314,0.1717950403690338,0.26490628719329834,-0.07967010140419006,-0.0656353011727333,0.23434948921203613,-0.11391261219978333,-0.07112448662519455,-0.06203918159008026,-0.5817177891731262,0.10677283257246017,0.11832977086305618,-0.4320002496242523,-0.03438125178217888,0.02222457528114319,0.4889815151691437,-0.15963661670684814,-0.12424832582473755,-0.10715880244970322,0.04072130098938942,-0.12727652490139008,0.2813575267791748,0.12310033291578293,0.13788676261901855,-0.45341405272483826,0.1802314817905426,-0.2322203367948532,-0.03712278977036476,0.19374440610408783,0.004184795077890158,-0.4473952054977417,0.05488451197743416,-0.3824085295200348,-0.02750450372695923,-0.011952674947679043,-0.27969977259635925,-0.3326183557510376,0.08521360903978348,0.06573132425546646,-0.5276073217391968,0.1669367253780365,0.21864712238311768,-0.3010977506637573,-0.0741024762392044,0.14528325200080872,0.4687843918800354,-0.2856455147266388,-0.22378182411193848,-0.10083050280809402,0.04338609799742699,0.032759152352809906,0.1429106593132019,0.16907355189323425,0.10140204429626465,0.21226675808429718,0.06424776464700699,-0.26251187920570374,-0.18239228427410126,-0.09889782220125198,0.1351483166217804,0.0730329304933548,0.030665582045912743,-0.00008186011837096885,-0.1562250405550003,-0.07616022229194641,-0.021618079394102097,0.09643813222646713,-0.062118932604789734,-0.19560940563678741,0.01670731045305729,0.21239350736141205,0.021029062569141388,0.07537352293729782,0.13449157774448395,-0.2559506297111511,-0.06978090852499008,-0.0014898442896082997,0.10339201241731644,-0.031143123283982277,-0.03455236181616783,-0.37031030654907227,-0.18113139271736145,-0.030485045164823532,0.17369124293327332,0.1473044902086258,0.04164581000804901,0.0489705353975296,0.12793949246406555,-0.07733886688947678,0.3519274890422821,0.12725435197353363,0.046023573726415634,-0.30586719512939453,-0.11801706254482269,0.24873702228069305,-0.02998122200369835,-0.02482510916888714,0.014940655790269375,-0.0751071497797966,0.08265546709299088,-0.11646619439125061,0.059876661747694016,0.06524725258350372,0.050587963312864304,0.08457905799150467,0.02989663928747177,0.08396542072296143,0.07127280533313751,0.008243057876825333,0.04574697092175484,0.2915303111076355,-0.12475795298814774,-0.30983707308769226,0.8376449346542358,0.6456716656684875,-0.4209384322166443,0.20187866687774658,-0.1367271989583969,-0.13440437614917755,0.5269936919212341,-0.8201785087585449,1.0619499683380127,0.5726937055587769,0.33082059025764465,-0.12700685858726501,0.483676940202713,-0.5549226999282837,0.1698216199874878,-0.21311438083648682,0.0994182750582695,-0.24496756494045258,0.07636707276105881,0.05211257189512253,0.3240073025226593,0.13507895171642303,0.13572725653648376,-0.022100046277046204,0.054987434297800064,0.12478882074356079,-0.1181817501783371,-0.05171098932623863,0.21983948349952698,-0.10172977298498154,0.4605177640914917,0.06452883034944534,0.29667219519615173,0.12797440588474274,-0.0481887012720108,0.09333404153585434,0.21172328293323517,-0.07655178755521774,0.01601804979145527,0.10435956716537476,0.11659743636846542,-0.04586724191904068,0.10554232448339462,0.22616921365261078,0.020365402102470398,-0.2177988737821579,0.05717676505446434,-0.23659154772758484,0.0874815583229065,-0.2614145278930664,0.06922230869531631,0.16143038868904114,-0.12772655487060547,-0.1632995307445526,-0.1028883084654808,0.0723639652132988,0.04149419441819191,0.2181936353445053,0.1306866705417633,-0.10684388875961304,-0.28018730878829956,-0.0217371117323637,0.3146494925022125,0.24183087050914764,0.020760154351592064,-0.031716737896203995,-0.21262310445308685,0.02563386596739292,-0.02132962830364704,0.17441217601299286,0.2396143525838852,-0.0028213325422257185,0.3095096945762634,0.1728561818599701,0.041820988059043884,0.28108465671539307,0.2290399819612503,0.022261930629611015,0.024405842646956444,0.034382279962301254,0.03223618119955063,-0.1852867156267166,0.15527422726154327,-0.2355480045080185,0.07169682532548904,0.10540327429771423,0.007502167019993067,0.03683401644229889,-0.04823310300707817,0.04102768003940582,-0.2298244833946228,-0.015990473330020905,0.11621466279029846,-0.086433544754982,-0.2545454502105713,-0.05846886709332466,-0.08856040239334106,-0.10131023079156876,-0.3236214518547058,-0.18688687682151794,0.02906901203095913,0.1660437136888504,-0.23407822847366333,0.0004973552422598004,0.03991116210818291,0.18060310184955597,0.16557279229164124,0.0573808029294014,0.09890785068273544,0.07831376791000366,-0.06489597260951996,0.2061678171157837,0.10003171861171722,0.10549280792474747,0.5004347562789917,0.006886587478220463,-0.050811924040317535,-0.07907933741807938,-0.054965462535619736,0.04312954097986221,0.3312036991119385,-0.20945881307125092,0.058710720390081406,0.2653905749320984,0.08185110241174698,0.013700634241104126,0.22368161380290985,0.17700313031673431,-0.18308815360069275,0.0001869160041678697,-0.16397909820079803,-0.34347769618034363,-0.00683579221367836,-0.16178224980831146,0.0936671793460846,0.03422490507364273,-0.036208055913448334,0.057995669543743134,-0.0026999812107533216,-0.02017842046916485,0.022932134568691254,-0.17423157393932343,-0.06856437027454376,0.1519661396741867,0.17784889042377472,0.13462242484092712,0.24264828860759735,0.23093557357788086,-0.34321099519729614,-0.049317531287670135,-0.1694408655166626,0.04713496193289757,-0.08345792442560196,0.15392038226127625,-0.13606369495391846,0.03862425312399864,-0.16276685893535614,-0.04143716022372246,0.09613944590091705,-0.1280406266450882,0.02287447452545166,0.27342772483825684,-0.07743111252784729,0.10538934916257858,-0.16525594890117645,-0.14244399964809418,-0.08849404752254486,-0.08820876479148865,-0.011141716502606869,-0.23706050217151642,0.134852334856987,-0.23227830231189728,0.25330987572669983,0.0006831911741755903,0.20378370583057404,-0.1388043910264969,-0.14529548585414886,-0.42549753189086914,0.26595115661621094,0.0031048462260514498,0.00926659069955349,0.0784749835729599,0.07534193247556686,-0.02869667112827301,0.0029135022778064013,0.04878759756684303,-0.25620371103286743,-0.12233714014291763,-0.03365199640393257,0.14887835085391998,0.039070237427949905,0.07921549677848816,-0.0013828967930749059,-0.0047234585508704185,-0.08158187568187714,0.08323360234498978,0.4397328495979309,0.23580722510814667,-0.07771437615156174,-0.26514628529548645,-0.15868233144283295,0.21892651915550232,-0.258243203163147,-0.06125998497009277,0.23687689006328583,0.24778532981872559,-0.6433125734329224,-0.11954072117805481,-0.12159552425146103,-0.2317933440208435,0.40254583954811096,0.1045600026845932,-0.40373530983924866,0.0009301398531533778,-0.010588330216705799,-0.13578836619853973,0.01650794968008995,0.144203782081604,0.03964728116989136,0.007632953114807606,0.026512589305639267,-0.19901920855045319,-0.0026967180892825127,0.004977051168680191,-0.14261862635612488,-0.030964234843850136,-0.13779236376285553,-0.044704556465148926,-0.027681773528456688,-0.25336137413978577,0.09568064659833908,0.05363691225647926,0.2423134744167328,-0.18779626488685608,-0.049465205520391464,0.012665369547903538,-0.29104775190353394,-0.07213577628135681,0.07102121412754059,0.15879018604755402,-0.01182563230395317,-0.10965587198734283,-0.0034270016476511955,0.048709653317928314,0.06659327447414398,-0.02020825259387493,0.18257056176662445,-0.048283692449331284,0.11205581575632095,0.13281922042369843,-0.11253541707992554,0.04681655764579773,-0.07831136137247086,-0.4282456636428833,0.14784634113311768,0.022690804675221443,0.06473585218191147,-0.2201143354177475,-0.5281550288200378,-0.008975118398666382,0.13478395342826843,-0.0791425108909607,-0.0461396798491478,0.13803599774837494,0.034727293998003006,0.24327251315116882,-0.15016256272792816,0.15533089637756348,-0.07546496391296387,-0.02887670323252678,0.10272589325904846,0.020431237295269966,0.05145997554063797,0.0772767886519432,-0.09556179493665695,-0.06635229289531708,0.05812583118677139,0.029415249824523926,0.057388316839933395,-0.03293211758136749,-0.06002329662442207,0.047059185802936554,0.13127382099628448,0.14332298934459686,0.14101740717887878,0.036001820117235184,0.1861969381570816,-0.05306859686970711,0.014159581623971462,-0.13499131798744202,0.07021791487932205,0.1924595832824707,0.18091611564159393,0.08223752677440643,0.07567647844552994,-0.12578095495700836,0.2214520275592804,0.03540446236729622,0.027823928743600845,0.042600471526384354,-0.24186094105243683,-0.06781712919473648,-0.16345266997814178,0.38097330927848816,0.2968011498451233,-0.1535424292087555,0.1321859061717987,-0.08024478703737259,0.10636080801486969,0.028716662898659706,-0.024132130667567253,-0.01739146001636982,-0.015217402949929237,0.31219616532325745,0.05331816524267197,-0.2510879933834076,-0.24011433124542236,-0.013639993034303188,0.09073866158723831,-0.045182254165410995,-0.1362093687057495,-0.15578149259090424,0.17442229390144348,-0.12533563375473022,-0.17792914807796478,0.23493537306785583,0.06835522502660751,-0.03272721916437149,-0.17067639529705048,0.10566240549087524,-0.05324500426650047,-0.4411165416240692,0.14731742441654205,0.10126569867134094,0.0948648527264595,0.24504731595516205,-0.26296550035476685,0.06434556096792221,-0.03593020141124725,0.008387829177081585,-0.1136433556675911,-0.07410039752721786,0.4515632092952728,-0.24834679067134857,-0.08400464057922363,0.0916176587343216,0.01666213385760784,-0.07504976540803909,0.40423882007598877,-0.037525687366724014,-0.3488929867744446,0.2459932118654251,0.012262529693543911,-0.06962103396654129,-0.10523638874292374,-0.042631495743989944,0.10520824790000916,-0.16168330609798431,0.0218606386333704,0.17728903889656067,0.1435268074274063,0.1720680147409439,0.2834583520889282,-0.19883030652999878,-0.3117896020412445,-0.16034790873527527,0.14470459520816803,0.18028485774993896,-0.04250271990895271,-0.4076647162437439,0.07070213556289673,-0.002051275223493576,0.14888936281204224,-0.05848298594355583,0.18114830553531647,0.06801047176122665,0.020562583580613136,0.17740751802921295,0.3139020502567291,-0.3949531614780426,0.13037961721420288,0.19531241059303284,0.04117686301469803,-0.09466087818145752,-0.03610733151435852,0.42560338973999023,0.0006671327282674611,-0.15425816178321838,-0.2751273512840271,0.10109221935272217,0.02201986312866211,0.0019656976219266653,-0.004806609824299812,-0.08399511128664017,0.15416570007801056,-0.25869908928871155,0.023923741653561592,-0.022000735625624657,-0.11371324956417084,-0.2274070680141449,0.020837681367993355,-0.09599307179450989,-0.10335547477006912,-0.008170688524842262,-0.059692129492759705,-0.1175561249256134,-0.27397415041923523,-0.12534473836421967,0.24082151055335999,-0.06003345176577568,-0.10221020132303238,0.040646955370903015,-0.09146932512521744,0.03087543696165085,-0.11461827903985977,-0.005233273841440678,-0.14496023952960968,-0.0867980495095253,-0.17053961753845215,-0.15515854954719543,0.0848611444234848,-0.27751266956329346,-0.1549978405237198,-0.07002268731594086,0.34339284896850586,-0.05317385122179985,-0.04175941273570061,0.11038082093000412,0.04627375677227974,0.04082328453660011,0.1635982245206833,0.1965794712305069,-0.2786155343055725,-0.1191558986902237,0.02793271094560623,0.3219015598297119,0.19335633516311646,0.19344425201416016,0.008400929160416126,-0.027119770646095276,0.25595787167549133,-0.23067595064640045,0.07162705808877945,0.4403061866760254,-0.16630865633487701,0.03909847140312195,0.15387685596942902,-0.39475369453430176,0.05865398421883583,-0.08395029604434967,0.23297400772571564,0.11634083837270737,-0.20942828059196472,-0.09765785932540894,0.232453852891922,0.08878813683986664,-0.1009192019701004,-0.09343116730451584,-0.09346131980419159,-0.04941141977906227,-0.0920708030462265,0.48971888422966003,0.2531968057155609,0.13034453988075256,0.31250783801078796,-0.06588280946016312,0.11800102889537811,0.40991419553756714,-0.2412814050912857,-0.037984661757946014,0.09346757084131241,-0.027591614052653313,-0.06955365836620331,0.21075236797332764,0.015144962817430496,0.09328243136405945,0.1382351815700531,-0.22724297642707825,0.29393574595451355,0.05126576870679855,-0.20694071054458618,0.11824888736009598,-0.08833371102809906,-0.04961678013205528,-0.1884375810623169,0.26478999853134155,-0.0161031074821949,-0.03537445515394211,-0.11659163981676102,-0.12480758875608444,0.054496556520462036,-0.15525242686271667,0.09479397535324097,-0.29112499952316284,0.3280044198036194,0.18260253965854645,-0.06006618216633797,-0.1478588730096817,0.05055059865117073,0.3197593688964844,0.08564911037683487,-0.2344284951686859,-0.0654456615447998,0.02175546996295452,0.08899689465761185,0.01138628926128149,-0.11826228350400925,0.006520979572087526,-0.053586408495903015,-0.13085739314556122,-0.1610441952943802,-0.0694221705198288,-0.08578727394342422,-0.17113298177719116,-0.23054438829421997,0.288314551115036,0.12660357356071472,-0.01682436279952526,-0.1874067187309265,0.16345469653606415,0.019994506612420082,-0.11111712455749512,0.07191487401723862,0.14100873470306396,0.024228274822235107,0.2165815681219101,0.29312393069267273,-0.04821718484163284,-0.2160951942205429,-0.1575450599193573,0.012525909580290318,0.09808391332626343,-0.13484890758991241,-0.014926326461136341,0.005904980469495058,0.3861018717288971,0.14154820144176483,-0.1629127562046051,0.17215338349342346,-0.025315936654806137,-0.028851963579654694,0.17329338192939758,-0.08031253516674042,0.04952782765030861,-0.17294536530971527,0.014532209374010563,0.15306724607944489,0.283139169216156,-0.07049218565225601,-0.19361348450183868,-0.284913569688797,-0.06272182613611221,-0.08608034253120422,0.05996861308813095,0.04333892837166786,-0.18875721096992493,-0.14267568290233612,-0.029678108170628548,-0.07550331205129623,0.5151170492172241,0.09016730636358261,0.10192590951919556,-0.0802563950419426,-0.02015046402812004,-0.34430253505706787,-0.21236184239387512,-0.23171700537204742,-0.04976195469498634,-0.048693060874938965,-0.022682059556245804,-0.03235301747918129,0.28310278058052063,0.17460814118385315,0.35063523054122925,0.07009954005479813,-0.2140745371580124,0.020789138972759247,0.025175467133522034,0.12570607662200928,-0.04651277884840965,-0.0028254049830138683,0.1645691841840744,0.040829937905073166,0.056550707668066025,-0.33926117420196533,-0.2286364734172821,0.36010125279426575,0.15307344496250153,0.07713799923658371,-0.17474710941314697,-0.179690420627594,0.24694520235061646,-0.22456325590610504,-0.02390562929213047,-0.27460524439811707,0.16570314764976501,0.04096950218081474,0.08398453891277313,0.10743650794029236,0.03362839296460152,-0.12373358011245728,0.06290329247713089,-0.02699943631887436,0.1752583086490631,0.24746382236480713,-0.11261441558599472,-0.08643364161252975,-0.046766769140958786,-0.5315337777137756,-0.04262935742735863,0.3135755658149719,-0.06241725757718086,0.03672120347619057,-0.08013540506362915,0.19699521362781525,-0.21574969589710236,0.030536502599716187,0.3576541841030121,-0.022696860134601593,0.2861179709434509,-0.06122000887989998,0.009270264767110348,-0.1961182951927185,0.0672176331281662,0.13330481946468353,0.17673616111278534,-0.07088109850883484,0.3040090501308441,-0.2627524435520172,0.018118424341082573,0.32519370317459106,-0.32915595173835754,0.05678412690758705,0.04207791015505791,-0.16540783643722534,0.06358162313699722,0.23708370327949524,-0.12449958920478821,-0.38730570673942566,-0.22959156334400177,0.1386585831642151,-0.2976405918598175,-0.16029198467731476,-0.213243305683136,0.21674658358097076,-0.020054982975125313,0.030773134902119637,0.20519258081912994,0.11209602653980255,0.05522274598479271,-0.08127521723508835,0.05108233541250229,-0.20673924684524536,-0.1350780725479126,0.12763053178787231,-0.06392209231853485,-0.04781392216682434,0.1167200580239296,0.11643034219741821,-0.06418585032224655,0.331184446811676,0.23659992218017578,-0.004352249205112457,-0.0015878251288086176,-0.19887669384479523,0.11476874351501465,0.3660883605480194,-0.06535248458385468,0.2617444097995758,0.12070957571268082,0.03500296548008919,0.16488969326019287,-0.0915830209851265,-0.08411440253257751,-0.03739646077156067,0.19587752223014832,-0.03876398503780365,-0.35567015409469604,0.017055712640285492,0.039296604692935944,-0.03975491225719452,-0.045987240970134735,-0.12196329981088638,0.08181565999984741,-0.023551488295197487,0.009663783013820648,0.1341487169265747,-0.17127972841262817,0.021632617339491844,0.037977516651153564,0.02663513273000717,-0.05176817998290062,-0.17603614926338196,-0.23612861335277557,0.1564878523349762,-0.06970532983541489,-0.1308407485485077,0.08169684559106827,0.16218040883541107,-0.2546651363372803,0.10812776535749435,-0.17415350675582886,0.055099550634622574,0.37389662861824036,0.1823764592409134,-0.14712542295455933,0.061708636581897736,-0.12791740894317627,-0.4295732080936432,-0.17482927441596985,-0.06914263963699341,0.00012519388110376894,0.09528162330389023,-0.15224888920783997,-0.06793332099914551,0.004460230469703674,-0.1430460512638092,0.26125192642211914,0.039356112480163574,0.17126309871673584,-0.15064533054828644,0.1104249507188797,0.023364434018731117,0.3996250629425049,-0.022901421412825584,-0.08254850655794144,-0.21662463247776031,0.033623747527599335,0.002633402356877923,0.11220414191484451,0.014936480671167374,0.10159885883331299,0.32872045040130615,-0.08703436702489853,-0.026595301926136017,-0.3092746436595917,0.014283309690654278,0.007019828073680401,0.07089412957429886,-0.07635214179754257,0.23499935865402222,0.014807907864451408,0.010579744353890419,0.11964517831802368,-0.1233065202832222,-0.032661065459251404,0.27698588371276855,0.09755095094442368,0.01769229769706726,0.02893000654876232,0.21289753913879395,0.05483051389455795,-0.13028059899806976,-0.1759602427482605,0.17565172910690308,0.02486814372241497,-0.06616372615098953,-0.2489365041255951,0.08630626648664474,-0.10894323140382767,0.026311688125133514,0.17332041263580322,0.1752118468284607,-0.0847771018743515,-0.08741019666194916,-0.10403236001729965,-0.10578230023384094,-0.22417189180850983,0.06030719354748726,0.07913417369127274,-0.17352838814258575,0.28517064452171326,-0.19627027213573456,0.08670308440923691,0.024898191913962364,0.04156496003270149,0.11195966601371765,-0.051946334540843964,-0.27741602063179016,-0.17205196619033813,-0.04260224476456642,-0.061334431171417236,-0.2567448616027832,0.26991426944732666,0.24604538083076477,0.08310861140489578,-0.0697784274816513,-0.22466722130775452,-0.07822778075933456,0.1418759524822235,-0.24396121501922607,0.18532420694828033,0.04561299830675125,-0.06409012526273727,-0.020457696169614792,0.06458356976509094,0.10893113911151886,0.25318893790245056,0.17134271562099457,-0.10061472654342651,0.05960249900817871,-0.05711759254336357,-0.25092649459838867,-0.10335751622915268,0.16726259887218475,0.0568900927901268,0.22379463911056519,0.0828402116894722,-0.33337563276290894,-0.14871376752853394,0.278756707906723,-0.2899399399757385,0.03997015953063965,0.1280752569437027,-0.02130069024860859,-0.1094253733754158,0.1268610656261444,0.06299453973770142,0.337432324886322,-0.3278082609176636,-0.07930950075387955,0.028522228822112083,-0.053815413266420364,-0.10137283056974411,-0.06961730867624283,-0.013043644838035107,-0.11541084945201874,-0.03781023621559143,-0.03348559886217117,-0.07751953601837158,0.010674778372049332,-0.3897419273853302,0.0173404011875391,0.08761715143918991,-0.06971464306116104,0.07270804047584534,0.017717232927680016,0.27174538373947144,-0.08104757219552994,-0.04595421254634857,0.2277102917432785,-0.14906436204910278,0.062313590198755264,0.08481372892856598,0.010054725222289562,-0.3719766139984131,-0.10298198461532593,-0.03873436525464058,-0.3576354682445526,0.007121465168893337,0.15756860375404358,0.06140296906232834,-0.1763199269771576,0.24975159764289856,0.0019096685573458672,0.1623622179031372,0.06967257708311081,0.08139126747846603,-0.206352099776268,-0.1935962289571762,0.01421014778316021,-0.016221998259425163,-0.18267270922660828,0.023987893015146255,0.01031407993286848,-0.15159037709236145,-0.14471833407878876,0.07590579986572266,0.7203535437583923,0.008986825123429298,0.01964089833199978,-0.3707142472267151,-0.062006209045648575,-0.2572455108165741,-0.10657330602407455,-0.05672121047973633,0.17013272643089294,0.45129767060279846,0.07151710987091064,-0.1717347949743271,-0.474107950925827,0.1354239284992218,-0.07905552536249161,0.1634848713874817,-0.10043816268444061,-0.015607218258082867,0.11143828183412552,0.042664527893066406,-0.22270400822162628,-0.47121793031692505,0.10315018147230148,-0.08695268630981445,-0.18281880021095276,-0.09831828624010086,0.13405662775039673,-0.45472466945648193,-0.01221497729420662,0.1145070418715477,0.15733636915683746,0.008506878279149532,0.014979400672018528,0.16368889808654785,0.15127208828926086,0.052007418125867844,0.05152645334601402,-0.16832318902015686,0.16611528396606445,0.5767775774002075,-0.0320851095020771,-0.12898601591587067,0.15311257541179657,-0.10239890217781067,0.0943697988986969,0.0910346657037735,0.1516101360321045,-0.0715157687664032,-0.47299692034721375,-0.17539571225643158,-0.09945210069417953,0.19101232290267944,0.027219628915190697,-0.06344831734895706,0.051896173506975174,0.17434167861938477,0.22423669695854187,0.08266831934452057,-0.2771614193916321,-0.001425950787961483,0.015939850360155106,-0.00872553139925003,-0.0024924834724515676,-0.16193325817584991,0.04883470758795738,0.05272180959582329,-0.2933697998523712,0.12387055158615112,-0.05974861979484558,0.08768949657678604,-0.059913475066423416,0.14687423408031464,-0.06446162611246109,0.04608016833662987,-0.10702578723430634,0.23723794519901276,-0.11761032044887543,-0.09808582067489624,-0.14471861720085144,-0.17178446054458618,-0.23265399038791656,-0.19821350276470184,-0.01886937767267227,0.0049944082275033,-0.13216565549373627,0.03293382376432419,0.09818575531244278,-0.2463211566209793,-0.0032638725824654102,0.48457828164100647,-0.2587614953517914,-0.016402050852775574,0.29425397515296936,0.12197641283273697,0.07941274344921112,-0.1644001454114914,0.15338298678398132,0.11531591415405273,0.0806470587849617,-0.019788134843111038,0.01301881205290556,0.1789110004901886,-0.16863089799880981,-0.07578960806131363,0.17377495765686035,0.16191738843917847,-0.1902064085006714,0.311723530292511,-0.012833135202527046,-0.013423146679997444,0.2166832834482193,-0.21263869106769562,0.06865013390779495,0.12489258497953415,0.07801158726215363,0.18093347549438477,0.08884337544441223,-0.0970948114991188,-0.06878916919231415,0.15209674835205078,-0.035156019032001495,0.003615714842453599,-0.14720836281776428,-0.008054334670305252,-0.1923610121011734,-0.08076641708612442,-0.3338010311126709,0.1322534829378128,0.400372713804245,0.06585157662630081,0.18420976400375366,0.05169827118515968,-0.20954009890556335,0.3511369824409485,-0.13645969331264496,0.1266627162694931,0.11760099232196808,-0.18529057502746582,-0.3065240681171417,0.35975128412246704,0.22348949313163757,0.07809620350599289,-0.02909678779542446,-0.1085425615310669,-0.06227618455886841,-0.5346807241439819,0.09812013059854507,-0.09408333152532578,0.054571766406297684,0.18744902312755585,-0.2727873623371124,0.01985037326812744,-0.01884509064257145,-0.23073554039001465,-0.20963841676712036,0.14730694890022278,0.11890749633312225,0.0799499899148941,-0.18218156695365906,-0.1949627548456192,0.16302244365215302,0.0017229157965630293,-0.1338851898908615,-0.27443236112594604,0.21630766987800598,-0.30280348658561707,0.2416076958179474,0.22300104796886444,-0.03871426731348038,-0.019223758950829506,-0.13210412859916687,-0.13287676870822906,0.17744627594947815,-0.019130056723952293,-0.40904247760772705,-0.2434716671705246,0.20092938840389252,-0.24826982617378235,-0.3434789180755615,0.09413285553455353,0.12733237445354462,-0.16444070637226105,0.18652041256427765,-0.09030114114284515,-0.22854863107204437,-0.06044403091073036,0.0460040457546711,-0.08052372187376022,0.14207643270492554,-0.14965535700321198,0.10259806364774704,0.10478518903255463,-0.2047240287065506,-0.04244254156947136,0.11014015227556229,0.09891039878129959,0.12817570567131042,0.05324169248342514,-0.05724499002099037,-0.03800463303923607,0.04374381899833679,-0.00046898244181647897,0.6869117021560669,-0.19894936680793762,0.379088431596756,-1.0596188306808472,-0.6440889835357666,-0.004861767869442701,0.28249698877334595,-0.005349771119654179,0.11321257799863815,0.32825207710266113,-0.6593914031982422,0.31321707367897034,-0.17464439570903778,-0.7716197371482849,0.26276084780693054,-0.023649903014302254,-0.18282702565193176,-0.2676205635070801,0.17903780937194824,-0.3904557526111603,0.1440427303314209,0.29474976658821106,0.03378860652446747,-0.18911424279212952,-0.034606315195560455,0.0645950436592102,-0.18010438978672028,0.08341161161661148,-0.04139646887779236,0.039480194449424744,0.001281853299587965,0.12078939378261566,-0.10497324168682098,0.005434990394860506,0.20677615702152252,-0.19734811782836914,0.05440099537372589,0.012173226103186607,0.04039406403899193,0.01748894900083542,0.1173974797129631,-0.22709116339683533,-0.2334802895784378,-0.10979511588811874,-0.07661204040050507,-0.14072680473327637,0.37399065494537354,0.28659772872924805,-0.1913500875234604,-0.031234750524163246,-0.09564636647701263,-0.29691413044929504,-0.0543968640267849,0.011395453475415707,0.14600321650505066,-0.15781725943088531,0.014892241917550564,0.16118155419826508,-0.03361067175865173,0.1717921495437622,-0.09181418269872665,0.12330610305070877,0.32857468724250793,0.10248436778783798,-0.12121854722499847,0.010359948500990868,-0.23151670396327972,0.25348028540611267,0.16228102147579193,0.19085079431533813,0.2222399264574051,-0.060019172728061676,-0.001972836209461093,-0.04008755087852478,-0.043285101652145386,-0.13917753100395203,0.1332545429468155,-0.010820010676980019,-0.10535800457000732,-0.17058663070201874,0.18034344911575317,-0.16071650385856628,-0.07316412031650543,-0.052864592522382736,-0.009958441369235516,0.04952969029545784,-0.044587235897779465,-0.2943612039089203,0.17846764624118805,-0.2930185794830322,0.16341657936573029,-0.08177027106285095,-0.3388836085796356,-0.44539153575897217,-0.16827523708343506,0.07835301756858826,-0.5042982697486877,0.18998301029205322,0.1280728578567505,0.12408608943223953,-0.20659606158733368,0.17632223665714264,0.02328752540051937,-0.14016634225845337,0.4074952304363251,0.21322880685329437,-0.07073047757148743,0.3183611035346985,-0.12866047024726868,-0.06602286547422409,-0.36788713932037354,-0.056668587028980255,-0.2798841595649719,-0.02639014832675457,0.09718657284975052,-0.06477045267820358,0.0599789060652256,-0.23031383752822876,0.16038565337657928,0.1594957709312439,-0.23560598492622375,-0.13613037765026093,-0.08712704479694366,-0.012013811618089676,-0.02331261895596981,-0.08738601207733154,0.1556222140789032,-0.02412540279328823,-0.015277341939508915,0.07258433848619461,-0.21609468758106232,0.047267232090234756,0.3402133285999298,-0.14619308710098267,-0.22899337112903595,0.18328486382961273,-0.19338662922382355,0.12492555379867554,-0.00749789597466588,0.24104659259319305,0.03144609183073044,-0.23127640783786774,-0.09470046311616898,-0.07463278621435165,-0.17204436659812927,0.05658545345067978,0.08364638686180115,-0.22261260449886322,-0.016161471605300903,0.026693306863307953,-0.202557772397995,-0.2038968801498413,-0.025529107078909874,-0.106488898396492,0.03995124250650406,-0.22187213599681854,0.2313537746667862,0.19964730739593506,0.1613539755344391,0.06629589200019836,0.06381437182426453,0.21461734175682068,-0.11282569915056229,-0.042058177292346954,0.025317203253507614,0.06858266144990921,-0.14053621888160706,0.06688358634710312,-0.11903738975524902,-0.1697932779788971,0.24849629402160645,-0.04004139080643654,-0.000009357460839964915,-0.07036098092794418,0.11580308526754379,0.05903732404112816,0.08107816427946091,0.42128223180770874,0.02886751852929592,-0.18839624524116516,0.061385177075862885,0.007416238076984882,0.13121946156024933,-0.07370925694704056,0.17557762563228607,-0.3331855237483978,-0.1867673248052597,0.10949061065912247,-0.02978670597076416,-0.11008979380130768,0.1704758256673813,-0.20091724395751953,0.12970708310604095,0.2362077832221985,-0.06438705325126648,-0.2558388411998749,-0.10420987755060196,-0.21212224662303925,0.2647271752357483,0.12491616606712341,-0.08829160779714584,0.04328647628426552,0.29096519947052,0.14192266762256622,-0.23555418848991394,0.2679038643836975,-0.09444832801818848,-0.06556596606969833,0.22245797514915466,0.1637796014547348,-0.0909966304898262,0.08590824156999588,-0.27410978078842163,0.2073875218629837,-0.13229025900363922,-0.1549815535545349,0.22638122737407684,-0.0001739074068609625,-0.26720699667930603,0.07202307879924774,-0.38143613934516907,0.1826862096786499,-0.42326587438583374,-0.09551786631345749,-0.04670785740017891,0.11628209799528122,0.15795621275901794,0.16340138018131256,-0.016455408185720444,0.08741361647844315,-0.02521122805774212,0.06180112436413765,0.0073899938724935055,0.022311802953481674,0.12960362434387207,0.02672697603702545,-0.23652690649032593,-0.04468847066164017,-0.13344641029834747,0.21278917789459229,0.20451027154922485,0.14462007582187653,0.3017770051956177,0.1068793311715126,-0.11123333871364594,-0.13467751443386078,0.13466760516166687,0.009934904985129833,-0.22391986846923828,0.030460607260465622,-0.38959622383117676,-0.002160790842026472,0.049845777451992035,-0.014235394075512886,0.09521615505218506,0.1174178496003151,-0.09677369892597198,0.12253578752279282,-0.26788556575775146,-0.17624104022979736,-0.3135700225830078,-0.3638274073600769,-0.09071143716573715,-0.14704585075378418,-0.07931835204362869,0.05751762539148331,-0.35508882999420166,-0.03235676512122154,0.40018463134765625,-0.2135685831308365,0.13872042298316956,0.3067883253097534,-0.15397457778453827,0.035201285034418106,0.00881766527891159,-0.007014274597167969,-0.1019052043557167,-0.037297289818525314,0.07760467380285263,0.05811244994401932,-0.07864029705524445,0.09793597459793091,0.11401726305484772,0.0026222672313451767,0.01480630412697792,-0.06913319230079651,0.15701575577259064,0.06300541758537292,0.24299995601177216,-0.06312043964862823,-0.1414104849100113,0.24212504923343658,0.04898570105433464,0.028558721765875816,-0.07542934268712997,0.20864443480968475,-0.09601745754480362,-0.11816611886024475,0.072061687707901,-0.39919430017471313,0.10530519485473633,-0.28889185190200806,0.15215910971164703,0.16786552965641022,-0.07427801191806793,-0.07519826292991638,-0.17812222242355347,-0.04151289537549019,0.23130792379379272,0.3657078742980957,0.1320686936378479,-0.12303271889686584,-0.180443674325943,-0.12517541646957397,0.058923494070768356,0.07409576326608658,-0.10271172225475311,-0.07999815046787262,0.3151611089706421,0.026998471468687057,-0.052721016108989716,0.05667098984122276,0.05470305308699608,-0.1842932403087616,0.07754887640476227,-0.2102668583393097,0.015530248172581196,-0.223248690366745,-0.27199557423591614,-0.04019106552004814,-0.3096632957458496,-0.34053710103034973,0.19773757457733154,-0.22491367161273956,0.08708716928958893,0.19486987590789795,-0.21495716273784637,-0.1136673167347908,0.18804140388965607,-0.14966021478176117,-0.0066357809118926525,0.19284392893314362,-0.463565856218338,-0.17520736157894135,0.12992598116397858,0.11029960960149765,0.2251550257205963,-0.08294865489006042,0.2747298777103424,-0.23993931710720062,-0.07510000467300415,-0.1415529102087021,0.0504164844751358,0.36824867129325867,-0.11217155307531357,0.2093324214220047,0.002904237248003483,0.13073495030403137,-0.12823528051376343,-0.14803087711334229,-0.135757178068161,-0.10240467637777328,-0.013978764414787292,0.1850796639919281,-0.1961461901664734,-0.008240897208452225,-0.015243062749505043,0.009923489764332771,-0.001003738259896636,-0.2611360549926758,-0.11845346540212631,-0.2891259789466858,-0.05194826051592827,-0.14718462526798248,0.12007429450750351,0.10596737265586853,-0.12621133029460907,-0.16176699101924896,0.2161497324705124,0.21780197322368622,-0.15801873803138733,-0.3501601815223694,0.06794825196266174,-0.1636347770690918,-0.11580514907836914,-0.05270126834511757,0.03379281237721443,0.19742411375045776,-0.07184937596321106,-0.16776162385940552,0.012733949348330498,0.08822654187679291,-0.2000083029270172,-0.07872972637414932,0.07049000263214111,-0.06945586204528809,-0.27529990673065186,-0.1887190192937851,-0.18570424616336823,0.16342665255069733,0.04608290269970894,0.185861736536026,-0.12473640590906143,-0.011751462705433369,-0.16324545443058014,-0.2419576495885849,-0.15702387690544128,-0.02073211967945099,-0.10918156802654266,-0.05448555201292038,-0.055430155247449875,0.06371527165174484,-0.23407141864299774,0.001299323863349855,0.09961982071399689,0.4034343659877777,0.05209849029779434,0.1705349087715149,0.294976145029068,0.02248338982462883,-0.10462489724159241,-0.09976784139871597,0.19130834937095642,0.08491683006286621,-0.1426127552986145,-0.06330154091119766,-0.2572149336338043,-0.01696757599711418,0.1728617548942566,-0.034172218292951584,0.04194194823503494,0.21337348222732544,0.08352786302566528,-0.3237026035785675,0.08728981763124466,-0.22665707767009735,-0.014831004664301872,-0.007706610020250082,-0.14883582293987274,0.5675796270370483,-0.23688317835330963,0.15002450346946716,0.04785666614770889,0.2877964377403259,-0.0899876058101654,0.41821208596229553,0.0014007429126650095,0.08875720202922821,0.3948674201965332,0.2157648801803589,0.024451926350593567,-0.5147416591644287,0.059229087084531784,0.2544947862625122,-0.03296590968966484,-0.3855215609073639,-0.04519222676753998,0.17570671439170837,0.04343872517347336,-0.01597367413341999,-0.3325781226158142,-0.09035754203796387,-0.019070640206336975,0.731073260307312,0.0020235436968505383,-0.1605048030614853,-0.2900753915309906,-0.3078081011772156,0.11640021204948425,0.19104216992855072,0.025322645902633667,-0.14425668120384216,0.048780180513858795,-0.3502056300640106,0.022751258686184883,0.27669861912727356,-0.1726989597082138,-0.01596231944859028,0.1971617341041565,-0.015432385727763176,-0.18134675920009613,0.453019380569458,-0.046369969844818115,0.0394044928252697,0.1379787176847458,0.07138629257678986,0.1458134651184082,-0.0855359360575676,0.13391879200935364,-0.1998993307352066,0.41169172525405884,0.11287488043308258,0.20231316983699799,0.027312230318784714,-0.023520177230238914,-0.06524453312158585,-0.08091641217470169,-0.3234066367149353,0.19701266288757324,-0.15338988602161407,0.007199868559837341,-0.03958837687969208,0.0004869721597060561,0.0270148366689682,0.07686198502779007,-0.1721085011959076,0.3139877915382385,0.07458274811506271,0.044680479913949966,0.005007235333323479,-0.045449282974004745,0.07501328736543655,-0.003352187108248472,0.20381508767604828,0.45913127064704895,-0.06887976825237274,-0.20658212900161743,-0.13392089307308197,-0.17355681955814362,0.03903323411941528,-0.23967285454273224,0.013133703731000423,-0.16187569499015808,-0.28990983963012695,0.07819988578557968,-0.08487740159034729,0.1778511255979538,0.18852271139621735,-0.1914505660533905,0.3017023801803589,-0.16936857998371124,-0.17658430337905884,0.01528377179056406,-0.013508952222764492,-0.15862050652503967,-0.11517886817455292,-0.20959188044071198,0.29655322432518005,-0.16705161333084106,0.11813393235206604,-0.22908565402030945,0.24342679977416992,0.05318637937307358,-0.16048216819763184,-0.02839266136288643,-0.15673698484897614,0.0660105049610138,0.05921401455998421,-0.10180975496768951,-0.1607373058795929,0.13519395887851715,-0.02618609182536602,-0.39296963810920715,0.040740154683589935,-0.08538391441106796,-0.17148205637931824,0.21942713856697083,-0.04346751794219017,0.03513309732079506,-0.1361139863729477,-0.11275699734687805,-0.09179187566041946,0.3466474413871765,0.0494401752948761,0.035403408110141754,0.05739794671535492,-0.15369701385498047,-0.2216530293226242,-0.06697222590446472,0.08370217680931091,-0.11160804331302643,0.1763630211353302,0.07291463762521744,-0.20437578856945038,0.2996172606945038,0.003992297220975161,-0.09774915874004364,-0.37988027930259705,0.16196975111961365,-0.1729234755039215,-0.08745504170656204,-0.17915964126586914,0.12464353442192078,0.0032304569613188505,-0.13015511631965637,-0.2367677241563797,-0.0015214247396215796,0.06112747639417648,0.037144456058740616,0.29149630665779114,-0.18646782636642456,0.09056580066680908,0.20914891362190247,0.3237340450286865,-0.2728627026081085,0.35016822814941406,-0.24112819135189056,-0.037099502980709076,0.09859049320220947,-0.052967507392168045,-0.036327093839645386,0.000046161589125404134,-0.059187956154346466,-0.03334110975265503,0.06358548253774643,-0.20237068831920624,0.1122538149356842,0.1644323468208313,0.03439861908555031,0.1892676055431366,-0.2689775228500366,-0.0032823351211845875,-0.20845410227775574,0.3389815092086792,0.27687615156173706,0.06829427182674408,0.406604140996933,-0.09006653726100922,-0.05310642719268799,-0.05026775971055031,0.14746318757534027,-0.06837363541126251,-0.07171371579170227,-0.21962979435920715,0.2668067216873169,0.11106611043214798,-0.050563424825668335,0.2866763174533844,0.1412140429019928,0.17155618965625763,0.015565324574708939,0.17627330124378204,0.09256020933389664,0.2472684681415558,-0.23403340578079224,-0.2224823385477066,0.1471242904663086,0.15146058797836304,-0.018276670947670937,-0.05720507353544235,0.0831756666302681,-0.24289821088314056,-0.058235835283994675,-0.11109384894371033,-0.022940555587410927,0.24091941118240356,-0.08623873442411423,-0.1519162952899933,0.23560239374637604,0.34436288475990295,0.11485794931650162,-0.07668806612491608,-0.010598053224384785,-0.17164719104766846,0.10310415923595428,-0.025596246123313904,0.051740385591983795,-0.32491883635520935,-0.11085928976535797,0.03199891746044159,0.30224400758743286,0.022060450166463852,-0.19412347674369812,-0.012304670177400112,-0.03504187986254692,0.05954059585928917,-0.03929543495178223,-0.15494190156459808,-0.03655122593045235,-0.12179001420736313,0.17054501175880432,0.07635751366615295,0.30809465050697327,0.20250067114830017,-0.07145176827907562,0.23857049643993378,-0.20994879305362701,0.007669484242796898,-0.047751568257808685,-0.28403440117836,-0.13437141478061676,-0.1569857895374298,0.1962914913892746,-0.1410071849822998,-0.04343819245696068,-0.06093614920973778,0.019323039799928665,0.17599427700042725,-0.12101145833730698,-0.19547943770885468,-0.17811435461044312,-0.10306509584188461,0.045949723571538925,0.13419121503829956,-0.20207175612449646,0.09007003158330917,0.1365942806005478,0.08429531008005142,-0.1497015655040741,0.047289926558732986,0.07978365570306778,0.27794787287712097,-0.15261587500572205,-0.12800966203212738,0.10056647658348083,-0.11264586448669434,0.28559035062789917,-0.001070205820724368,0.39392411708831787,0.028545256704092026,-0.14823628962039948,-0.14904209971427917,0.13892818987369537,0.311508446931839,0.1490824967622757,-0.026329923421144485,-0.2688377797603607,-0.18995274603366852,0.014708612114191055,0.29199379682540894,-0.03752725198864937,-0.14430733025074005,0.002877758350223303,-0.3844449520111084,0.5424988865852356,0.22526684403419495,-0.18698057532310486,0.3674007058143616,0.029540354385972023,-0.12109407782554626,-0.26605090498924255,-0.14458736777305603,-0.08497194200754166,0.2470323145389557,0.039875444024801254,-0.11472436040639877,0.2103440910577774,0.019617734476923943,0.2015182375907898,-0.16625744104385376,-0.11036805063486099,0.032183099538087845,0.09176245331764221,-0.08982297033071518,-0.24903817474842072,0.24396267533302307,0.08886261284351349,0.007190828211605549,-0.2782956659793854,-0.04600543528795242,-0.25572142004966736,0.32331302762031555,-0.245179682970047,0.03996371477842331,-0.13473659753799438,-0.20551401376724243,-0.003320254385471344,0.03183886408805847,-0.07864031940698624,-0.1698455810546875,0.09973036497831345,-0.23422794044017792,0.3919345736503601,0.2860776484012604,-0.1055334061384201,0.19816209375858307,0.2438795119524002,-0.0017098127864301205,-0.22843047976493835,0.3647924065589905,-0.022440262138843536,0.21451275050640106,0.2384735345840454,-0.050417009741067886,0.24788160622119904,0.4919424057006836,-0.18370528519153595,-0.046356201171875,-0.22919371724128723,0.039944566786289215,-0.0604182630777359,0.31215205788612366,-0.26871535181999207,-0.15849438309669495,0.42053914070129395,-0.1931399255990982,-0.0003607473336160183,-0.20906798541545868,0.08024883270263672,-0.1905457079410553,0.12573949992656708,0.040789298713207245,0.13978275656700134,0.2698710262775421,0.07071292400360107,-0.21935877203941345,0.21299050748348236,-0.15045197308063507,0.12496300041675568,0.17413973808288574,0.06783806532621384,0.0501057393848896,0.47978857159614563,-0.13823917508125305,-0.15829430520534515,0.19251567125320435,-0.03608983755111694,0.03902298957109451,-0.03200504928827286,0.012869538739323616,0.15000155568122864,0.11851618438959122,0.17123377323150635,-0.02018781378865242,0.4145062267780304,0.3561093807220459,0.1380748301744461,-0.4304618537425995,