{"version":"0.7.0","metadata":{"date":{"year":2026,"month":6,"day":3,"hour":3,"minute":33,"second":50},"loudness":-13.517755684344959,"gain":0.8078089815426722,"name":"Boosted-6505+-A2-Chugs-FullRig","modeled_by":"ampspedalspickups","gear_type":"amp","gear_make":"T3K-Null","gear_model":"T3K-Null","tone_type":"T3K-Null","trainer":"TONE3000","input_level_dbu":13},"architecture":"SlimmableContainer","config":{"submodels":[{"max_value":0.5,"model":{"version":"0.7.0","metadata":{"date":{"year":2026,"month":6,"day":3,"hour":3,"minute":33,"second":49},"loudness":-13.704284843890857,"gain":0.8196527841190177},"architecture":"WaveNet","config":{"layers":[{"input_size":1,"condition_size":1,"head":{"out_channels":1,"kernel_size":16,"bias":true},"channels":3,"kernel_sizes":[6,6,6,6,6,6,6,6,6,6,6,6,6,6,15,15,6,6,6,6,6,6,6],"dilations":[1,3,7,17,41,101,239,1,3,7,17,41,101,239,1,13,1,3,7,17,41,101,239],"activation":[{"type":"LeakyReLU","negative_slope":0.01},{"type":"LeakyReLU","negative_slope":0.01},{"type":"LeakyReLU","negative_slope":0.01},{"type":"LeakyReLU","negative_slope":0.01},{"type":"LeakyReLU","negative_slope":0.01},{"type":"LeakyReLU","negative_slope":0.01},{"type":"LeakyReLU","negative_slope":0.01},{"type":"LeakyReLU","negative_slope":0.01},{"type":"LeakyReLU","negative_slope":0.01},{"type":"LeakyReLU","negative_slope":0.01},{"type":"LeakyReLU","negative_slope":0.01},{"type":"LeakyReLU","negative_slope":0.01},{"type":"LeakyReLU","negative_slope":0.01},{"type":"LeakyReLU","negative_slope":0.01},{"type":"LeakyReLU","negative_slope":0.01},{"type":"LeakyReLU","negative_slope":0.01},{"type":"LeakyReLU","negative_slope":0.01},{"type":"LeakyReLU","negative_slope":0.01},{"type":"LeakyReLU","negative_slope":0.01},{"type":"LeakyReLU","negative_slope":0.01},{"type":"LeakyReLU","negative_slope":0.01},{"type":"LeakyReLU","negative_slope":0.01},{"type":"LeakyReLU","negative_slope":0.01}],"bottleneck":3,"head1x1":{"active":false,"out_channels":1,"groups":1},"layer1x1":{"active":true,"groups":1},"groups_input":1,"groups_input_mixin":1,"conv_pre_film":{"active":false,"shift":true,"groups":1},"conv_post_film":{"active":false,"shift":true,"groups":1},"input_mixin_pre_film":{"active":false,"shift":true,"groups":1},"input_mixin_post_film":{"active":false,"shift":true,"groups":1},"activation_pre_film":{"active":false,"shift":true,"groups":1},"activation_post_film":{"active":false,"shift":true,"groups":1},"layer1x1_post_film":{"active":false,"shift":true,"groups":1},"head1x1_post_film":{"active":false,"shift":true,"groups":1},"gating_mode":["none","none","none","none","none","none","none","none","none","none","none","none","none","none","none","none","none","none","none","none","none","none","none"],"secondary_activation":[null,null,null,null,null,null,null,null,null,null,null,null,null,null,null,null,null,null,null,null,null,null,null],"slimmable":null}],"head":null,"head_scale":0.016016781232210207},"weights":[-0.07845111936330795,-0.5072146058082581,-1.1434621810913086,0.043405093252658844,0.1202683225274086,-0.21573348343372345,-0.4368210434913635,0.013889532536268234,0.15568281710147858,0.021912138909101486,0.05225784704089165,-0.2718937397003174,-0.6948103904724121,-0.27041560411453247,0.18442939221858978,0.014726025052368641,0.23035161197185516,-0.35380908846855164,-0.46358606219291687,-0.3588929772377014,0.3700534999370575,-0.2803589403629303,0.17381712794303894,-0.09780263155698776,0.09620146453380585,0.4085478186607361,0.12932932376861572,-0.3212123513221741,-0.10139266401529312,-0.06467129290103912,0.2439393401145935,0.30187520384788513,0.15248054265975952,-0.3407509922981262,-0.00130121735855937,0.08565045893192291,0.5343708395957947,0.6038533449172974,0.055170465260744095,0.024444783106446266,-0.0421094186604023,0.11632195860147476,-0.23993219435214996,-0.424980103969574,0.036810193210840225,0.07815667986869812,0.2649840712547302,0.14377844333648682,-0.3141429126262665,-0.4297298789024353,0.16831474006175995,0.0676112100481987,0.16356831789016724,0.32685375213623047,-0.45532265305519104,-0.7540526986122131,0.03567985072731972,0.4148624837398529,0.3570614755153656,0.20563295483589172,0.07702941447496414,0.5026192665100098,0.14185641705989838,-0.5512393712997437,0.37088543176651,0.07187582552433014,0.2822134792804718,0.282929927110672,-0.0019919711630791426,-0.7752932906150818,0.7503552436828613,-0.5986053943634033,0.10948356986045837,-0.45808982849121094,-0.10831011086702347,0.2264900654554367,0.2831447720527649,0.4913250505924225,0.23700834810733795,0.3976188004016876,-0.20399238169193268,-0.0924621969461441,-0.1403585821390152,-0.03941056877374649,-0.11503665894269943,-0.39162111282348633,-0.16561147570610046,0.26227468252182007,0.24032722413539886,0.005433205980807543,0.22280873358249664,-0.2918744683265686,-0.5073035955429077,0.2376326322555542,0.11580724269151688,0.18802528083324432,-0.1636832058429718,0.4339146316051483,0.036810893565416336,-0.1527254432439804,-0.35507065057754517,-0.3775864243507385,-0.14873720705509186,-0.32861173152923584,-0.08323507010936737,-0.17125147581100464,-0.11959488689899445,-0.024023840203881264,0.08603609353303909,-0.19076168537139893,-0.4344536066055298,0.18160298466682434,0.38958555459976196,0.06910891085863113,0.08188293129205704,0.2600215971469879,-0.36683329939842224,-0.15568923950195312,0.22134673595428467,-0.1319996416568756,0.3409055173397064,-0.1688777655363083,-0.1955457627773285,0.20646050572395325,0.2443324327468872,0.11254134029150009,0.1041431650519371,0.032571397721767426,-0.6419088840484619,0.3264772593975067,0.4234890043735504,0.21917511522769928,-0.09479949623346329,0.29522988200187683,0.9652746319770813,-0.5476535558700562,0.20671358704566956,-0.5077051520347595,0.018251152709126472,0.48334643244743347,-0.2133510559797287,-0.7494010329246521,-0.646041750907898,-0.6022883057594299,0.2442030906677246,-0.23286762833595276,0.359242707490921,0.1632942408323288,0.15637622773647308,-0.0876239463686943,0.12629325687885284,-0.26803749799728394,-0.05181697756052017,-0.029774054884910583,0.43191128969192505,-0.15392448008060455,0.23797063529491425,-0.04509911313652992,0.40993839502334595,-0.16043901443481445,-0.14706256985664368,-0.17333482205867767,-0.11865551769733429,-0.12410783022642136,0.623258113861084,-0.20591071248054504,0.2214609533548355,-0.06216540187597275,-0.03096955455839634,-0.15682068467140198,0.6031389832496643,-0.0827147588133812,0.2593497335910797,0.14248837530612946,-0.09657904505729675,-0.3468540906906128,-0.46918776631355286,0.13363224267959595,-0.16314202547073364,-0.12808963656425476,-0.10967018455266953,-0.20903588831424713,-0.14403922855854034,0.3500058352947235,0.40514636039733887,0.03007645532488823,0.22486612200737,-0.04833035171031952,0.40832799673080444,0.155613511800766,0.30034342408180237,-0.009158526547253132,0.27761581540107727,0.05391767621040344,-0.543390154838562,-0.2838960886001587,-0.314947247505188,-0.31651172041893005,-0.04831266775727272,-0.22184376418590546,0.30601149797439575,-0.2110818773508072,-0.19801414012908936,0.12114142626523972,-0.982400119304657,0.3730210065841675,-0.30581316351890564,-0.18661735951900482,-0.10824524611234665,0.5068312287330627,0.10693079978227615,-0.09115520119667053,0.0922650545835495,-0.7358328700065613,0.27742713689804077,0.6818134784698486,0.1135445088148117,-0.10156086832284927,0.32976338267326355,0.13653306663036346,0.015954622998833656,-0.007100528106093407,0.0074240658432245255,0.07250937819480896,-0.3028138279914856,-0.05759664624929428,-0.10847429931163788,-0.22296622395515442,0.21967430412769318,0.1564059555530548,-0.23880092799663544,-0.06945965439081192,0.0015104829799383879,0.0455663837492466,-0.0037351343780755997,-0.002292260527610779,-0.8706219792366028,-0.0711236521601677,-0.0458173006772995,0.14938756823539734,0.04497072845697403,-0.39680585265159607,0.3522053062915802,0.19742995500564575,0.07090301811695099,-0.004375096410512924,0.24342626333236694,0.002784335520118475,0.839745819568634,0.03220353275537491,0.02210138365626335,-0.10745171457529068,-0.1396423876285553,0.11330879479646683,0.4824886918067932,0.04116562753915787,0.14206402003765106,-0.030369289219379425,-0.01570134609937668,0.21409115195274353,-0.014042817056179047,0.053340114653110504,0.13793659210205078,0.07064763456583023,0.0339636392891407,-0.3255949020385742,0.13334691524505615,-0.01833059825003147,-0.07948562502861023,0.020993484184145927,0.08514861017465591,-0.03299179673194885,-0.5547773241996765,-0.08428822457790375,-0.2522130608558655,0.010492010973393917,-1.1645950078964233,-0.8553218245506287,-1.355992317199707,0.21876433491706848,-0.22109398245811462,-0.17823362350463867,0.0323297381401062,0.06328897178173065,-0.47052985429763794,0.5910031199455261,-0.4040888547897339,-0.1433171182870865,-0.27043670415878296,-0.38573727011680603,0.38570985198020935,-0.023432640358805656,-0.0069152289070189,-0.08343210071325302,-0.12457159161567688,-0.4095609784126282,-0.6317955255508423,0.11018044501543045,-0.013262944296002388,0.22022977471351624,0.18483856320381165,0.009459513239562511,-0.18879055976867676,-0.03057766519486904,-0.04658897966146469,0.008728079497814178,-0.05520491674542427,0.16149087250232697,0.17350684106349945,0.11402072012424469,0.34146150946617126,0.14123500883579254,-0.03129991516470909,0.009273502975702286,-0.12084998190402985,-0.11481709033250809,-0.11956272274255753,0.004055992234498262,0.03755933418869972,-0.30343097448349,0.04101972654461861,-0.05252974480390549,-0.20077165961265564,-0.07735691219568253,-0.026100873947143555,0.1435282826423645,0.13009952008724213,0.16799981892108917,-0.04260088875889778,0.10545440763235092,0.04424336925148964,-0.17061056196689606,-0.40484797954559326,-0.2002699375152588,0.026557067409157753,-0.0889594778418541,-0.05545973405241966,-0.06910549104213715,-0.04172109439969063,-0.05405805632472038,0.026655271649360657,-0.03246946260333061,0.012435099110007286,0.05670582130551338,-0.4483691155910492,-0.08372263610363007,-0.031682103872299194,0.2793003022670746,-0.7143406867980957,0.6163396239280701,-0.2063780277967453,-0.26399603486061096,0.008809520862996578,0.010631178505718708,-0.023149052634835243,-0.3060154616832733,0.14881551265716553,0.0578189417719841,-0.1811973601579666,-0.3074079155921936,-0.2332688719034195,-0.0850512906908989,0.18926772475242615,-0.008754695765674114,0.03546524792909622,0.09758836030960083,-0.04045461490750313,-0.091412752866745,-0.0666419193148613,-0.007307201158255339,-0.0638863667845726,-0.1597662717103958,-0.09869088232517242,-0.19188188016414642,-0.1026468276977539,0.015607407316565514,-0.008996475487947464,-0.006377498619258404,0.05112677067518234,0.12897922098636627,0.3372693955898285,0.06325726956129074,0.09649277478456497,0.0996280238032341,0.15699613094329834,0.13221880793571472,-0.8770281076431274,-0.07177385687828064,-0.08474669605493546,-0.07974506169557571,-0.1339586228132248,-0.15950998663902283,0.10456564277410507,-0.019492516294121742,-0.03618503361940384,-0.037421662360429764,-0.05189263075590134,-0.028293725103139877,-0.7810212969779968,0.05333076789975166,0.04760589823126793,0.07523491978645325,0.1277148574590683,0.09861798584461212,-0.910926342010498,-0.050741489976644516,-0.033758051693439484,-0.045019086450338364,-0.10715702176094055,-0.110267274081707,-0.04125480726361275,-0.017763633280992508,-0.019351396709680557,-0.032453157007694244,-0.045337922871112823,-0.023277299478650093,-0.8185865879058838,-0.024777725338935852,0.41509413719177246,0.1416655331850052,0.16328731179237366,-0.11905468255281448,-0.06913019716739655,0.1552066206932068,-0.07712246477603912,0.25916555523872375,0.40679600834846497,-0.06282834708690643,0.02651403471827507,-0.09214949607849121,-0.7412226796150208,0.9389621615409851,-0.3032587468624115,-0.05028755962848663,-0.4650145471096039,0.01424498576670885,0.022143321111798286,-0.03396325930953026,-0.024826012551784515,-0.14800317585468292,0.8516358733177185,-0.017513738945126534,-0.025253567844629288,0.015729831531643867,0.013628254644572735,0.11016663163900375,-0.029941245913505554,-0.001014946959912777,-0.00256006745621562,0.009463059715926647,0.006877460051327944,0.0362447090446949,0.8068337440490723,0.012791420333087444,-0.01107446663081646,0.016462603583931923,-0.01923118717968464,-0.10437760502099991,-1.068254828453064,-0.0050024790689349174,0.0006986578227952123,-0.025524688884615898,0.025737343356013298,0.07890035957098007,0.2630338668823242,-0.0045308321714401245,0.0029779947362840176,0.006251429673284292,0.0027618701569736004,0.02923440746963024,-0.21067965030670166,0.010839832946658134,0.0051101986318826675,-0.016619138419628143,-0.032011039555072784,-0.12438907474279404,0.5123993158340454,-0.012609546072781086,-0.00634156446903944,0.004371389746665955,0.013646647334098816,0.09203198552131653,-0.07713910192251205,-0.0009921477176249027,-0.0007296850089915097,0.006257849745452404,0.009891979396343231,0.03148312494158745,0.8055392503738403,-0.15101048350334167,-0.5136888027191162,0.2496371865272522,0.20557747781276703,0.777022659778595,0.7014774680137634,-0.19963698089122772,0.7842652201652527,-0.021083226427435875,0.035184308886528015,0.5389508008956909,0.16893798112869263,-0.6955877542495728,0.6868896484375,0.7189497351646423,0.3134724199771881,-0.3181473910808563,-0.08238138258457184,-0.10895073413848877,-0.02360859513282776,0.1566573679447174,0.19942618906497955,0.11121383309364319,-0.03485368192195892,-0.13928259909152985,-0.13404670357704163,-0.21043288707733154,-0.21149219572544098,0.09844907373189926,-0.06874115020036697,-0.08886610716581345,-0.3124260902404785,-0.05173972249031067,0.2795146703720093,0.35256779193878174,0.15595300495624542,-0.35152149200439453,-0.11281218379735947,-0.275301069021225,-0.22536905109882355,-0.13258858025074005,-0.09916767477989197,0.14661432802677155,0.12088991701602936,0.06744985282421112,0.20573942363262177,0.31618157029151917,0.07406821101903915,0.09902115911245346,0.0682799369096756,-0.045341894030570984,0.21223632991313934,0.20583507418632507,0.2099306285381317,-0.37283405661582947,0.10249640047550201,0.2835627496242523,0.003409325610846281,-0.1539132446050644,0.04889824986457825,-0.21541744470596313,0.20242342352867126,0.04406493902206421,-0.1339145302772522,0.011711419560015202,-0.05884968489408493,-0.02523461915552616,0.08529114723205566,0.2266182154417038,-0.23916104435920715,-0.44668859243392944,0.022855540737509727,0.16009530425071716,-0.3593177795410156,-0.022900735959410667,-0.10331062972545624,-0.9932898879051208,-0.2995707094669342,-0.3456796705722809,-0.6198844313621521,0.021619345992803574,0.48989149928092957,-0.8308930993080139,-0.1279507875442505,-0.16974689066410065,-0.15927547216415405,-0.7280372977256775,0.01081550307571888,-0.20058441162109375,0.17321695387363434,0.45612388849258423,-0.14916345477104187,0.12239688634872437,-0.16973386704921722,-0.3120057284832001,-0.34704557061195374,-0.030514147132635117,0.04182184115052223,0.12245587259531021,0.02662135660648346,0.007335425820201635,-0.06777535378932953,0.33659592270851135,0.20713071525096893,0.45721617341041565,0.1643318086862564,-0.307497501373291,-0.6674410700798035,0.35457587242126465,-0.04311894625425339,0.18931102752685547,0.19927503168582916,0.03202211111783981,0.10835240036249161,-0.08565042167901993,0.0013452977873384953,-0.2722013294696808,-0.18311873078346252,0.1479019671678543,-0.09412048757076263,0.0771382749080658,0.04166380316019058,0.2948954403400421,0.5474196672439575,-0.025508269667625427,-0.0462149977684021,-0.14135068655014038,0.003805843647569418,0.026598380878567696,-0.3566819131374359,-0.1596939116716385,-0.26666727662086487,0.0259585902094841,0.21269918978214264,0.23426499962806702,-0.0034746744204312563,0.13178414106369019,0.24994516372680664,-0.011108404956758022,-0.14560218155384064,-0.285905122756958,-0.381131112575531,-0.23166722059249878,-0.10808704048395157,0.2290041148662567,0.07112040370702744,0.07548093795776367,0.6500301957130432,0.25712350010871887,-0.5688943266868591,-0.29614269733428955,-0.6231387257575989,0.4173722565174103,-0.16150924563407898,-0.4129623770713806,0.27843815088272095,-1.051243543624878,-0.5178795456886292,0.42729508876800537,0.09301849454641342,0.2049519121646881,0.03458017483353615,-0.060590796172618866,0.07917873561382294,0.1513630449771881,-0.19589239358901978,-0.0843549445271492,-0.3645474910736084,-0.034794457256793976,-0.13198506832122803,0.0027008838951587677,0.37490415573120117,0.06314133107662201,0.11735207587480545,0.059367477893829346,0.047298502177000046,-0.015327801927924156,-0.068697489798069,-0.029041502624750137,-0.2706088125705719,-0.08708550781011581,0.026312077417969704,-0.033240992575883865,-0.080651193857193,-0.08413276076316833,-0.2774777114391327,-0.04484042525291443,-0.046629782766103745,-0.10176418721675873,-0.13010908663272858,-0.10031210631132126,0.0004861644993070513,0.02301752381026745,-0.004086336586624384,0.05471823737025261,0.08610419929027557,0.09337283670902252,-0.2856462299823761,0.34734946489334106,-0.04114837571978569,-0.03370056301355362,0.01999887265264988,-0.46150752902030945,-0.6056807041168213,0.13657738268375397,0.18690752983093262,0.34719958901405334,0.33725303411483765,-0.16534213721752167,-0.14191588759422302,-0.18416564166545868,-0.0788266658782959,-0.15689535439014435,-0.18592843413352966,0.34405797719955444,0.020301271229982376,0.02745693363249302,-0.7525033950805664,-0.4723168611526489,0.07412628084421158,0.5549818277359009,0.7271601557731628,0.08528517186641693,0.22465336322784424,0.5462424755096436,0.09176374971866608,0.4191755950450897,0.2794104516506195,0.4852496087551117,0.8579170107841492,0.6161600947380066,0.03194570913910866,0.2538260519504547,0.4049408435821533,-0.06597117334604263,-0.1825082153081894,-0.15550360083580017,-0.06498613208532333,0.6582056879997253,0.17869551479816437,-0.08636659383773804,-0.025955896824598312,-0.08474266529083252,-0.21818622946739197,-0.18482396006584167,-0.2145962119102478,0.03472721576690674,0.05647362023591995,0.05192539468407631,0.04356565698981285,-0.12246397882699966,0.4635303318500519,-0.11249706894159317,0.030652852728962898,-0.21953082084655762,-0.5433929562568665,-0.0803065374493599,-0.4981306195259094,-0.02103445492684841,-0.10388107597827911,0.11678445339202881,0.07385493069887161,0.13000532984733582,-0.26479190587997437,-0.20026493072509766,-0.10287145525217056,-0.2808559834957123,-0.3047327995300293,-0.2685859501361847,0.4238784909248352,-0.0960356816649437,-0.269450843334198,-0.14306990802288055,-0.0324060320854187,0.8484060168266296,0.2961100935935974,-0.19937051832675934,0.019349906593561172,0.04857873544096947,-0.1427786499261856,-0.02991897240281105,-0.14562642574310303,0.04263599216938019,0.03513115644454956,-0.007841235026717186,-0.004145749378949404,-0.3117346465587616,0.9394480586051941,0.09552858769893646,0.1619596928358078,-0.07657472789287567,0.25459209084510803,0.18000507354736328,-0.015413865447044373,0.032390907406806946,0.3649944067001343,0.40946832299232483,0.5648667216300964,0.3075310289859772,1.0405820608139038,0.6386752724647522,-0.7193527221679688,-0.31189510226249695,0.07745103538036346,0.47011855244636536,-0.3304251432418823,-0.08236563950777054,-0.10554634034633636,-0.13631248474121094,-0.09225613623857498,-0.17231345176696777,0.4828822612762451,0.013332287780940533,0.02640761435031891,0.03785672038793564,0.018786409869790077,0.047415610402822495,0.5470117926597595,0.02829894982278347,0.02944318950176239,0.04248729720711708,0.05812495946884155,-0.001318993978202343,0.49438467621803284,0.06986618041992188,-0.057379353791475296,-0.16091413795948029,-0.3264625072479248,-0.1293085515499115,-0.3235851526260376,0.04445413127541542,0.15015292167663574,0.2141292691230774,0.26071301102638245,0.2117355614900589,0.01867670938372612,-0.17038795351982117,-0.3159922659397125,-0.3088851273059845,-0.31782814860343933,-0.3066307306289673,0.42249494791030884,-0.017142217606306076,-0.14677394926548004,-0.2661643624305725,-0.24176490306854248,-0.1584460735321045,0.5741789937019348,0.0184689499437809,0.07931771129369736,0.12111355364322662,0.10338065028190613,0.07875135540962219,0.2547111213207245,-0.023064009845256805,-0.04691515490412712,-0.006885168142616749,0.015508968383073807,-0.03603232279419899,0.502609372138977,-0.3677237331867218,-0.3925792872905731,0.042289938777685165,0.1882486790418625,-0.22677259147167206,0.400968074798584,-0.17195934057235718,0.5423828959465027,0.056045085191726685,-1.318551778793335,0.12098285555839539,0.5966463685035706,-0.5293034911155701,-0.7075604796409607,0.1388496309518814,-0.4954227805137634,0.3434543311595917,-0.06276848167181015,-0.185794398188591,-0.2368827909231186,-0.26720839738845825,-0.22642742097377777,-0.002095757285133004,0.0474165678024292,0.07173345983028412,0.07636318355798721,0.09032030403614044,0.06026466563344002,0.01141580194234848,-0.48461905121803284,0.06044699624180794,0.10556519031524658,0.07574857771396637,0.1221073716878891,0.163710355758667,-0.07515095174312592,0.000644346815533936,0.0018220171332359314,-0.029915854334831238,0.005639159586280584,0.05016069486737251,-0.41449788212776184,0.0024064930621534586,0.008848896250128746,0.018101345747709274,0.013304327614605427,-0.008098630234599113,-0.4212089776992798,-0.004990919027477503,-0.011847912333905697,-0.00042006713920272887,0.01692275144159794,0.013366770930588245,-0.4442349970340729,0.08220580965280533,0.14124788343906403,0.1474161148071289,0.21531186997890472,0.13194812834262848,-0.09464971721172333,-0.016479618847370148,-0.009730634279549122,-0.013910033740103245,-0.08734151721000671,0.04759733006358147,-0.04911832883954048,-0.08345304429531097,-0.15324285626411438,-0.22586272656917572,-0.2180761843919754,-0.4005514681339264,0.37381115555763245,0.36564135551452637,0.30700138211250305,-0.1278952807188034,0.3026910126209259,0.7616351246833801,-0.2000206708908081,-0.262861043214798,0.07205786556005478,0.23693996667861938,-0.05071869120001793,-0.6218173503875732,0.23404449224472046,0.1251538246870041,-0.2699151337146759,-0.49935027956962585,-0.15740151703357697,-0.4673151969909668,0.6434838175773621,0.005165450740605593,0.008298097178339958,0.03035072609782219,0.024667393416166306,0.12199118733406067,-0.04716517776250839,0.024208927527070045,0.017144881188869476,0.03772823140025139,0.05420967563986778,0.020624453201889992,-0.2390974462032318,-0.022847076877951622,-0.034452974796295166,-0.13414473831653595,-0.13248249888420105,-0.2022685706615448,0.26570940017700195,-0.007356613874435425,-0.008074422366917133,-0.03434005752205849,-0.04998096823692322,-0.09065690636634827,-0.4828230142593384,0.014494840055704117,-0.0004097968921996653,0.012131897732615471,0.024321546778082848,0.03268471360206604,-0.9599302411079407,-0.010877951979637146,0.020948423072695732,0.009818855673074722,0.013403465040028095,0.04851655289530754,-0.13045723736286163,-0.005464877001941204,-0.008048702962696552,-0.07845763862133026,-0.042150575667619705,0.005522034130990505,-0.13136304914951324,0.0001929905265569687,-0.004732590168714523,-0.008442486636340618,-0.025213802233338356,-0.07805819064378738,0.24274273216724396,0.017442304641008377,0.024569684639573097,0.09984821081161499,0.12397519499063492,0.2949782907962799,0.6254214644432068,0.050508324056863785,0.14623191952705383,-0.19946080446243286,-0.047923095524311066,-0.03706441447138786,0.07117386907339096,0.2013670951128006,-0.04622742906212807,-0.38396400213241577,0.15739160776138306,-0.5905079245567322,0.22980305552482605,-0.29607245326042175,0.027810195460915565,0.2866412103176117,-0.21489861607551575,-0.06030368432402611,-0.2787867784500122,-0.4345570206642151,-0.1274234652519226,-0.04400024563074112,0.07903342694044113,-0.030045868828892708,-0.09217579662799835,-0.06781646609306335,-0.20554238557815552,-0.04953810200095177,-0.0690235123038292,0.06553193181753159,0.059022437781095505,0.06039964407682419,0.18431206047534943,0.22144581377506256,-0.01939019002020359,0.047266893088817596,0.009667469188570976,-0.1892404854297638,0.07737229019403458,0.02956944704055786,-0.2691403329372406,-0.03851288557052612,-0.17582178115844727,-0.2426871359348297,-0.09792294353246689,-0.3804537057876587,-0.30407118797302246,0.004734373651444912,0.3502052128314972,-0.10842381417751312,0.01911821775138378,0.03277413174510002,-0.006820513401180506,0.09156981110572815,0.0498938262462616,-0.18965929746627808,-0.20846274495124817,-0.13653674721717834,-0.10893237590789795,-0.003457046113908291,-0.04743703827261925,-0.11463222652673721,0.12922286987304688,0.4551602900028229,-0.2146739661693573,-0.1109161451458931,0.026715455576777458,-0.00829000398516655,0.03750787675380707,-0.019541801884770393,-0.025416847318410873,0.0910567119717598,-0.12969259917736053,-0.21438907086849213,-0.01060932595282793,-0.15498369932174683,0.0012197033502161503,0.1491466462612152,0.07109389454126358,0.008634277619421482,0.03879358246922493,0.15435512363910675,0.11463376134634018,-0.007931632921099663,0.10074549913406372,0.29332172870635986,0.1218014806509018,0.11507315933704376,0.1999262422323227,0.049580395221710205,0.1679619550704956,0.25460025668144226,0.2916616201400757,0.5322008728981018,-0.09346527606248856,0.08678331226110458,-0.1218867227435112,-0.12151525169610977,-0.059845391660928726,-0.05995074287056923,-0.11673513799905777,0.07220669090747833,0.06531920284032822,-0.07191483676433563,-0.14708732068538666,0.07416000217199326,0.04993181675672531,0.1989312618970871,0.19017605483531952,-0.21793922781944275,-0.11791002750396729,-0.12632329761981964,-0.09092540293931961,-0.0016627234872430563,-0.08508237451314926,0.13701213896274567,-0.07204263657331467,0.10843122005462646,0.203264981508255,0.09801224619150162,-0.17881172895431519,-0.20931394398212433,-0.5103554725646973,-0.40560629963874817,-0.15114746987819672,-0.0311481524258852,0.02633003517985344,0.06988658756017685,0.09309610724449158,0.06860123574733734,-0.21640120446681976,-0.08264969289302826,-0.07820506393909454,-0.042874518781900406,0.23010192811489105,-0.058025505393743515,-0.4809728264808655,-0.5103416442871094,0.15277530252933502,0.10354053229093552,0.17209404706954956,-0.08409399539232254,0.034973327070474625,0.091134212911129,-0.12538881599903107,-0.025380849838256836,0.17994436621665955,0.11611143499612808,0.10518249869346619,-0.0505337119102478,-0.0707867220044136,-0.3087351322174072,-0.5566006302833557,-0.48542389273643494,0.4308479130268097,-0.23484742641448975,-0.12947998940944672,0.001736967358738184,-0.46447527408599854,-0.9169499278068542,-0.5264849662780762,0.8030955195426941,-0.7419926524162292,-0.45351675152778625,-0.18978695571422577,-1.1340981721878052,-0.03060567006468773,-0.37128934264183044,-0.1288171112537384,-0.2574998140335083,0.13867542147636414,-0.2031695693731308,-0.0573558509349823,-0.05269133672118187,-0.06277649104595184,-0.08193539083003998,-0.12153450399637222,-0.06588509678840637,-0.05476284772157669,0.0029095786157995462,-0.0549883134663105,0.01788848452270031,-0.04934312403202057,-0.05221442133188248,-0.009750333614647388,0.072507344186306,0.4056902229785919,0.04589120298624039,0.045094478875398636,0.03992577642202377,0.10997305810451508,0.11739756911993027,0.09164346009492874,0.05055801942944527,0.006036249455064535,0.021343152970075607,-0.01982754096388817,0.03926118463277817,0.025077179074287415,0.027330923825502396,-0.06942830979824066,-0.48524805903434753,-0.05591956526041031,-0.12622986733913422,-0.10579974949359894,-0.24746422469615936,-0.21136732399463654,-0.1268918514251709,-0.09706725180149078,-0.05664849653840065,-0.09982917457818985,-0.0754006877541542,-0.1259603202342987,-0.07319185882806778,0.06658175587654114,0.15818031132221222,0.101559117436409,-0.17929348349571228,-0.01746748946607113,-0.07123520970344543,-0.060134146362543106,-0.06324058026075363,-0.06059907004237175,-0.13891375064849854,0.040521033108234406,0.12191295623779297,-0.08812237530946732,-0.14353759586811066,-0.15632058680057526,-0.08424582332372665,-0.12499076873064041,-0.03793216496706009,0.18963441252708435,0.050327692180871964,0.07669857889413834,0.0071149407885968685,0.10103091597557068,0.14732001721858978,0.13098204135894775,-0.0707046240568161,-0.08732661604881287,0.07495330274105072,0.10017187893390656,0.08106721192598343,0.03024645335972309,-0.045731689780950546,-0.36657586693763733,-0.2302970141172409,-0.13394170999526978,-0.2732446491718292,-0.04453660175204277,-0.3470301628112793,-0.05951403081417084,-0.11704333871603012,0.08786442130804062,0.03967221453785896,-0.24662195146083832,0.021447056904435158,0.12381083518266678,0.12426383793354034,-0.12474123388528824,0.2295292168855667,-0.123123899102211,-0.0990295559167862,-0.1366390734910965,-0.12848255038261414,-0.13855227828025818,-0.12498841434717178,-0.14754405617713928,-0.20431256294250488,-0.16937413811683655,-0.21288689970970154,-0.2383904755115509,-0.2313164323568344,-0.20662394165992737,-0.15163667500019073,0.5043631196022034,0.10995806753635406,0.07744994759559631,0.10683295130729675,0.08045089244842529,0.09410177171230316,0.054836761206388474,0.09744151681661606,0.13036814332008362,0.0934353917837143,0.15286435186862946,0.18410325050354004,0.1532151997089386,0.07965182512998581,0.03166526183485985,0.23996855318546295,-0.26969292759895325,-0.11808765679597855,-0.2395613193511963,-0.24434314668178558,-0.14955316483974457,-0.13680237531661987,-0.18445061147212982,-0.19359977543354034,-0.20682010054588318,-0.22476698458194733,-0.12262345850467682,-0.1424524039030075,-0.07765831053256989,0.27560609579086304,0.18916037678718567,0.6738547682762146,0.1579502522945404,-0.03236333280801773,-0.21994636952877045,-0.240377277135849,0.09884441643953323,-0.3748014271259308,0.13108061254024506,0.20304659008979797,0.27664265036582947,0.05771319940686226,0.6710712909698486,0.3871588706970215,-0.15574514865875244,0.3107012212276459,-0.7198657393455505,0.18693700432777405,-0.1206103190779686,-0.20049333572387695,-0.24098527431488037,-0.3198060691356659,-0.38955339789390564,-0.42232418060302734,-0.1458003669977188,-0.32598695158958435,-0.4050852358341217,-0.20565979182720184,-0.6759384870529175,-0.6428228616714478,-0.4722011387348175,-0.22500979900360107,-0.0022837771102786064,-0.4602338373661041,-0.33411118388175964,-0.33203238248825073,0.058695465326309204,0.03167823702096939,-0.3098827004432678,0.050876207649707794,-0.3147551715373993,-0.2804245054721832,-0.11583806574344635,-0.25346559286117554,-0.17624303698539734,-0.12219660729169846,-0.3908849060535431,-0.4085700511932373,0.014804331585764885,-0.12556317448616028,-0.26205965876579285,-0.2524535059928894,-0.056032873690128326,-0.05588742345571518,0.05433805286884308,-0.30661818385124207,-0.12413931638002396,-0.3923635184764862,-0.26414066553115845,-0.4261166453361511,-0.18656009435653687,-0.3153807520866394,-0.24299181997776031,-0.4314512014389038,-0.6871338486671448,-0.4742128849029541,-0.7002019882202148,-0.11790194362401962,0.05122460052371025,-0.35990381240844727,-0.4380188584327698,-0.3608526289463043,-0.46054941415786743,1.5429872274398804,-0.6452111601829529,-1.0402588844299316,-0.03615457937121391,0.05433417856693268,-0.419644832611084,-0.6527208089828491,0.6491283178329468,0.37065842747688293,0.5177198648452759,-0.6302812695503235,-0.27136853337287903,-1.0592232942581177,0.3019276261329651,0.837250828742981,-0.2676122188568115,0.622314989566803,0.6205892562866211,-0.2916010320186615,-0.27466320991516113,-0.11545133590698242,0.07355062663555145,-0.5062519907951355,-0.24795173108577728,0.3703187108039856,0.38382354378700256,0.10874117165803909,0.024472676217556,0.6219200491905212,1.0940929651260376,-0.05021784082055092,-0.8617587089538574,-0.8000947833061218,-0.6509681940078735,-1.3914958238601685,-1.0282094478607178,-0.013419222086668015,0.04299240931868553,-0.027013296261429787,0.02784205973148346,0.30486270785331726,0.05332228168845177,0.04564391076564789,-0.08411817997694016,0.02611568570137024,-0.020220119506120682,-0.18748779594898224,0.3108876049518585,0.03406894579529762,-0.04138920083642006,-0.000053386804211186245,0.012305187061429024,0.06230468675494194,0.6790688037872314,-0.383090078830719,0.016869723796844482,0.3305939733982086,-0.2586802542209625,0.0913732573390007,-0.3570138216018677,0.3575070798397064,0.09031255543231964,-0.24734823405742645,0.21283283829689026,-0.03074638359248638,0.22261682152748108,-0.5741990208625793,-0.30301547050476074,0.18213441967964172,-0.5021055340766907,-0.09448599070310593,0.5271288156509399,0.08165927976369858,-0.22306284308433533,-0.01761954464018345,0.12086350470781326,0.4366850256919861,0.20762990415096283,-0.5100986957550049,-0.9584813714027405,0.4067661464214325,-0.8422249555587769,-0.7801480293273926,-0.5622404217720032,0.10700232535600662,-0.2275935560464859,-0.5760717391967773,-0.5093470215797424,0.6340153217315674,0.15710245072841644,0.2084839642047882,-0.03920476511120796,-0.3311454653739929,0.15897101163864136,0.05421660467982292,-0.42168858647346497,-0.1709887832403183,-0.17963193356990814,-0.19771915674209595,-0.40546002984046936,-0.20026561617851257,0.3385772407054901,0.2595129609107971,-0.3431853950023651,0.03456509858369827,0.179262176156044,0.10190432518720627,0.1932787448167801,-0.022928280755877495,0.08552367240190506,0.09631162881851196,0.04296417906880379,0.036940798163414,0.09476659446954727,-0.0806865319609642,0.042377013713121414,0.014478474855422974,-0.04659580811858177,0.027881212532520294,-0.02849029190838337,0.05298876017332077,-0.005009106360375881,0.028430823236703873,0.006845409050583839,-0.02079383097589016,0.005307592451572418,0.1420520842075348,-0.35863974690437317,-0.2212352603673935,0.3014506995677948,-0.25439316034317017,0.06053772568702698,-0.017294585704803467,0.015934260562062263,-0.2984585165977478,-0.08082064241170883,0.12021409720182419,-0.3137422204017639,-0.20086853206157684,0.23048312962055206,0.16789045929908752,0.9029394388198853,-0.7123445868492126,0.971028745174408,-0.2292238026857376,-0.006920943967998028,0.7912234663963318,-0.1753525584936142,-0.00675609614700079,-0.22462965548038483,0.10385765880346298,-0.06483679264783859,0.195907324552536,-0.7341200113296509,0.03619726002216339,0.5335626006126404,-0.718676745891571,-0.025603974238038063,-0.4701423645019531,-0.18564173579216003,0.5808908343315125,-0.03005695529282093,-0.10468680411577225,-0.15134726464748383,0.05398521199822426,-0.38668015599250793,-0.06817767769098282,-1.2750390768051147,0.25526031851768494,0.020563136786222458,-0.011356423608958721,0.1902274638414383,-0.3021617531776428,-0.639457106590271,-0.13804391026496887,-0.12892885506153107,0.06894252449274063,-0.10587071627378464,0.4573385715484619,-0.14789900183677673,0.2799423933029175,-0.1206006109714508,-0.008104176260530949,0.06626066565513611,0.01739845611155033,-0.06359041482210159,-0.18694953620433807,0.059791844338178635,-0.16064515709877014,-0.3107433021068573,-0.3947441279888153,0.2391003519296646,-0.05146009474992752,-0.34482353925704956,-0.1083257645368576,0.21090257167816162,-0.1785740852355957,-0.011233566328883171,-0.0402592197060585,-0.41623541712760925,-0.479582279920578,-0.0050290110521018505,-0.12458577007055283,0.3365662097930908,-0.0900174081325531,0.35681089758872986,0.28870055079460144,0.16407163441181183,0.07595902681350708,-0.1034136489033699,-0.1864795982837677,-0.23816025257110596,0.01607612892985344,-0.33024629950523376,-0.13255219161510468,0.009072109125554562,0.4991435110569,-0.1575629711151123,0.17106270790100098,0.1429029256105423,-0.48116543889045715,-0.16942757368087769,0.342619925737381,0.21279262006282806,-0.3029109239578247,0.4595661461353302,-0.4260055422782898,0.21589934825897217,-0.27846065163612366,-0.2759551405906677,-0.5387473702430725,-0.21117863059043884,-0.14962749183177948,-0.4841441810131073,-0.22882620990276337,0.34432709217071533,0.5026431679725647,-0.10607543587684631,0.6045103073120117,-0.6214785575866699,-0.006130544003099203,0.1485166698694229,0.33240190148353577,0.18256576359272003,0.5241562724113464,-0.31236425042152405,-0.1607898324728012,-0.05716630071401596,-0.15633906424045563,0.003423254005610943,-0.20256569981575012,-0.3329816162586212,0.055387064814567566,-0.11140023171901703,-0.07158531993627548,-0.25645551085472107,0.1935177445411682,-0.3032204508781433,0.1789460927248001,0.19033312797546387,-0.04155007377266884,0.0012066151248291135,-0.28883978724479675,0.19685591757297516,0.26029959321022034,0.12969623506069183,0.13098233938217163,0.10163998603820801,-0.0778239518404007,-0.16316039860248566,-0.17247483134269714,0.3378155827522278,0.2636502683162689,0.2838544547557831,-0.24083204567432404,0.5748862624168396,-0.18415682017803192,-0.1254906952381134,0.14536641538143158,-0.10802476108074188,0.2669655680656433,-0.19730350375175476,-0.21317829191684723,-0.21345506608486176,-0.15115520358085632,-0.11536584049463272,0.03170139342546463,0.2575555443763733,-0.0922928974032402,0.00623863423243165,0.254533052444458,-0.036590225994586945,-0.0005961613496765494,0.1430593878030777,-0.8738932013511658,-0.34459641575813293,0.41452649235725403,0.15036800503730774,-0.14065229892730713,1.0796406269073486,-0.30875739455223083,-0.14787931740283966,-0.05996169149875641,-0.029059207066893578,-0.06649413704872131,-0.34271448850631714,-0.00107106426730752,0.0021696477197110653,0.00673659285530448,-0.028538089245557785,0.021327801048755646,0.000898117374163121,-0.0215962715446949,-0.04958115890622139,-0.057059481739997864,-0.04825274646282196,0.11318530887365341,0.04631954804062843,0.011893101036548615,0.036821864545345306,-0.006231298204511404,-0.006647109054028988,0.06357681751251221,-0.03105986677110195,0.08818450570106506,0.16252480447292328,0.011547318659722805,0.11392194032669067,0.17319123446941376,-0.28124067187309265,-0.08817578852176666,0.010958275757730007,0.022328486666083336,0.2421889305114746,0.385048508644104,-0.0683446153998375,-0.0006138492608442903,0.020663119852542877,0.04057988151907921,0.01043490506708622,-0.16174843907356262,-0.2917160391807556,-0.002892981516197324,-0.06886593252420425,0.10972601175308228,-0.2509264647960663,-0.16997025907039642,0.5128851532936096,-0.045470837503671646,0.18523000180721283,0.10210216790437698,-0.040253184735774994,0.015380287542939186,0.31559255719184875,0.05205405876040459,-0.04908193647861481,-0.10120486468076706,0.08786053210496902,-0.07813341170549393,-0.24069277942180634,0.007373405620455742,0.14965219795703888,0.26566582918167114,0.0141997579485178,-0.5233352184295654,0.2521182894706726,0.0804586112499237,-0.06668685376644135,-0.6515005826950073,-0.14921149611473083,-0.1443949043750763,-0.08753976970911026,0.16998521983623505,0.8085565567016602,1.0731229782104492,-0.011017480865120888,0.14325250685214996,0.1483553946018219,-0.04191172122955322,-0.01312639843672514,-0.07205257564783096,-0.2012435793876648,-0.2765703499317169,-0.3907258212566376,0.04745805263519287,0.10633926093578339,-0.01451808214187622,-0.08784510940313339,-0.18104729056358337,0.21382324397563934,-0.004849959630519152,-0.02745964005589485,0.08346503227949142,0.2184596210718155,0.17000679671764374,-0.1955559402704239,0.031235039234161377,-0.06295225769281387,-0.12650388479232788,-0.1490325927734375,-0.13150309026241302,-0.580479085445404,0.029128547757864,0.0626998320221901,-0.011524119414389133,-0.09686379879713058,0.17470380663871765,-0.22379596531391144,-0.015149290673434734,-0.04549674689769745,0.08635125309228897,0.1128590777516365,-0.005445971619337797,-0.43264368176460266,-0.004962502513080835,0.02301470935344696,0.02928856573998928,-0.06699977070093155,-0.1542266607284546,0.01283947005867958,-0.07891301065683365,0.034465011209249496,0.028481626883149147,0.10079088807106018,0.04146873205900192,0.05150270462036133,0.048393476754426956,-0.021625611931085587,-0.009957930073142052,0.0332229807972908,-0.02600475214421749,0.01943357102572918,0.15677045285701752,0.12852156162261963,0.3898877501487732,0.26062658429145813,-0.697260320186615,0.18335585296154022,0.4162098467350006,-0.00858832336962223,0.5327888131141663,0.11612158268690109,0.18631941080093384,-0.07476914674043655,-0.32249006628990173,-0.3899204134941101,-0.36959829926490784,-0.3457287847995758,0.4948616325855255,-0.35605674982070923,-0.0007338047144003212,0.004334668628871441,0.01655922271311283,0.009750301949679852,-0.030178647488355637,-0.06727764010429382,-0.09683407098054886,-0.1226106733083725,-0.1145879402756691,-0.0746111050248146,0.014961636625230312,0.09378662705421448,0.19004075229167938,0.22326640784740448,0.16142605245113373,0.07400863617658615,-0.03377103433012962,-0.05485694482922554,-0.08666042238473892,-0.11317800730466843,-0.11355174332857132,-0.1241002231836319,-0.09535815566778183,-0.06796334683895111,-0.015500052832067013,0.02186884544789791,0.025260450318455696,0.026334356516599655,0.004529932513833046,-0.000648240209557116,0.004831309430301189,0.0026765039656311274,0.01615624502301216,0.040011048316955566,0.07026180624961853,0.10204501450061798,0.14919762313365936,0.1547672301530838,0.1341855376958847,0.10312871634960175,0.05491630360484123,-0.005729104857891798,-0.07255002856254578,-0.12112259864807129,-0.16475112736225128,-0.15118978917598724,-0.09323517233133316,-0.027831682935357094,0.02994637005031109,0.01601678087420725],"sample_rate":48000}},{"max_value":1,"model":{"version":"0.7.0","metadata":{"date":{"year":2026,"month":6,"day":3,"hour":3,"minute":33,"second":49},"loudness":-13.517755684344959,"gain":0.8078089815426722},"architecture":"WaveNet","config":{"layers":[{"input_size":1,"condition_size":1,"head":{"out_channels":1,"kernel_size":16,"bias":true},"channels":8,"kernel_sizes":[6,6,6,6,6,6,6,6,6,6,6,6,6,6,15,15,6,6,6,6,6,6,6],"dilations":[1,3,7,17,41,101,239,1,3,7,17,41,101,239,1,13,1,3,7,17,41,101,239],"activation":[{"type":"LeakyReLU","negative_slope":0.01},{"type":"LeakyReLU","negative_slope":0.01},{"type":"LeakyReLU","negative_slope":0.01},{"type":"LeakyReLU","negative_slope":0.01},{"type":"LeakyReLU","negative_slope":0.01},{"type":"LeakyReLU","negative_slope":0.01},{"type":"LeakyReLU","negative_slope":0.01},{"type":"LeakyReLU","negative_slope":0.01},{"type":"LeakyReLU","negative_slope":0.01},{"type":"LeakyReLU","negative_slope":0.01},{"type":"LeakyReLU","negative_slope":0.01},{"type":"LeakyReLU","negative_slope":0.01},{"type":"LeakyReLU","negative_slope":0.01},{"type":"LeakyReLU","negative_slope":0.01},{"type":"LeakyReLU","negative_slope":0.01},{"type":"LeakyReLU","negative_slope":0.01},{"type":"LeakyReLU","negative_slope":0.01},{"type":"LeakyReLU","negative_slope":0.01},{"type":"LeakyReLU","negative_slope":0.01},{"type":"LeakyReLU","negative_slope":0.01},{"type":"LeakyReLU","negative_slope":0.01},{"type":"LeakyReLU","negative_slope":0.01},{"type":"LeakyReLU","negative_slope":0.01}],"bottleneck":8,"head1x1":{"active":false,"out_channels":1,"groups":1},"layer1x1":{"active":true,"groups":1},"groups_input":1,"groups_input_mixin":1,"conv_pre_film":{"active":false,"shift":true,"groups":1},"conv_post_film":{"active":false,"shift":true,"groups":1},"input_mixin_pre_film":{"active":false,"shift":true,"groups":1},"input_mixin_post_film":{"active":false,"shift":true,"groups":1},"activation_pre_film":{"active":false,"shift":true,"groups":1},"activation_post_film":{"active":false,"shift":true,"groups":1},"layer1x1_post_film":{"active":false,"shift":true,"groups":1},"head1x1_post_film":{"active":false,"shift":true,"groups":1},"gating_mode":["none","none","none","none","none","none","none","none","none","none","none","none","none","none","none","none","none","none","none","none","none","none","none"],"secondary_activation":[null,null,null,null,null,null,null,null,null,null,null,null,null,null,null,null,null,null,null,null,null,null,null],"slimmable":null}],"head":null,"head_scale":0.016016781232210207},"weights":[-0.3792579472064972,0.0014725179644301534,-0.000149638406583108,0.5231011509895325,-0.8950133919715881,-0.3725692331790924,0.2915114462375641,0.9936884641647339,-0.10497687011957169,0.0628480613231659,-0.22467537224292755,0.07846765965223312,0.26525741815567017,-0.06887118518352509,-0.001790457870811224,-0.003556344658136368,-0.0024979764129966497,-0.003263962222263217,-0.0042457589879632,-0.003175491001456976,-0.0045974645763635635,-0.005085840355604887,-0.0051864143460989,-0.005591742228716612,-0.005615225061774254,-0.005735366605222225,-0.0025385066401213408,0.04053673520684242,0.25223952531814575,-0.08624377101659775,-0.24242457747459412,0.07192034274339676,-0.10349003225564957,0.06250268220901489,-0.2666587233543396,0.10080567002296448,0.29405632615089417,-0.07423539459705353,-0.03577436879277229,0.05777033790946007,-0.21532480418682098,0.06183760240674019,0.19646213948726654,0.010445065796375275,0.03020474500954151,-0.03984348475933075,0.20885688066482544,-0.08980641514062881,-0.15756043791770935,0.015105069614946842,0.15268602967262268,-0.1007787361741066,0.3424554467201233,0.0430760495364666,-0.23311904072761536,0.04381081461906433,0.036767829209566116,0.007552029564976692,0.004468790255486965,-0.07662594318389893,0.268785685300827,-0.05025292560458183,0.004354925360530615,0.0024819965474307537,0.003393962513655424,0.004673683550208807,0.002285158494487405,0.0030084180179983377,-0.004316763021051884,-0.005643798038363457,-0.006581922527402639,-0.007639823015779257,-0.008189314045011997,-0.008685577660799026,-0.008824282325804234,0.056474048644304276,0.05793586000800133,0.10016204416751862,-0.23430778086185455,0.0008765815291553736,-0.06335432082414627,0.15368400514125824,-0.05686066672205925,0.06680378317832947,0.3689841032028198,0.00043080540490336716,-0.09994515776634216,0.0919426903128624,-0.069582998752594,-0.04312114790081978,0.3125050663948059,-0.041724152863025665,0.11458516120910645,0.032635293900966644,0.06428217142820358,0.09879651665687561,-0.1743646115064621,0.0651237890124321,-0.023449914529919624,-0.09467725455760956,-0.02145506627857685,-0.02718191407620907,-0.279399037361145,0.12964853644371033,-0.15119314193725586,0.01495522353798151,0.04069036245346069,0.068659208714962,0.05453638359904289,-0.0810488685965538,0.002034381963312626,0.0005953616928309202,0.0007596020004712045,0.0004898451152257621,0.0006342355627566576,0.0002890260948333889,-0.002969519468024373,-0.003031489672139287,-0.0029984810389578342,-0.003007742343470454,-0.0029047003481537104,-0.0028981498908251524,0.2591722905635834,-0.073662668466568,-0.054019246250391006,0.010411655530333519,-0.05364561080932617,0.0910087525844574,-0.13731303811073303,-0.08816668391227722,0.04467298090457916,-0.04031308367848396,0.17633886635303497,-0.11174045503139496,-0.1900445818901062,0.009237571619451046,-0.04756634682416916,0.030758822336792946,0.048374373465776443,-0.09724333137273788,0.16724437475204468,-0.014160349033772945,-0.006170343142002821,-0.049128685146570206,-0.12858323752880096,-0.0137564642354846,0.26050758361816406,0.053922198712825775,0.03723392263054848,-0.11480992287397385,-0.12474489212036133,0.05255072936415672,-0.04636644199490547,0.15041124820709229,-0.03343568369746208,-0.1880507618188858,0.1579921692609787,-0.005410559941083193,0.005325960926711559,0.005217877682298422,0.006377380341291428,0.006492564920336008,0.0047169276513159275,0.00427563302218914,-0.002167958300560713,-0.0028818577993661165,-0.0033969110809266567,-0.003833018010482192,-0.004147387575358152,-0.004366918001323938,0.06063365191221237,-0.18120728433132172,0.03551226854324341,0.20895378291606903,-0.19565308094024658,0.02266198769211769,-0.12283448874950409,0.25241923332214355,-0.03916975483298302,-0.26556986570358276,0.271287202835083,-0.05018096789717674,-0.04323321580886841,0.1507015973329544,-0.03823775425553322,-0.18596841394901276,0.16531650722026825,-0.004354875534772873,0.013398862443864346,-0.10013770312070847,0.04655829817056656,0.15080557763576508,-0.11461908370256424,-0.010331311263144016,0.14190421998500824,-0.3137730062007904,0.013567768968641758,0.2946993410587311,-0.3197719156742096,0.05914098396897316,0.02291957288980484,-0.10288253426551819,0.07467854768037796,-0.11787146329879761,-0.04784005507826805,0.10151762515306473,0.000856994476635009,0.00030393744236789644,-0.00006556102016475052,0.0010303602321073413,0.0002694034483283758,-0.0003425105824135244,-0.0006603572983294725,-0.0002891601179726422,-0.0004591040196828544,-0.000271692086244002,-0.0005289422697387636,-0.0004673476214520633,-0.05077303946018219,0.13900034129619598,-0.0941474661231041,0.1678548902273178,0.10152025520801544,-0.14148689806461334,0.047491654753685,-0.18470555543899536,0.10487890243530273,-0.18277466297149658,-0.1571573168039322,0.19662673771381378,0.012686013244092464,-0.0881878137588501,0.06116538867354393,-0.10505837202072144,-0.06080339476466179,0.10439233481884003,-0.010896435007452965,0.07329751551151276,-0.04995843023061752,0.09835348278284073,0.024254536256194115,-0.07288399338722229,-0.06462965160608292,0.15650400519371033,-0.07423193007707596,0.24423065781593323,0.0832948312163353,-0.22863584756851196,0.01727697253227234,-0.023977313190698624,0.011488108895719051,-0.03360243886709213,-0.13106957077980042,0.08302406966686249,-0.0013052209978923202,-0.0011614380637183785,-0.0014092614874243736,-0.0010594134218990803,-0.000979963457211852,-0.0014021360548213124,-0.000005649702870869078,0.00012815218360628933,0.00018528128566686064,0.00023906775459181517,0.00006748134910594672,0.000153063127072528,-0.010935323312878609,0.015061105601489544,-0.019116491079330444,0.03885914385318756,0.18202032148838043,-0.10782192647457123,0.025407500565052032,-0.01469605602324009,0.02562682516872883,-0.0590449757874012,-0.2655785381793976,0.16879181563854218,0.016398804262280464,-0.02484593167901039,0.009560292586684227,-0.033958856016397476,-0.13131588697433472,0.08339596539735794,-0.013922855257987976,0.026658082380890846,-0.007164879702031612,0.026722094044089317,0.09277219325304031,-0.05957457795739174,-0.020646989345550537,-0.00992641132324934,-0.025763625279068947,0.056107304990291595,0.31987789273262024,-0.15517579019069672,-0.044467877596616745,0.04337090253829956,-0.037504397332668304,0.14932608604431152,0.035437166690826416,-0.10377292335033417,-0.00038509274600073695,-0.001309986342675984,0.0006007766351103783,-0.0007993920589797199,-0.00015089659427758306,-0.00024096909328363836,0.0006338032544590533,0.0006692554452456534,0.0006869703065603971,0.0004541430389508605,0.0005121857975609601,0.0004597014922183007,0.06084276735782623,-0.04818068444728851,0.035852983593940735,-0.19920168817043304,-0.039762869477272034,0.12958748638629913,-0.09744956344366074,0.05231919884681702,-0.04616601765155792,0.29543954133987427,0.045654263347387314,-0.17454876005649567,-0.045045800507068634,0.042501069605350494,-0.03661050274968147,0.1519375592470169,0.035502221435308456,-0.10500643402338028,0.024913204833865166,-0.03958859667181969,0.036535460501909256,-0.10486418753862381,-0.032849352806806564,0.08002093434333801,0.11504502594470978,-0.07124257832765579,0.04788132756948471,-0.33234351873397827,-0.040772952139377594,0.18872959911823273,-0.20817433297634125,-0.04920143261551857,0.09264031052589417,-0.09183893352746964,0.1639871895313263,0.0454656183719635,-0.0027481301221996546,-0.004794861190021038,-0.0049346131272614,-0.004709463566541672,-0.006077603902667761,-0.006068579386919737,-0.0007523808744736016,-0.0017543219728395343,-0.0024208214599639177,-0.003348073223605752,-0.003734034253284335,-0.004230642691254616,0.09216310828924179,0.1422666758298874,-0.0852581039071083,-0.05244588106870651,-0.24556663632392883,0.05647915229201317,-0.10408072918653488,-0.05648817867040634,-0.012704786844551563,-0.08086593449115753,0.23302775621414185,-0.09981630742549896,-0.03612985461950302,-0.14119559526443481,-0.036976076662540436,-0.08721642941236496,0.18853388726711273,0.03948719799518585,0.17962592840194702,-0.03455271199345589,-0.02494450844824314,0.06440053135156631,-0.1309407353401184,0.11026842892169952,0.12849660217761993,-0.025248099118471146,0.0626312866806984,-0.02815018594264984,-0.193137988448143,0.027619743719697,0.050408098846673965,0.4427349865436554,0.11416540294885635,0.02848811075091362,-0.047276221215724945,-0.1973080039024353,-0.011479071341454983,0.2738399803638458,-0.11840467900037766,0.1383262574672699,-0.032917384058237076,0.17659468948841095,-0.48314788937568665,-0.09135903418064117,0.24371960759162903,-0.46349582076072693,-0.014958412386476994,0.1517268419265747,0.10409057885408401,0.16854484379291534,-0.31639552116394043,-0.0636170357465744,0.17551417648792267,-0.1241082102060318,0.2258009910583496,-0.10697454959154129,0.1748424768447876,-0.2517143189907074,0.08134283870458603,0.06478014588356018,-0.00704128947108984,0.1575063019990921,0.5225597620010376,0.6270439624786377,0.21182133257389069,0.3897668719291687,-0.22692754864692688,-0.3243770897388458,0.29006946086883545,0.232906773686409,0.26102831959724426,-0.17029231786727905,0.12965771555900574,-0.28322210907936096,0.04768205061554909,0.2515723407268524,-0.19171281158924103,-0.02208865061402321,0.16083075106143951,-0.05975153297185898,0.13581402599811554,-0.053131621330976486,-0.14565688371658325,-0.18664152920246124,0.2730274498462677,0.3359394967556,0.12395115941762924,0.0559953935444355,0.2078433781862259,0.0016272530192509294,-0.06803274154663086,-0.09539816528558731,0.1073998212814331,-0.23366835713386536,-0.21449118852615356,-0.2170335054397583,-0.12916044890880585,0.15865209698677063,0.3192594647407532,0.0989808440208435,0.03650565445423126,-0.34763631224632263,-0.10974761098623276,-0.062094368040561676,0.27021080255508423,0.181830033659935,0.33567288517951965,0.2530885636806488,0.016236087307333946,-0.33190685510635376,-0.20506814122200012,0.2023789882659912,-0.18180599808692932,0.012926263734698296,-0.181485116481781,-0.16751404106616974,0.016666730865836143,0.12807656824588776,0.08566617965698242,0.05566328018903732,0.07882238924503326,0.05996682122349739,0.03962741047143936,-0.12020746618509293,-0.10448915511369705,-0.08328934013843536,-0.08047022670507431,-0.04805593937635422,-0.018703212961554527,-0.080568328499794,0.0263007041066885,0.08113573491573334,0.09709862619638443,0.03485344350337982,0.06587211042642593,-0.18629449605941772,-0.07541752606630325,-0.023495590314269066,-0.09122408926486969,-0.10580219328403473,-0.007795238867402077,0.15547312796115875,0.007740413304418325,-0.019848519936203957,0.0554983951151371,0.15661777555942535,0.06369981169700623,-0.3845255672931671,0.040695127099752426,0.025244323536753654,0.04025200754404068,0.06366492807865143,0.022281596437096596,-0.09865100681781769,-0.04393521696329117,-0.12097412347793579,-0.049093276262283325,-0.06434683501720428,-0.036458298563957214,0.2325604408979416,-0.054443296045064926,-0.11631397902965546,-0.11846791952848434,-0.2092645913362503,-0.087474524974823,0.3778000771999359,-0.08902281522750854,-0.012471381574869156,0.00821499153971672,-0.06479323655366898,0.04620586335659027,-0.14558495581150055,0.00576707674190402,0.06413234770298004,0.16887104511260986,0.05418939143419266,0.2653253972530365,0.02490842528641224,-0.08686424046754837,-0.10655999183654785,0.08667353540658951,0.04340014606714249,0.32925471663475037,-0.2723633348941803,-0.07844147086143494,-0.23365043103694916,-0.057703226804733276,-0.09381082653999329,0.025270994752645493,0.23808348178863525,-0.1397477090358734,0.17910248041152954,0.11835649609565735,-0.0638408437371254,0.10633378475904465,-0.20728705823421478,-0.05699831247329712,-0.019537629559636116,-0.10149678587913513,-0.00740052992478013,0.012382387183606625,-0.19297625124454498,-0.14159919321537018,-0.10798864811658859,-0.14057838916778564,0.06975163519382477,-0.190359428524971,0.20367665588855743,0.04845297336578369,-0.18848660588264465,-0.16808076202869415,-0.19535936415195465,-0.07651010155677795,0.21310192346572876,0.05828763172030449,0.18031743168830872,-0.00934572797268629,-0.13408048450946808,0.017658080905675888,-0.1995454728603363,-0.10434910655021667,0.10228051990270615,0.052303411066532135,0.00818683672696352,0.1290506273508072,0.02975042723119259,0.15548492968082428,-0.028162000700831413,0.11869235336780548,0.053346868604421616,0.5118481516838074,-0.3117954432964325,-0.1798626035451889,-0.19444945454597473,-0.05881283059716225,-0.05537454038858414,0.08177082240581512,0.27658218145370483,0.006400526966899633,0.06535744667053223,0.15872113406658173,-0.13606426119804382,-0.06186046451330185,-0.23473329842090607,0.023798536509275436,0.0592968612909317,0.10892891138792038,-0.11004623025655746,-0.17508924007415771,-0.2475406676530838,0.05173369124531746,-0.12116719782352448,-0.1651296317577362,0.08328191936016083,-0.10400404781103134,0.16084183752536774,0.0441368967294693,-0.047510989010334015,0.021878492087125778,-0.004472537897527218,-0.12045406550168991,0.16697785258293152,0.0013101139338687062,0.0009548966772854328,0.0007902540382929146,0.0008556842803955078,0.0008861629175953567,0.0009452315280213952,-0.0012492102105170488,-0.0016847498482093215,-0.0014285417273640633,-0.0014279276365414262,-0.0013769898796454072,-0.001206644345074892,-0.00037914878339506686,-0.0015736708883196115,-0.001872113673016429,-0.001595660112798214,-0.0014005241682752967,-0.0010029320837929845,-0.00034660662640817463,0.000012657676961680409,0.00019264844013378024,0.0001268217747565359,-0.00007229237235151231,-0.00021018956613261253,0.001283559133298695,-0.0001058484849636443,0.00020624980970751494,0.0002895689394790679,0.0005654279375448823,0.0009942909236997366,0.001255213050171733,0.0009317763615399599,0.0009596218587830663,0.0009526658104732633,0.0010066706454381347,0.0011195179540663958,0.0005686917575076222,0.0015497647691518068,0.0013547326670959592,0.0012655149912461638,0.0013099127681925893,0.0010169422021135688,-0.0010541660012677312,-0.000009011382644530386,-0.00029511566390283406,-0.00025494751753285527,-0.0004015529411844909,-0.0007897865725681186,0.003299569711089134,0.0035897523630410433,0.0034163505770266056,0.003299538278952241,0.003788658417761326,0.004116303753107786,-0.0056973667815327644,-0.0060565113089978695,-0.006449682172387838,-0.005976682063192129,-0.005875824484974146,-0.006203793920576572,-0.006312165409326553,-0.006476064212620258,-0.007019374053925276,-0.007049365900456905,-0.005963251460343599,-0.005333549343049526,0.000012759986930177547,-0.0003758319653570652,-0.0001101991074392572,0.0003850539796985686,0.00013502304500434548,-0.00015424416051246226,0.002584711881354451,0.002361635910347104,0.0012201570207253098,0.0020817883778363466,0.0034566016402095556,0.003358183428645134,0.004560602363198996,0.0045610396191477776,0.004252674523741007,0.00446415925398469,0.004781673662364483,0.004850275814533234,0.00479036895558238,0.005107719451189041,0.006096956320106983,0.0054504163563251495,0.003549644723534584,0.003448478179052472,-0.002202386502176523,-0.0021191448904573917,-0.0008900066604837775,-0.0013110946165397763,-0.0028985003009438515,-0.002972453134134412,-0.009971007704734802,0.036509085446596146,0.025973858311772346,-0.03646950051188469,-0.14036917686462402,-0.23438259959220886,-0.12114262580871582,-0.0717276856303215,0.007609589025378227,-0.08054756373167038,-0.0716763362288475,0.07379113137722015,0.07324498891830444,0.14339540898799896,-0.01631438173353672,-0.03406628966331482,0.2874162197113037,-0.14382678270339966,-0.2571597993373871,-0.10410751402378082,-0.14077144861221313,0.012605732306838036,0.09253475815057755,0.3842334449291229,-0.032868027687072754,0.0070039755664765835,0.17587581276893616,0.09799344092607498,-0.17626427114009857,-0.1457986682653427,0.07115881145000458,0.1018599197268486,0.16824497282505035,-0.010060696862637997,-0.1855231076478958,-0.18072789907455444,-0.017617808654904366,-0.19791430234909058,-0.15961241722106934,-0.07993673533201218,-0.015823939815163612,0.31123536825180054,-0.15826480090618134,-0.2242274284362793,-0.12141788750886917,-0.17305701971054077,0.15058355033397675,0.10489886999130249,-0.009965875186026096,0.03950433433055878,0.05929650366306305,-0.03188280016183853,0.00396469933912158,-0.00702203344553709,0.026215538382530212,-0.026436135172843933,-0.030877448618412018,-0.0353894867002964,-0.0196823887526989,-0.0672517716884613,-0.05303662642836571,0.05057920143008232,0.07253243774175644,-0.06910552829504013,-0.027842696756124496,-0.1740538775920868,0.08356738090515137,0.018373172730207443,-0.0016638851957395673,0.07564719766378403,0.09646537899971008,0.13190563023090363,-0.05175483971834183,0.08878353238105774,0.11423252522945404,-0.023908205330371857,-0.08911820501089096,-0.11914724856615067,0.009159640409052372,0.02087932638823986,0.005618350114673376,-0.02998211607336998,0.046291451901197433,-0.01892487332224846,0.0798061192035675,-0.005659464281052351,-0.020073704421520233,0.10959091037511826,0.044070955365896225,0.14927582442760468,0.048806749284267426,-0.08701861649751663,-0.02426784299314022,0.10608989745378494,0.06559526920318604,0.13744455575942993,0.008920633234083652,0.009167399257421494,0.009355476126074791,0.009293070062994957,0.009249701164662838,0.009177489206194878,-0.011473423801362514,-0.010903586633503437,-0.011145416647195816,-0.011257991194725037,-0.011179757304489613,-0.011305756866931915,-0.012416506186127663,-0.011276980862021446,-0.01088162325322628,-0.01128515973687172,-0.011288410052657127,-0.011817390099167824,0.0039553046226501465,0.0037298444658517838,0.0036841887049376965,0.0035904496908187866,0.003725520335137844,0.0035304895136505365,0.005018378607928753,0.006429265718907118,0.006164324935525656,0.006043242756277323,0.006054299417883158,0.005945601034909487,0.009817924350500107,0.010152340866625309,0.010149231180548668,0.010116131976246834,0.010098224505782127,0.010036186315119267,0.011509577743709087,0.010386914014816284,0.010501685552299023,0.010711361654102802,0.010740312747657299,0.010881603695452213,-0.0003240013320464641,-0.0013747989432886243,-0.0009898568969219923,-0.0010997990611940622,-0.0011418142821639776,-0.001374474260956049,-0.10600850731134415,0.0673915296792984,0.255585640668869,-0.005950211081653833,-0.02135462313890457,0.19144493341445923,-0.10412329435348511,-0.016976287588477135,0.3215928375720978,0.47014060616493225,0.7136863470077515,-0.0007003241335041821,-0.0017336512682959437,0.639256477355957,0.4111067056655884,0.00038890703581273556,0.6376670002937317,0.22008255124092102,-0.01558441761881113,0.00020080621470697224,-0.005903576035052538,0.2716139554977417,-0.011768121272325516,0.0007935583125799894,0.22788771986961365,-0.318440705537796,-0.2265044003725052,0.0012154337018728256,0.00523027079179883,0.0947830080986023,-0.062007904052734375,-0.001157161663286388,0.053147122263908386,-0.1575498878955841,-0.39466115832328796,0.00022002468176651746,0.009060314856469631,-0.036854732781648636,-0.050920452922582626,-0.0014641067245975137,0.11690863966941833,0.019706008955836296,0.20434124767780304,0.0002618323778733611,-0.007757626008242369,0.11588417738676071,-0.08024416863918304,0.001028102939017117,-0.029106399044394493,-0.11645461618900299,-0.03030322678387165,-0.0011051160981878638,0.0014391959412023425,0.047436319291591644,0.20479460060596466,0.00170906784478575,-0.23389150202274323,0.1049756407737732,0.33111634850502014,-0.0005161985172890127,-0.001015057903714478,0.12571227550506592,-0.13930988311767578,-0.0004959276993758976,-0.3410123884677887,0.31603121757507324,0.10865085572004318,0.0010734422830864787,0.0016820593737065792,0.39669227600097656,-0.029282689094543457,-0.00018000374257098883,-0.19927051663398743,0.06259621679782867,0.19094140827655792,-0.0002763302472885698,0.0009013506933115423,0.22634732723236084,0.17168499529361725,-0.0011071781627833843,-0.008019456639885902,-0.014026190154254436,0.06417365372180939,-0.10497553646564484,0.1221424862742424,-0.19805562496185303,-0.0784674882888794,-0.16187378764152527,0.025303857401013374,0.016216425225138664,-0.07452155649662018,-0.01533282920718193,0.03165898844599724,-0.16089893877506256,-0.1597263514995575,-0.008380914106965065,-0.05101403594017029,0.05639384314417839,-0.049478426575660706,0.02286556549370289,-0.00001992896977753844,0.04487227275967598,0.03901180252432823,0.04198293015360832,-0.13759160041809082,-0.05413501709699631,-0.14032584428787231,0.002496892586350441,-0.03968586027622223,-0.03147110715508461,0.15572762489318848,-0.04863332584500313,-0.01734134927392006,0.005272013135254383,-0.0910344049334526,0.008246545679867268,-0.1460144966840744,0.05600940063595772,0.002085185842588544,0.03546237200498581,-0.05202236399054527,-0.08887752890586853,0.016034718602895737,-0.04002152010798454,0.04971524327993393,-0.06739906221628189,-0.055809877812862396,-0.09697013348340988,0.15800891816616058,-0.09969769418239594,-0.09527384489774704,-0.013138527050614357,-0.010861136019229889,-0.03278404474258423,0.13868986070156097,-0.09679274260997772,-0.12161543220281601,0.02322152443230152,0.05953725054860115,-0.32521915435791016,-0.2494453638792038,0.14423251152038574,0.14478355646133423,-0.016522962599992752,-0.0951874852180481,-0.1978493332862854,-0.12035316973924637,0.18939144909381866,-0.04885651916265488,0.15313847362995148,0.1294945478439331,-0.04048799350857735,-0.08600238710641861,0.4053069055080414,0.0647042915225029,0.020954184234142303,-0.08241629600524902,-0.1001744344830513,0.06153806298971176,-0.36550718545913696,-0.13775411248207092,-0.0889548808336258,0.07077709585428238,0.020533356815576553,-0.08691389113664627,0.3516569137573242,-0.05664798989892006,0.07759334146976471,0.18648949265480042,0.08575533330440521,0.028114156797528267,-0.03190312907099724,0.01853884942829609,0.12643525004386902,0.20639905333518982,0.15813441574573517,0.16410045325756073,-0.1940263956785202,0.04169348627328873,0.03444601222872734,0.06126837432384491,0.19115111231803894,0.24286258220672607,-0.3760914206504822,0.04117859899997711,-0.023848997429013252,0.07318825274705887,0.008637671358883381,-0.06292331218719482,0.13185331225395203,-0.047155383974313736,0.008996362797915936,-0.022753188386559486,0.01498506311327219,-0.05519191175699234,0.07889403402805328,-0.06293978542089462,0.016983451321721077,-0.05420203506946564,-0.09049510955810547,-0.08239414542913437,-0.3017907440662384,-0.09961586445569992,0.04721860587596893,-0.02738748863339424,-0.003477498423308134,-0.004058440215885639,0.27913421392440796,-0.10527726262807846,-0.0655253529548645,-0.11509638279676437,-0.008665259927511215,0.0015290055889636278,-0.1406562626361847,0.01474947389215231,0.08780443668365479,0.016251826658844948,0.08696701377630234,0.018329143524169922,0.003652541898190975,-0.054510101675987244,-0.06800127774477005,-0.07728951424360275,-0.01024611946195364,-0.13043808937072754,0.17607790231704712,-0.1645825207233429,-0.05766329541802406,-0.11654412746429443,-0.11113551259040833,-0.09868567436933517,0.17463813722133636,0.05680004507303238,0.08290857076644897,-0.020134802907705307,-0.08741852641105652,-0.15737181901931763,-0.26515573263168335,0.049545854330062866,0.0182658564299345,-0.1290447860956192,-0.1355336457490921,0.03636836260557175,-0.1349361538887024,0.0071515790186822414,0.09349044412374496,0.03688564896583557,0.15700401365756989,0.08681627362966537,-0.4447164833545685,-0.18024387955665588,-0.0937415286898613,-0.32736703753471375,-0.14655491709709167,-0.18298256397247314,0.34957706928253174,0.03129011392593384,0.22452887892723083,-0.029771100729703903,-0.02194029651582241,0.1237950399518013,-0.25468680262565613,-0.10533705353736877,-0.09509757906198502,-0.20432081818580627,-0.24098627269268036,-0.18335047364234924,-0.06770990043878555,-0.00863214023411274,-0.08211737126111984,-0.16347111761569977,-0.0332481674849987,-0.20745916664600372,0.22802488505840302,0.008687153458595276,-0.05037172883749008,-0.08807241916656494,0.023948416113853455,0.06130809336900711,0.5060701370239258,0.041682448238134384,-0.020186563953757286,-0.040904901921749115,-0.052521489560604095,-0.019777163863182068,-0.19140885770320892,-0.034196559339761734,0.20746555924415588,0.19886696338653564,0.3907100558280945,0.4201976954936981,0.2061922252178192,0.09457938373088837,0.03262525051832199,0.1395816206932068,0.16337528824806213,0.1508629024028778,0.021143348887562752,-0.1581885814666748,0.03734520450234413,0.02306731604039669,-0.08691778033971786,-0.02542499266564846,0.11768504232168198,0.04367772117257118,0.04390256479382515,0.08961621671915054,0.07756219804286957,-0.06797591596841812,-0.02559785172343254,-0.00397737929597497,-0.08149753510951996,0.063298799097538,0.08826891332864761,-0.11028183251619339,-0.03231194242835045,-0.018753470852971077,-0.12430959939956665,-0.1675787717103958,-0.1397952139377594,-0.20306263864040375,0.035057757049798965,0.01597016304731369,-0.013248317874968052,0.11721456050872803,0.018702341243624687,0.11088057607412338,0.28032320737838745,-0.10856334120035172,-0.07176930457353592,-0.012854190543293953,-0.15861430764198303,-0.09389639645814896,0.09913069009780884,-0.02069084160029888,0.009245026856660843,0.11097459495067596,-0.037983205169439316,0.03066900745034218,0.2097402811050415,-0.1329612284898758,-0.12140020728111267,-0.2494131475687027,0.02399189956486225,-0.1886536031961441,0.40922003984451294,0.14977487921714783,0.07842669636011124,0.32815250754356384,0.15726050734519958,0.17805200815200806,-0.3974428176879883,-0.2139265537261963,-0.02987145259976387,-0.03716796264052391,-0.2032015472650528,0.06792949140071869,0.36836427450180054,-0.17724250257015228,-0.20115183293819427,-0.04919067397713661,0.07119090855121613,-0.1050301045179367,-0.07386289536952972,-0.09440203756093979,0.12750980257987976,0.09560850262641907,0.10975366085767746,0.23982810974121094,-0.42940956354141235,0.06212664023041725,0.17531351745128632,0.1283605992794037,0.13886067271232605,0.14065396785736084,-0.46001461148262024,-0.07782574743032455,0.04967227578163147,-0.030846497043967247,-0.1818041205406189,-0.028449196368455887,0.028159840032458305,-0.04790631681680679,-0.0580960288643837,0.029097743332386017,0.1210363507270813,0.007707269862294197,0.15412044525146484,0.03756151720881462,0.19701606035232544,0.055361051112413406,-0.07260329276323318,-0.13428737223148346,0.3900568187236786,0.11117521673440933,0.1315307319164276,0.0819687470793724,0.13329046964645386,0.3689018189907074,-0.32161834836006165,0.11145773530006409,-0.00454496406018734,-0.014607761986553669,-0.20665153861045837,-0.08644620329141617,0.3853629529476166,-0.1822957694530487,-0.0002946982567664236,-0.20795473456382751,-0.04639687016606331,-0.16234366595745087,-0.15318582952022552,-0.06141360104084015,0.0022096820175647736,0.04352733865380287,-0.007382404990494251,0.2104872316122055,-0.17959752678871155,0.08114746958017349,0.1566937118768692,0.16720785200595856,0.093839131295681,0.15615716576576233,-0.20353494584560394,0.02903740108013153,-0.045296382158994675,0.025815442204475403,0.1536196768283844,0.3174940347671509,0.27837949991226196,0.04600754752755165,0.04910915344953537,-0.07396215200424194,-0.03875831514596939,-0.13685062527656555,-0.18593184649944305,0.003607598366215825,-0.06710826605558395,-0.01411182340234518,0.030599992722272873,0.04530187323689461,-0.39410802721977234,0.016115065664052963,-0.04634865000844002,-0.08194639533758163,-0.005641052033752203,0.07563319802284241,0.24092450737953186,-0.09972222149372101,0.02592734806239605,-0.157388836145401,-0.043163906782865524,-0.017642708495259285,-0.15132875740528107,-0.08347751945257187,-0.006160285789519548,-0.16149072349071503,-0.07427836954593658,0.07907295227050781,0.07060521095991135,-0.014953181147575378,-0.02858084999024868,-0.11917929351329803,-0.12565578520298004,-0.19072066247463226,0.3197041153907776,-0.20821034908294678,-0.07588522136211395,-0.04341179504990578,-0.09816354513168335,-0.016728071495890617,0.17940834164619446,-0.10489263385534286,-0.21232536435127258,-0.24112285673618317,0.015082268975675106,0.06214402616024017,0.045452993363142014,0.2013145387172699,-0.12064571678638458,-0.10932140052318573,-0.2307884246110916,0.17785604298114777,-0.31522390246391296,-0.08797963708639145,-0.7621091604232788,0.2290874868631363,0.08133307099342346,0.009110730141401291,-0.11798393726348877,0.17692242562770844,0.01756942830979824,-0.014035865664482117,0.21102853119373322,-0.24249592423439026,0.05581554397940636,0.14595063030719757,-0.03398512676358223,0.006755143404006958,0.18628926575183868,-0.17513298988342285,-0.235699862241745,-0.293134480714798,-0.1715308576822281,0.04898156598210335,-0.16572406888008118,0.24076223373413086,0.1070181354880333,0.10429233312606812,0.03244712948799133,0.21441084146499634,0.008658348582684994,-0.07838721573352814,0.4105232059955597,-0.4259221851825714,0.45446816086769104,0.19681383669376373,-0.4346766471862793,-0.43345415592193604,-0.4770677983760834,-0.13802367448806763,0.2427958846092224,-0.11482885479927063,0.052170947194099426,0.12504060566425323,-0.0033776420168578625,-0.21247133612632751,-0.03667973726987839,0.2724825441837311,-0.21885746717453003,0.303366482257843,-0.04473482072353363,-0.42192015051841736,0.03465326875448227,0.33885908126831055,-0.0034081742633134127,-0.20325928926467896,0.5905354022979736,-0.05810066685080528,0.3491128087043762,-0.10982953757047653,-0.24917705357074738,-0.3415195047855377,-0.23638685047626495,-0.10896220803260803,0.29730865359306335,-0.2639918923377991,0.05710636079311371,-0.163364440202713,-0.105460524559021,-0.028956450521945953,-0.08638958632946014,0.06405854225158691,0.11206740885972977,-0.1193883866071701,0.07612447440624237,0.10122984647750854,0.056615352630615234,0.08383656293153763,0.017226526513695717,0.04432307556271553,-0.014262684620916843,-0.062288518995046616,0.12071443349123001,-0.013572643510997295,0.6556017398834229,-0.0004436120798345655,0.02677118219435215,0.008955162949860096,0.19039082527160645,0.3006502091884613,0.09953578561544418,-0.06245189905166626,0.09296908974647522,-0.013716467656195164,-0.006892583332955837,-0.1656312346458435,-0.0683714896440506,0.018449733033776283,-0.037319548428058624,-0.08347649872303009,-0.08851911872625351,-0.13824288547039032,0.16259196400642395,-0.04445711523294449,-0.08945580571889877,-0.04432552680373192,-0.15575894713401794,-0.2541494369506836,-0.0032720782328397036,0.032638683915138245,0.002231285674497485,0.06790581345558167,0.15456794202327728,0.07451558113098145,0.09023568034172058,-0.07582584768533707,0.03480779752135277,0.06747672706842422,0.048198506236076355,-0.2923460304737091,0.39790287613868713,0.02864346094429493,0.06947047263383865,0.1170375868678093,-0.11341076344251633,-0.09572181105613708,-0.08502375334501266,-0.01256560068577528,0.014355367980897427,0.06892774254083633,0.022508354857563972,0.1474784016609192,-0.10083962231874466,-0.10261094570159912,-0.07904017716646194,0.02275657095015049,0.0450177825987339,0.4078247547149658,-0.06965913623571396,0.045496489852666855,0.0490303561091423,0.0111026456579566,-0.12245409190654755,0.3780304193496704,-0.3810087740421295,0.0043880813755095005,0.015619286336004734,0.03355707228183746,0.024320099502801895,-0.0012989967362955213,0.5832645297050476,-0.04319518059492111,-0.05197715759277344,0.05620685592293739,0.20113274455070496,0.1515197455883026,-0.3067726492881775,-0.09292898327112198,-0.0198675524443388,-0.003177408128976822,-0.07508167624473572,-0.32692956924438477,0.16097573935985565,-0.0015647344989702106,-0.023265603929758072,-0.004493169952183962,-0.1154707744717598,-0.122154600918293,0.37934353947639465,0.019304528832435608,0.10406521707773209,-0.08972615003585815,-0.18764236569404602,-0.27656739950180054,0.3709013760089874,0.03213691711425781,-0.068404920399189,-0.04444178566336632,-0.001487267087213695,0.3463558554649353,0.004831431433558464,-0.08478657156229019,-0.0717761293053627,-0.011385960504412651,-0.10837244987487793,0.339833527803421,-0.05833740904927254,-0.02777804806828499,0.04902559146285057,-0.07374486327171326,-0.022198358550667763,0.2619759738445282,-0.26565685868263245,0.08093643188476562,-0.009542756713926792,-0.020962759852409363,0.14669062197208405,0.11116380244493484,0.4571232199668884,0.06574659794569016,-0.012645058333873749,0.02809738554060459,0.12546223402023315,0.289671927690506,-0.05446717515587807,-0.06207557022571564,-0.11798457056283951,-0.09789557009935379,0.08035609126091003,-0.35794201493263245,0.060566890984773636,-0.11847768723964691,0.042779095470905304,0.008991817012429237,-0.07483542710542679,-0.27006950974464417,0.3703548014163971,0.08821175247430801,0.01711997576057911,-0.0568099170923233,-0.18288880586624146,-0.33113232254981995,0.3094300627708435,-0.07643258571624756,0.0600053109228611,0.0465800017118454,0.13321542739868164,0.043731026351451874,0.06081230193376541,-0.06821630150079727,-0.06487875431776047,0.03643063083291054,0.08111408352851868,0.1135873794555664,-0.045992836356163025,-0.12339682132005692,0.15291191637516022,0.16971886157989502,0.11364186555147171,0.02255774475634098,-0.017496999353170395,-0.018729906529188156,0.01280740275979042,0.0008277596207335591,0.039354026317596436,-0.04109964519739151,-0.014887034893035889,0.11767908185720444,-0.1407897025346756,0.13257810473442078,-0.03061528131365776,-0.2304459810256958,-0.026986969634890556,0.002176605863496661,-0.05131963640451431,-0.01217727456241846,0.02992100827395916,0.07576056569814682,-0.012085255235433578,0.0853891670703888,0.029991621151566505,-0.005318899173289537,-0.12154132127761841,-0.13860759139060974,-0.03974729776382446,0.011471150442957878,0.09766092896461487,-0.04065266251564026,-0.09723658859729767,0.07317184656858444,0.07625935971736908,0.002070013666525483,0.02041693590581417,-0.020487967878580093,0.023629205301404,-0.1228354200720787,-0.0026989916805177927,0.06638801097869873,-0.014326155185699463,-0.11829134821891785,-0.053121164441108704,-0.19780930876731873,0.02552836574614048,0.02638275921344757,-0.022896001115441322,0.05805104598402977,0.12022091448307037,-0.33740687370300293,0.10354630649089813,-0.018038110807538033,-0.087326280772686,-0.009818127378821373,0.011511852033436298,-0.009138074703514576,-0.29507309198379517,0.11968153715133667,0.14187641441822052,0.05784262716770172,-0.05784818157553673,-0.203790083527565,0.2733381986618042,-0.003454466350376606,-0.0459413155913353,-0.07020890712738037,-0.17956337332725525,-0.01220447476953268,-0.29793789982795715,0.018492484465241432,0.1392040103673935,0.09329870343208313,0.08554602414369583,0.03075534477829933,-0.18397361040115356,0.005008092150092125,0.017382405698299408,0.0270980354398489,0.0784665122628212,0.25797024369239807,-0.4378277659416199,0.03906881436705589,-0.05556095764040947,-0.09052415192127228,0.10537106543779373,-0.05408709868788719,0.12085676193237305,-0.05610266327857971,-0.06478431075811386,-0.025103559717535973,0.019742006435990334,-0.2563202679157257,0.2420533001422882,-0.06625211983919144,0.0006490047089755535,-0.11153475195169449,-0.07032088190317154,-0.12439000606536865,0.150580495595932,-0.025205999612808228,-0.033037036657333374,-0.07058078795671463,-0.07702086120843887,-0.002466418780386448,0.2997739017009735,0.027269110083580017,0.08066149055957794,-0.07733228802680969,-0.09027206897735596,-0.055374257266521454,0.2929150462150574,0.01430412195622921,0.07214750349521637,0.02995130978524685,-0.13626013696193695,0.09714063256978989,-0.12841299176216125,-0.04400008171796799,-0.011247429996728897,-0.027951352298259735,-0.12688063085079193,-0.11986327916383743,-0.06946399062871933,0.10072660446166992,0.1748182475566864,0.16294333338737488,0.2651797831058502,0.32722947001457214,-0.05664067342877388,0.0114571088925004,0.026164066046476364,0.009192466735839844,-0.40143823623657227,-0.06331712752580643,0.11903595179319382,-0.025495607405900955,-0.03233451023697853,-0.04372381791472435,0.06527786701917648,-0.0911915972828865,-0.03270377963781357,0.038245510309934616,-0.01117456890642643,0.06857150793075562,-0.14648385345935822,0.10141592472791672,-0.1465236097574234,-0.030344832688570023,0.09894953668117523,0.03747650235891342,0.3311123251914978,0.0059816790744662285,-0.14882439374923706,0.01360494177788496,-0.006725628394633532,0.04675767570734024,0.14916960895061493,0.14271073043346405,-0.03144090250134468,-0.03026495687663555,-0.03404756635427475,-0.04561081528663635,0.12215028703212738,0.0025128917768597603,-0.025782421231269836,0.025425001978874207,-0.04837055131793022,0.06281059980392456,0.1757434904575348,0.1771266907453537,-0.08474914729595184,0.013471829704940319,-0.08583731204271317,-0.07299806922674179,0.029027990996837616,0.10381456464529037,-0.1493251770734787,0.10890675336122513,0.04410017654299736,0.03558487445116043,0.05974426493048668,0.07515320181846619,-0.16464999318122864,0.09115432947874069,0.07968910038471222,0.06217831000685692,0.10028229653835297,0.03696348890662193,-0.06354428827762604,0.08816833794116974,-0.06883066892623901,0.0000843168018036522,0.03898340091109276,0.07055433094501495,-0.122072234749794,0.04707672819495201,0.022031297907233238,0.05112282559275627,0.03892116993665695,-0.0767260193824768,0.04088877514004707,-0.06477803736925125,-0.0025032516568899155,-0.04744945839047432,0.003138857427984476,-0.19938433170318604,-0.15423838794231415,0.11246198415756226,-0.045563872903585434,-0.045364223420619965,-0.011979394592344761,0.10718236118555069,0.06668225675821304,-0.008345539681613445,-0.009984539821743965,0.007597338408231735,0.08607415109872818,-0.019489679485559464,-0.05625160411000252,-0.06762410700321198,-0.14606912434101105,-0.10181640088558197,-0.1269640028476715,0.06759589910507202,0.21064496040344238,-0.20787180960178375,0.08953262120485306,0.13059939444065094,-0.06875601410865784,0.14330266416072845,0.2869899272918701,-0.1245448887348175,-0.35734134912490845,-0.13589245080947876,-0.03289646655321121,0.6365143060684204,0.09799826890230179,0.8167127370834351,0.15566842257976532,-0.10955490916967392,0.32757192850112915,-0.10320555418729782,0.10502446442842484,-0.2291516661643982,-0.10820401459932327,0.2587418258190155,-0.14268457889556885,0.3408925533294678,-0.18449577689170837,-0.047628004103899,-0.04472314193844795,0.0758734792470932,-0.2362605631351471,-0.03158995881676674,-0.3819223642349243,0.07820149511098862,0.18108758330345154,0.38617444038391113,0.2774161398410797,-0.015494857914745808,-0.14139360189437866,-0.0588967427611351,0.05464218929409981,0.01037802267819643,0.193541020154953,-0.3217863142490387,0.10537631809711456,0.40000277757644653,-0.18342161178588867,-0.36315447092056274,-0.28739309310913086,-0.0917954072356224,-0.23583461344242096,-0.25078028440475464,0.17324772477149963,-0.11671323329210281,0.06447136402130127,0.07587376236915588,-0.07800014317035675,-0.33206018805503845,0.06289456784725189,0.4879128634929657,-0.03915640711784363,0.10706636309623718,0.23049499094486237,0.3993326425552368,-0.122098907828331,-0.09885331243276596,0.3072061240673065,-0.11215560138225555,0.4657142162322998,0.34610289335250854,-0.07781325280666351,-0.06872700154781342,0.2127467393875122,0.019147874787449837,-0.028145242482423782,-0.06536217778921127,0.2741495370864868,-0.08091501146554947,-0.18720471858978271,0.14678548276424408,-0.3959927260875702,0.13610078394412994,-0.011409951373934746,0.029505420476198196,0.031749267131090164,0.04135764017701149,0.17277030646800995,-0.06690507382154465,-0.0852917805314064,-0.20331956446170807,0.2591921091079712,0.04074475169181824,0.007525686174631119,0.05957476794719696,-0.0434308797121048,-0.20947177708148956,0.15937109291553497,-0.012879529967904091,-0.018707167357206345,0.022262271493673325,0.10326521843671799,-0.0940089151263237,-0.1237216368317604,0.02101830393075943,0.05975357070565224,0.0034267124719917774,-0.028960252180695534,-0.19875825941562653,0.04413919523358345,0.0031093384604901075,0.07440460473299026,0.04737822711467743,-0.0634833425283432,-0.07350560277700424,-0.37108126282691956,0.10356605052947998,-0.003845714731141925,0.02551404945552349,0.02537265047430992,-0.04217035695910454,0.003730730852112174,-0.0479673333466053,0.05442449077963829,0.02775346115231514,-0.0007256036042235792,-0.055493149906396866,0.0494145043194294,-0.02772163599729538,-0.045401860028505325,-0.038135141134262085,-0.00890075508505106,0.0193475354462862,-0.5473477840423584,0.11544220894575119,-0.002408384345471859,0.02511994168162346,0.13735108077526093,0.42069682478904724,-0.15090253949165344,-0.18177145719528198,-0.11284320801496506,-0.13135230541229248,-0.17033816874027252,-0.13262635469436646,-0.04431956261396408,-0.17036043107509613,-0.06761776655912399,-0.1068640723824501,0.1353745311498642,0.056081321090459824,0.11704888194799423,-0.08864418417215347,-0.03586012125015259,-0.1949012726545334,-0.0292032640427351,-0.07617795467376709,-0.12034186720848083,-0.1232883483171463,-0.04648257791996002,-0.052786923944950104,-0.00428133737295866,-0.0014950487529858947,-0.007476964499801397,-0.20581583678722382,-0.09927298873662949,-0.17099295556545258,-0.08437047898769379,-0.09290070086717606,0.07565849274396896,-0.08608116209506989,-0.024906128644943237,-0.04558991268277168,0.12034069746732712,0.11930854618549347,-0.009866787120699883,0.11445046961307526,0.039538513869047165,-0.03366083279252052,-0.07957679033279419,0.018852654844522476,0.09441027790307999,-0.09359226375818253,0.10333598405122757,0.06455135345458984,0.06726961582899094,0.024327225983142853,-0.022571807727217674,0.11130455136299133,0.13886046409606934,0.12592977285385132,0.12200269848108292,0.2039739489555359,0.10430995374917984,0.08518542349338531,0.05633796378970146,0.04161844030022621,0.06252540647983551,0.12228772789239883,-0.1958308070898056,-0.00953969918191433,0.04323042184114456,0.07771779596805573,0.060233887284994125,0.06556229293346405,0.2556730806827545,0.07778072357177734,0.07372941821813583,0.08817809075117111,0.06260838359594345,0.16070757806301117,0.09166882187128067,0.12981639802455902,0.041485995054244995,-0.0004025875823572278,0.1300334334373474,0.11323043704032898,0.11260475963354111,0.054234303534030914,-0.08229442685842514,-0.011124473996460438,-0.03480008244514465,0.006491181440651417,-0.1839611977338791,-0.06698580086231232,-0.06508593261241913,-0.041352737694978714,-0.05262020230293274,-0.13274462521076202,-0.10246960073709488,0.05485255643725395,-0.00738389790058136,-0.06379438936710358,0.006470917258411646,0.00015185974189080298,0.028646143153309822,0.14928297698497772,0.07023859769105911,0.0718897208571434,0.027946630492806435,0.17919094860553741,-0.4502485692501068,0.23462490737438202,0.16149629652500153,0.14128412306308746,0.206258624792099,0.17704619467258453,0.04722411558032036,-0.09612555801868439,-0.05678616091609001,0.01935705915093422,0.027398575097322464,-0.019755974411964417,-0.22169335186481476,0.047176726162433624,0.03168199956417084,-0.02724786102771759,0.021549485623836517,0.04815254360437393,-0.12300437688827515,0.0038781920447945595,-0.031562063843011856,0.07244902104139328,0.07398906350135803,0.024017376825213432,-0.05317133292555809,0.07637772709131241,0.03887346386909485,-0.0188597459346056,0.03219350799918175,-0.07064468413591385,-0.024949172511696815,-0.061794981360435486,-0.007680557202547789,0.04964587092399597,0.020768485963344574,0.004034195560961962,0.13161009550094604,-0.07475673407316208,-0.17213982343673706,-0.027039455249905586,-0.09408367425203323,-0.12129553407430649,0.29066070914268494,0.06124284490942955,0.023916881531476974,0.06653962284326553,-0.009978264570236206,-0.06531406193971634,0.07467030733823776,0.08592584729194641,0.08693606406450272,0.05660400539636612,-0.014374864287674427,-0.03591813147068024,-0.2166750133037567,-0.02353775128722191,-0.08556161820888519,0.023340707644820213,-0.03581903874874115,-0.18924950063228607,0.15229612588882446,0.006089258007705212,-0.01564055122435093,0.040818024426698685,-0.016023652628064156,-0.02992486022412777,-0.5558408498764038,-0.0060391901060938835,0.07911437749862671,0.07962992042303085,-0.005229150410741568,-0.10016914457082748,-0.08766908943653107,0.010761439800262451,0.07071711122989655,-0.015244481153786182,-0.007676128298044205,0.0239101629704237,0.08578303456306458,-0.01802935265004635,0.02547682449221611,-0.05308002606034279,0.00908859632909298,0.00966334342956543,-0.6470796465873718,0.017375102266669273,-0.01992684416472912,0.07875949144363403,0.06151905655860901,0.2535858750343323,-0.18329042196273804,0.011656660586595535,-0.026020454242825508,0.01775296963751316,0.019076047465205193,0.12586314976215363,-0.1849602907896042,-0.06097439303994179,-0.06182189658284187,-0.07012683898210526,0.05113476887345314,0.14361999928951263,0.13904473185539246,0.0546344555914402,0.013676034286618233,0.026458708569407463,0.08390092104673386,0.2049955129623413,-0.3929099142551422,-0.0183879341930151,0.020973559468984604,0.025884753093123436,0.04033909738063812,0.027789143845438957,0.5067633390426636,-0.07140947878360748,-0.02973136305809021,-0.0016742716543376446,-0.04105968028306961,0.08228777348995209,-0.023627204820513725,-0.13970834016799927,0.014461040496826172,-0.042182594537734985,-0.01902591623365879,-0.08706909418106079,-0.1477266401052475,-0.01702233962714672,-0.019100261852145195,-0.03833651915192604,-0.057573966681957245,-0.049978289753198624,0.42962291836738586,0.057923801243305206,0.03473642095923424,0.05552911013364792,0.01157568208873272,-0.12910182774066925,-0.00810085516422987,-0.2148570865392685,-0.13784512877464294,-0.08467971533536911,-0.2296484261751175,0.06853419542312622,0.32122284173965454,-0.024636192247271538,-0.054542940109968185,-0.0937356948852539,-0.18292303383350372,-0.049381449818611145,0.17783817648887634,-0.0022998335771262646,-0.038658540695905685,-0.08130452036857605,-0.02065424807369709,-0.16938214004039764,0.10985904186964035,-0.13614539802074432,-0.08334047347307205,-0.03699279576539993,-0.06837718188762665,-0.03364676237106323,-0.22099480032920837,-0.1686767339706421,-0.07961418479681015,-0.07518790662288666,-0.16804207861423492,-0.030071230605244637,0.32657161355018616,0.04215642809867859,-0.0072145420126616955,0.050106555223464966,0.0071136727929115295,0.11066535860300064,0.018499167636036873,0.1838875263929367,0.05690084397792816,0.05156180262565613,0.04158727079629898,0.05004177242517471,-0.16304494440555573,-0.23896104097366333,-0.04220819100737572,-0.07884009927511215,0.009509356692433357,-0.21708433330059052,-0.7656530737876892,0.034328900277614594,0.07856477051973343,0.08693686872720718,0.013167563825845718,0.037725161761045456,-0.05089627951383591,0.12518061697483063,-0.01192500814795494,-0.010793156921863556,0.03921530395746231,-0.051868975162506104,-0.17038041353225708,0.022278377786278725,-0.07254678755998611,-0.04183496534824371,0.003915595356374979,0.08638441562652588,0.11691451072692871,0.07018830627202988,-0.007587623316794634,0.012652788311243057,0.05514364317059517,-0.05945027619600296,-0.26114580035209656,0.03294863924384117,0.07307440787553787,0.03895050659775734,0.0609893724322319,0.19731536507606506,-0.05931069329380989,-0.0074649532325565815,-0.05381789058446884,-0.006953636649996042,-0.07869382947683334,-0.045865923166275024,0.2252708077430725,-0.09379422664642334,0.048595231026411057,0.04519979655742645,-0.008923188783228397,0.146702378988266,-0.023721199482679367,0.07669997960329056,-0.11352232098579407,-0.15237952768802643,-0.16255608201026917,-0.06061871349811554,0.1394800990819931,0.013101696036756039,-0.16537703573703766,0.09304966777563095,-0.18757747113704681,0.04521125927567482,0.1078784242272377,-0.45663881301879883,-0.1953744739294052,-0.2236589938402176,0.012686106376349926,0.22370459139347076,0.3834546208381653,-0.14100472629070282,0.04797719046473503,-0.5476354956626892,-0.018105115741491318,0.07708419859409332,0.060297198593616486,-0.15733548998832703,0.2523062229156494,0.13836973905563354,0.15763738751411438,0.2887917757034302,0.181300550699234,-0.05772821232676506,-0.25261881947517395,0.252302885055542,0.16090169548988342,-0.1683207005262375,-0.06505025178194046,-0.2197800725698471,0.20924119651317596,0.134833425283432,0.20192000269889832,-0.21578070521354675,0.45127958059310913,0.05926619842648506,-0.01993720605969429,0.2542833983898163,-0.05122875049710274,-0.08021572977304459,0.10474595427513123,-0.1469506323337555,-0.028129126876592636,-0.09290973842144012,0.031282637268304825,0.18289920687675476,-0.0980478897690773,-0.06108514592051506,-0.0748143270611763,-0.016745733097195625,-0.41578832268714905,0.1173577830195427,-0.07969199866056442,0.1805991679430008,0.023574348539114,0.11380372941493988,-0.11979062110185623,0.146232008934021,0.1662861853837967,0.23089368641376495,0.09924232959747314,0.1222512274980545,-0.273040235042572,-0.03332864120602608,0.021088654175400734,0.14952082931995392,0.15037301182746887,-0.11824610084295273,0.24777989089488983,0.41443946957588196,0.034958984702825546,-0.25376585125923157,0.04181939736008644,-0.10611285269260406,-0.07941851019859314,-0.2710677683353424,0.29592347145080566,-0.4173453152179718,0.1495775729417801,-0.20133166015148163,0.10042830556631088,-0.22721345722675323,-0.09743312746286392,0.022531501948833466,0.1439824253320694,-0.024074364453554153,0.06639224290847778,0.00036199777969159186,0.013186275959014893,-0.027311623096466064,-0.1366572380065918,-0.161623015999794,0.12017829716205597,0.055887918919324875,0.05065160617232323,0.048327356576919556,-0.10430605709552765,-0.15180763602256775,-0.029339462518692017,0.10637199878692627,0.00869768112897873,0.059036772698163986,0.11088313162326813,0.03877303749322891,0.18725982308387756,0.07546848058700562,-0.05201169475913048,0.027445534244179726,-0.03987880051136017,-0.02899102307856083,0.07776862382888794,-0.12462131679058075,-0.0427510067820549,-0.02799885720014572,0.020576121285557747,-0.21612784266471863,0.04688597843050957,0.0908208042383194,-0.03787915036082268,-0.10556866973638535,-0.018450424075126648,-0.0253958348184824,-0.16581904888153076,0.0027959048748016357,-0.012909076176583767,-0.06838184595108032,0.05147960036993027,-0.09645787626504898,-0.0710296481847763,-0.1123226061463356,0.017580866813659668,-0.02321881242096424,-0.030222048982977867,0.03878133371472359,-0.08829886466264725,0.030588507652282715,-0.057919878512620926,-0.12313809990882874,-0.03661728277802467,-0.18462027609348297,0.4881559908390045,-0.10505736619234085,-0.15541018545627594,-0.18790152668952942,-0.284798800945282,-0.3502775728702545,-0.021291185170412064,0.14825361967086792,0.0869666263461113,0.10180982202291489,0.03503548353910446,0.0006480102310888469,0.7079105973243713,0.007418186403810978,-0.05778152868151665,-0.06872349977493286,0.015462505631148815,-0.03378717973828316,0.07735301554203033,-0.08692820370197296,-0.12020133435726166,-0.18165163695812225,-0.17458589375019073,-0.24284516274929047,0.41644930839538574,-0.12866486608982086,-0.13396859169006348,-0.13040390610694885,-0.15402859449386597,-0.11060354113578796,-0.5252382159233093,-0.05913533642888069,0.019527077674865723,0.052382126450538635,-0.04388630762696266,0.04358919337391853,0.07711414992809296,0.07255489379167557,0.03354784846305847,-0.0021962905302643776,0.03684531897306442,-0.0569477304816246,-0.5558458566665649,-0.0009153560386039317,0.01023324765264988,0.059443145990371704,0.12815161049365997,-0.02113376371562481,-0.3110835552215576,0.08777737617492676,0.09918142110109329,0.05749908834695816,0.03445185720920563,-0.14731207489967346,-0.17118550837039948,0.013264277949929237,0.10540995001792908,0.02938399650156498,0.05650695785880089,-0.013686778023838997,-0.18394431471824646,-0.04566969722509384,0.03225181624293327,0.032403383404016495,0.006557697430253029,-0.05498043820261955,0.05153737589716911,0.03945600986480713,-0.03216531127691269,0.06657691299915314,0.02862820029258728,-0.0053030988201498985,-0.25898098945617676,0.04205544292926788,0.047371577471494675,0.08561971038579941,-0.03529435396194458,0.021382497623562813,0.056574247777462006,0.01998814381659031,-0.007391832303255796,-0.021800411865115166,-0.02201867662370205,0.023087993264198303,0.12828949093818665,0.02029583603143692,-0.014234189875423908,0.04275307059288025,0.05608784779906273,0.10002448409795761,-0.023963268846273422,-0.023008475080132484,-0.04518663138151169,0.07908326387405396,-0.033428482711315155,-0.04373116418719292,0.11988046765327454,-0.010949439369142056,0.0027165350038558245,-0.005881492048501968,0.05320717394351959,0.13512371480464935,-0.013090834021568298,0.030202018097043037,0.02994219772517681,-0.04743488132953644,0.08482732623815536,0.11068864166736603,0.10756675153970718,-0.03842468559741974,-0.14402183890342712,0.002323675435036421,0.006485888734459877,-0.028615303337574005,-0.25307101011276245,0.04300792142748833,0.056237079203128815,0.04388938099145889,0.07178466767072678,-0.03334350883960724,0.25484877824783325,0.055137649178504944,-0.04701252281665802,0.022183483466506004,0.09806565940380096,0.059077125042676926,0.05647535249590874,0.044069863855838776,0.10563470423221588,0.011167031712830067,-0.00349788716994226,0.09978703409433365,-0.26129579544067383,0.010083147324621677,0.030885474756360054,0.0053107645362615585,0.060735851526260376,-0.0980289950966835,-0.258221834897995,-0.006024882663041353,0.021820448338985443,0.05990014970302582,0.07075121998786926,0.014664809219539165,0.01670948974788189,0.06118278577923775,0.1079711988568306,0.09915223717689514,0.12644098699092865,0.05772048234939575,-0.2611398696899414,-0.09243806451559067,-0.05174815654754639,-0.03496943414211273,0.027103571221232414,-0.0026958431117236614,0.1859111338853836,-0.027267644181847572,0.004556487314403057,0.013624636456370354,-0.009829634800553322,-0.0008646794012747705,-0.29917943477630615,-0.016289135441184044,0.04772471636533737,0.07606510818004608,-0.006475322879850864,0.021123193204402924,0.02465757541358471,0.052405886352062225,0.07641664892435074,0.018417028710246086,0.010650105774402618,-0.001201955834403634,0.1423686444759369,0.05268007516860962,0.0015238667838275433,-0.030919183045625687,-0.0016711208736523986,0.0045411535538733006,-0.5417145490646362,-0.05998712033033371,-0.006969452369958162,0.027147402986884117,-0.01129082404077053,-0.018218964338302612,-0.3388861119747162,0.03447600081562996,0.017860306426882744,-0.022957516834139824,-0.11507227271795273,-0.07657972723245621,-0.14239221811294556,-0.0685814619064331,-0.06730414927005768,-0.08012334257364273,-0.11105185747146606,-0.09512776881456375,0.5172417163848877,0.0477917455136776,0.0062804315239191055,0.028161434456706047,-0.0388343520462513,0.008573287166655064,-0.10923579335212708,0.0867113322019577,0.05023748055100441,-0.007324138656258583,-0.014560363255441189,0.0070446450263261795,0.44751420617103577,0.013801009394228458,-0.043605536222457886,-0.09890692681074142,0.028505979105830193,-0.07207275927066803,-0.1059362068772316,-0.014997928403317928,-0.030209481716156006,-0.06340784579515457,-0.003642819821834564,-0.016935888677835464,-0.043026965111494064,-0.0718902051448822,-0.03572458401322365,0.005819097626954317,0.02624402940273285,0.02522243559360504,0.43656882643699646,0.028376299887895584,-0.003349835053086281,-0.021605372428894043,-0.01655406318604946,-0.04682295769453049,0.23300008475780487,0.017499791458249092,-0.0660569965839386,-0.1506929099559784,-0.12896879017353058,-0.11684517562389374,-0.02531321719288826,-0.19367176294326782,-0.20317193865776062,-0.32097506523132324,-0.14192873239517212,-0.3157106637954712,0.0718574970960617,-0.0014303651405498385,0.004726154264062643,-0.028385700657963753,-0.05256234481930733,-0.07311661541461945,-0.09451936185359955,0.028917232528328896,-0.00957891158759594,-0.05596349388360977,-0.032402049750089645,-0.05755201727151871,0.00573975732550025,0.03007456660270691,-0.02533050626516342,-0.025390002876520157,-0.04828749597072601,-0.037222716957330704,0.058426614850759506,-0.09194480627775192,-0.05414217337965965,-0.12144309282302856,0.047928012907505035,-0.09058225154876709,0.024822700768709183,-0.042570747435092926,-0.035671133548021317,0.015224928967654705,0.017377793788909912,0.013802946545183659,-0.04358522221446037,0.06209411844611168,0.07871691137552261,0.05663798376917839,0.018954403698444366,0.04783695936203003,0.016830701380968094,-0.04794565588235855,-0.053948283195495605,-0.017299823462963104,-0.10433181375265121,0.10416491329669952,-0.04538438469171524,-0.0037537850439548492,0.03156948834657669,0.022705860435962677,0.12614992260932922,0.028588460758328438,-0.0667809471487999,-0.04264775291085243,-0.040422555059194565,-0.12887082993984222,0.012269590049982071,-0.07710940390825272,