{"version": "0.5.2", "metadata": {"date": {"year": 2024, "month": 4, "day": 7, "hour": 7, "minute": 32, "second": 21}, "loudness": -17.897212982177734, "gain": 0.949126550874674}, "architecture": "WaveNet", "config": {"layers": [{"input_size": 1, "condition_size": 1, "head_size": 8, "channels": 16, "kernel_size": 3, "dilations": [1, 2, 4, 8, 16, 32, 64, 128, 256, 512], "activation": "Tanh", "gated": false, "head_bias": false}, {"input_size": 16, "condition_size": 1, "head_size": 1, "channels": 8, "kernel_size": 3, "dilations": [1, 2, 4, 8, 16, 32, 64, 128, 256, 512], "activation": "Tanh", "gated": false, "head_bias": true}], "head": null, "head_scale": 0.02}, "weights": [-0.0003743726992979646, 0.4503510594367981, -0.7043827772140503, -0.8026771545410156, -0.3029814064502716, 0.002743289340287447, 0.0017234468832612038, 0.9231541752815247, -0.022323736920952797, 0.18593041598796844, -0.38131988048553467, -0.20626363158226013, -0.984789252281189, -0.6742786169052124, -0.7192020416259766, -0.0006819201516918838, 0.13257445394992828, 0.14150626957416534, -0.11411834508180618, -0.06423185020685196, 0.09147763252258301, 0.1505516618490219, -0.0328599251806736, 0.06447004526853561, -0.06312016397714615, 0.013668356463313103, 0.08833407610654831, -0.17081375420093536, -0.08280857652425766, -0.06912852078676224, -0.07972004264593124, 0.10178165882825851, -0.058188546448946, -0.03247219696640968, -0.021572807803750038, -0.07331746816635132, -0.04705885797739029, 0.1253206878900528, 0.10478696972131729, 0.10427623242139816, 0.05661749839782715, -0.06091715022921562, 0.050432778894901276, -0.13966242969036102, -0.07317289710044861, -0.056444451212882996, 0.09816695749759674, 0.05683594569563866, -0.08690277487039566, 0.009694335982203484, 0.0641973689198494, 0.1253063827753067, 0.054558493196964264, -0.023623531684279442, 0.05958613008260727, -0.08469604700803757, -0.012826567515730858, -0.14440976083278656, -0.09553670883178711, -0.11010110378265381, 0.0333704873919487, -0.17217184603214264, -0.30708059668540955, -0.061321184039115906, 0.024932539090514183, -0.12979747354984283, -0.01971200853586197, -0.24185232818126678, 0.2970515191555023, 0.1314278095960617, 0.17882761359214783, -0.26271942257881165, 0.07084248960018158, 0.4089207053184509, -0.08578995615243912, 0.1397705376148224, 0.3051411807537079, -0.3346247673034668, 0.020948519930243492, -0.2909223437309265, 0.06990306824445724, 0.13553547859191895, 0.23927359282970428, -0.32794469594955444, 0.04500408098101616, -0.3154207468032837, 0.18765667080879211, -0.0775512158870697, 0.28264927864074707, -0.32505422830581665, 0.02503831312060356, -0.21153247356414795, 0.30191925168037415, 0.04031775891780853, 0.14573782682418823, -0.3152818977832794, 0.07621162384748459, 0.2969778776168823, -0.3330709934234619, -0.08378113806247711, 0.4252859354019165, -0.1110588014125824, -0.0493704117834568, 0.24957434833049774, -0.3473600745201111, 0.008094599470496178, 0.1911216676235199, -0.3340824842453003, 0.00376623822376132, -0.1724226325750351, -0.05656206235289574, -0.22834651172161102, -0.029764916747808456, 0.15918436646461487, 0.10462789982557297, -0.2063792496919632, 0.07951971143484116, -0.015001158230006695, 0.10134671628475189, -0.08714205026626587, 0.06810632348060608, 0.09238208085298538, -0.19132228195667267, 0.08501950651407242, -0.04669320210814476, -0.19399279356002808, -0.006330377422273159, -0.15867994725704193, 0.05108099803328514, -0.13185666501522064, 0.03294925391674042, -0.0018054615939036012, -0.07059294730424881, -0.0919586643576622, 0.22173132002353668, -0.0331483893096447, 0.13070455193519592, -0.07237948477268219, 0.11310086399316788, 0.0012038372224196792, 0.23764754831790924, 0.04910526052117348, 0.23183347284793854, -0.11411169171333313, -0.09605731070041656, 0.030671708285808563, -0.009834942407906055, 0.03690890222787857, 0.010527323931455612, -0.23112212121486664, -0.11946392804384232, -0.03679531067609787, -0.1465229094028473, 0.09968026727437973, 0.1717354655265808, -0.2546378970146179, 0.11429161578416824, -0.2055736929178238, -0.04914206638932228, -0.09762290865182877, 0.004398299381136894, 0.022327173501253128, -0.16187725961208344, -0.15074250102043152, -0.16425098478794098, 0.13022056221961975, -0.035429276525974274, 0.20189541578292847, -0.2525152564048767, 0.019500194117426872, 0.2750048041343689, -0.18570972979068756, 0.14957070350646973, 0.18786373734474182, -0.26581063866615295, 0.07603434473276138, -0.15089119970798492, 0.03298761323094368, 0.11902809143066406, -0.08226948231458664, -0.1165120005607605, -0.05915918946266174, -0.0425720177590847, 0.1679089516401291, 0.05435001477599144, 0.14266487956047058, -0.21328204870224, -0.049421414732933044, -0.24436140060424805, 0.22647225856781006, 0.1343950629234314, 0.23006922006607056, -0.24441541731357574, 0.021325642243027687, 0.0348152257502079, -0.22303438186645508, -0.05399661138653755, 0.1969338059425354, -0.21084555983543396, 0.024170583114027977, 0.15019561350345612, -0.036519259214401245, -0.08588904142379761, 0.045689906924963, -0.21999765932559967, 0.04549233987927437, -0.08807253837585449, 0.16233977675437927, -0.022185195237398148, -0.06744153797626495, -0.13331933319568634, -0.035073116421699524, -0.17307022213935852, -0.01871996745467186, 0.00984076876193285, 0.21810849010944366, -0.11739089339971542, -0.06726148724555969, 0.31505075097084045, -0.12599945068359375, -0.010415748693048954, 0.32828208804130554, 0.030421674251556396, 0.011245503090322018, -0.29295244812965393, 0.07937242090702057, -0.11054135113954544, 0.03740999847650528, -0.07668482512235641, -0.02923753671348095, -0.19566024839878082, 0.12959115207195282, -0.017726292833685875, 0.26448678970336914, 0.017764348536729813, -0.09094136208295822, -0.11279069632291794, -0.06783944368362427, -0.06238037347793579, 0.22755208611488342, 0.023475004360079765, 0.10186392068862915, 0.1359414905309677, -0.02828689105808735, 0.08395560830831528, 0.059026170521974564, 0.09629401564598083, -0.11192304641008377, 0.19747215509414673, -0.03666811063885689, -0.07471534609794617, 0.21601296961307526, 0.10453237593173981, 0.12345271557569504, 0.04650575667619705, 0.14312779903411865, -0.12921777367591858, 0.07587956637144089, -0.06667255610227585, -0.0349576473236084, -0.05395060405135155, 0.010698005557060242, 0.009397029876708984, 0.07741741836071014, 0.11488952487707138, -0.11404077708721161, -0.07221227884292603, 0.11047642678022385, 0.06254516541957855, 0.014748389832675457, 0.00995249766856432, -0.04142462834715843, -0.11636683344841003, -0.0369875393807888, -0.05630238726735115, -0.06331536173820496, 0.23157167434692383, -0.02702069655060768, 0.014213084243237972, -0.027445051819086075, -0.00884978286921978, -0.07548780739307404, 0.017112888395786285, 0.1749851405620575, 0.04571368172764778, 0.03445393219590187, -0.10807979851961136, 0.025231000036001205, 0.049687545746564865, -0.0543694868683815, -0.10617738962173462, 0.1395176202058792, -0.021469365805387497, -0.03611108660697937, 0.03347562626004219, -0.1533147543668747, 0.06939170509576797, -0.036811962723731995, -0.0032386810053139925, -0.07369594275951385, 0.00576277868822217, 0.009957889094948769, -0.17900151014328003, -0.040292829275131226, 0.007952992804348469, -0.18066979944705963, 0.03648431599140167, -0.08742321282625198, 0.25669896602630615, -0.0776403397321701, 0.0297081358730793, -0.22983136773109436, 0.10380052775144577, 0.0994577631354332, -0.1519440859556198, 0.153334841132164, 0.08099609613418579, -0.19274044036865234, 0.12658658623695374, -0.12336919456720352, 0.19071154296398163, -0.036296531558036804, -0.06211334839463234, -0.12036619335412979, 0.1107872873544693, -0.023606104776263237, 0.28879714012145996, -0.03911706060171127, 0.24773728847503662, -0.22225569188594818, -0.014903928153216839, -0.28197723627090454, 0.324215292930603, 0.008386923000216484, 0.06450928747653961, -0.1351345181465149, 0.17891809344291687, 0.3061296343803406, -0.06988998502492905, 0.18307863175868988, 0.1173238605260849, -0.2562977969646454, 0.17518852651119232, 0.23275572061538696, -0.2901054918766022, 0.18946456909179688, 0.23530888557434082, -0.12701578438282013, -0.02628726325929165, 0.05533754080533981, 0.045614272356033325, 0.06731812655925751, -0.0014441882958635688, 0.07669132202863693, 0.2765142619609833, 0.0691010057926178, 0.0765312984585762, -0.06248989701271057, -0.09902321547269821, -0.08842408657073975, 0.04610506817698479, -0.14359329640865326, -0.24030962586402893, 0.25565099716186523, 0.06865928322076797, 0.0071404241025447845, 0.24548155069351196, -0.08864109218120575, 0.022518673911690712, -0.13575798273086548, -0.17224496603012085, -0.0513046495616436, -0.025844579562544823, -0.06901654601097107, -0.014403172768652439, -0.22040672600269318, 0.07712426036596298, -0.03484322503209114, 0.2050194889307022, 0.11537346243858337, 0.25018253922462463, -0.16729241609573364, 0.06077020987868309, -0.0005133536760695279, 0.18400688469409943, 0.12834404408931732, -0.06018398702144623, 0.2184341847896576, -0.051767461001873016, -0.054293517023324966, 0.15626759827136993, -0.03837920352816582, -0.20703089237213135, 0.055913250893354416, -0.11178062111139297, -0.03394332528114319, 0.24567991495132446, 0.015417086891829967, -0.0581103153526783, -0.11731409281492233, 0.13142170011997223, 0.04492140933871269, -0.04414264112710953, 0.14885258674621582, 0.1347075253725052, -0.1137208342552185, 0.1187090128660202, 0.03321875259280205, -0.05508994683623314, 0.06226681172847748, -0.15962690114974976, -0.02204125002026558, 0.11276935040950775, -0.06381089240312576, -0.09092879295349121, -0.06364697962999344, 0.025312300771474838, -0.031833961606025696, -0.01954427734017372, 0.04359542578458786, -0.08831833302974701, -0.07005215436220169, 0.08211540430784225, 0.06671375036239624, 0.09888356178998947, -0.16013073921203613, 0.0350986048579216, -0.09166412800550461, 0.005035514011979103, 0.032522812485694885, -0.11565974354743958, -0.007753492798656225, 0.13623933494091034, 0.005569749511778355, -0.1654062271118164, -0.032143015414476395, 0.0116325868293643, -0.18782009184360504, 0.07133593410253525, -0.14801767468452454, -0.2138022631406784, -0.1359906941652298, -0.04147951304912567, 0.028515668585896492, -0.12708638608455658, 0.24774640798568726, 0.054289232939481735, 0.2176453024148941, -0.1066942885518074, -0.18937548995018005, 0.09460005164146423, 0.36936259269714355, -0.004210304468870163, -0.04921172931790352, -0.39539244771003723, 0.2751880884170532, 0.13192695379257202, -0.23599089682102203, 0.03870720416307449, 0.08207500725984573, -0.4337904751300812, 0.09064584225416183, 0.1515006721019745, 0.10274546593427658, -0.06887130439281464, -0.020408863201737404, 0.03257686272263527, 0.10794531553983688, 0.0482679083943367, 0.2629130482673645, -0.09256816655397415, 0.018730800598859787, -0.16157351434230804, 0.14563299715518951, 0.185542032122612, 0.1598213165998459, -0.2633768320083618, -0.047038037329912186, -0.3899434506893158, 0.23355664312839508, 0.02442994900047779, -0.35575640201568604, 0.03635997697710991, 0.20322482287883759, -0.3194024860858917, 0.26254934072494507, 0.21105577051639557, -0.22109811007976532, 0.15709514915943146, 0.07886569201946259, -0.3465178906917572, 0.18472714722156525, 0.19996212422847748, 0.09635325521230698, 0.013734029605984688, 0.006855764426290989, -0.08508231490850449, -0.08579771965742111, 0.12273900955915451, 0.18474730849266052, 0.10314399003982544, 0.0044710515066981316, 0.012838541530072689, -0.1614372730255127, 0.20976845920085907, -0.13491815328598022, -0.20035286247730255, 0.15275688469409943, -0.08834696561098099, -0.18195590376853943, 0.06356121599674225, 0.11842495203018188, 0.16908793151378632, -0.13089783489704132, 0.08099980652332306, 0.013607229106128216, 0.08530239015817642, 0.06927495449781418, 0.3269638419151306, -0.11096280068159103, 0.041414447128772736, -0.20905213057994843, 0.20328061282634735, -0.058689557015895844, 0.1372397541999817, -0.18920081853866577, 0.0874105766415596, -0.2654113173484802, 0.11387563496828079, -0.10885854065418243, -0.08460018038749695, 0.2524477541446686, -0.16687776148319244, -0.3622068762779236, -0.01660037785768509, -0.05591211095452309, -0.27842506766319275, 0.0025573691818863153, -0.10297149419784546, -0.21664293110370636, 0.027609501034021378, -0.051465462893247604, -0.05303429067134857, -0.17933055758476257, -0.027084235101938248, 0.20372328162193298, -0.09673070907592773, 0.14715372025966644, -0.30045515298843384, 0.15760336816310883, -0.27370741963386536, 0.11836249381303787, 0.13595832884311676, -0.2342265546321869, 0.2835014760494232, -0.024293409660458565, -0.17897802591323853, 0.20826339721679688, 0.06851620972156525, 0.1208224892616272, -0.36740347743034363, -0.0723225399851799, -0.18741309642791748, 0.17539754509925842, -0.20778310298919678, 0.28142818808555603, -0.2846788167953491, -0.012785054743289948, -0.05606845021247864, 0.2798826992511749, 0.06227561831474304, 0.23840488493442535, -0.2710608243942261, -0.05803920328617096, -0.16992421448230743, 0.3591938018798828, -0.07470270991325378, -0.28376486897468567, 0.30929484963417053, 0.11682596802711487, -0.18286146223545074, 0.13356450200080872, -0.14288483560085297, -0.10740287601947784, 0.23950372636318207, -0.08857013285160065, -0.12683480978012085, 0.3109191656112671, 0.09841950982809067, 0.15773093700408936, -0.234675332903862, -0.20939111709594727, -0.2031908631324768, 0.00021065313194412738, 0.03351632133126259, -0.06129641830921173, 0.07731010764837265, 0.019651416689157486, 0.2612215578556061, -0.08006610721349716, -0.011521343141794205, 0.07567427307367325, -0.30785176157951355, 0.25196921825408936, 0.06931158155202866, -0.26335951685905457, 0.19438540935516357, -0.1469062864780426, 0.12679171562194824, -0.08730079978704453, -0.06532620638608932, -0.35666319727897644, 0.0789029449224472, -0.19773858785629272, 0.2562296986579895, 0.008002170361578465, 0.20242516696453094, -0.15989035367965698, 0.24519634246826172, -0.12387482821941376, 0.11230602860450745, 0.0028254713397473097, 0.18251261115074158, -0.33300265669822693, 0.08760835230350494, 0.03169482946395874, -0.07853421568870544, 0.09281165897846222, -0.001735408091917634, -0.21496844291687012, 0.2065020352602005, 0.1675276756286621, -0.15862378478050232, 0.1304604411125183, 0.1987043172121048, -0.2437077909708023, 0.06559322029352188, -0.1254427582025528, 0.07564669847488403, 0.07752198725938797, -0.08667007088661194, 0.03924993425607681, 0.12117163091897964, -0.02342703565955162, -0.15727637708187103, 0.1728561967611313, -0.04705969989299774, 0.18314087390899658, -0.14330759644508362, 0.0023192858789116144, 0.14415399730205536, -0.09029357880353928, 0.14827150106430054, -0.04110460355877876, -0.16242483258247375, -0.06297942996025085, -0.030132127925753593, 0.16443224251270294, -0.035068053752183914, 0.11996544897556305, 0.04200070723891258, -0.06876939535140991, 0.04323682561516762, -0.07883094251155853, 0.0034045737702399492, 0.1521841287612915, -0.10693378001451492, 0.07843223959207535, -0.10055862367153168, 0.16364483535289764, -0.10892153531312943, 0.02796022780239582, -0.0698757991194725, 0.06716130673885345, 0.11248167604207993, 0.0600074902176857, 0.01644175313413143, 0.0601639598608017, 0.06867069005966187, -0.004053250886499882, 0.18984922766685486, -0.13067494332790375, 0.015031002461910248, 0.04879894480109215, 0.0243071336299181, -0.02336038462817669, -0.07828492671251297, -0.2395179271697998, 0.07082179188728333, -0.037727925926446915, -0.08544410765171051, -0.0866054892539978, 0.21364565193653107, 0.136694073677063, 0.007050404790788889, -0.2579748034477234, 0.09552223980426788, -0.11181171983480453, -0.09052515029907227, 0.017446773126721382, -0.06320301443338394, -0.06491873413324356, -0.12169080972671509, 0.005337611306458712, 0.01556016318500042, -0.016090957447886467, 0.040224339812994, 0.04170101508498192, -0.1310487687587738, 0.09735875576734543, 0.1025371178984642, -0.06766475737094879, -0.08482042700052261, -0.20660501718521118, 0.19203424453735352, -0.0336913987994194, 0.12085893005132675, 0.026370396837592125, 0.09998898953199387, 0.015316253527998924, 0.12769311666488647, -0.0958469957113266, -0.13628628849983215, -0.07104986160993576, -0.08821369707584381, -0.08928819745779037, 0.1318133920431137, -0.11860231310129166, -0.03363843262195587, -0.07450217753648758, -0.025427071377635002, -0.0015686462866142392, -0.027032017707824707, 0.0070146615616977215, -0.12831178307533264, 0.14501096308231354, 0.04459069296717644, 0.030922656878829002, 0.16992931067943573, -0.20101289451122284, -0.30022087693214417, 0.1665109097957611, 0.22068442404270172, 0.14954157173633575, -0.09024904668331146, 0.22917981445789337, 0.2880324423313141, -0.23615114390850067, 0.07542070001363754, 0.1325492560863495, -0.28168579936027527, -0.06792176514863968, -0.051852479577064514, 0.24297980964183807, 0.10129166394472122, 0.14537577331066132, -0.09474784135818481, 0.004857407417148352, -0.24980148673057556, 0.06402869522571564, 0.07033583521842957, 0.2091803252696991, -0.3228335976600647, 0.03590293601155281, -0.1208183690905571, 0.07242643088102341, 0.0635787770152092, 0.2990197539329529, -0.2906264662742615, 0.043888818472623825, 0.22601912915706635, -0.29362398386001587, 0.18411368131637573, 0.2664197087287903, -0.07041951268911362, 0.009139197878539562, 0.3309248387813568, -0.24844276905059814, 0.24454204738140106, 0.04842051491141319, -0.3027670681476593, -0.06133994460105896, -0.1996707022190094, -0.03991398587822914, -0.09207520633935928, -0.06312456727027893, -0.13539279997348785, -0.1231284812092781, 0.07666308432817459, 0.023769037798047066, -0.017810627818107605, 0.02071727253496647, 0.05364680662751198, 0.06948108226060867, -0.1332349330186844, -0.004580773413181305, 0.011709234677255154, 0.011145283468067646, -0.07190359383821487, 0.06216124817728996, 0.49135327339172363, -0.44651228189468384, 0.7917641997337341, -0.5859565138816833, 0.0011418811045587063, 0.8435399532318115, 0.9451037049293518, -0.7246257066726685, 0.18737810850143433, -0.0011123849544674158, -0.5511235594749451, -0.34065285325050354, 0.1584472358226776, -0.6743794679641724, 0.17748956382274628, 0.5862622261047363, -0.012210211716592312, 0.272565633058548, 0.04821540415287018, 0.15958377718925476, 0.21118207275867462, -0.015504658222198486, 0.194594606757164, -0.24916666746139526, -0.011474927887320518, -0.15344339609146118, -0.04746340587735176, -0.24603238701820374, 0.1435496211051941, -0.005777573212981224, 0.1444651186466217, 0.07056546211242676, 0.016456959769129753, -0.2389834225177765, -0.27437201142311096, 0.0922388881444931, 0.11224246025085449, -0.09620983153581619, -0.17122964560985565, 0.19542258977890015, -0.041826993227005005, 0.22085820138454437, -0.0665915384888649, 0.24325348436832428, 0.007853669114410877, -0.049338217824697495, 0.08277859538793564, 0.25190502405166626, 0.03745340555906296, 0.36980992555618286, 0.06015193089842796, 0.25803086161613464, -0.0693306252360344, -0.17864622175693512, 0.15357822179794312, -0.2406366914510727, -0.0032356525771319866, -0.3676145374774933, 0.021458551287651062, -0.3426462411880493, 0.18027916550636292, 0.21406106650829315, -0.06579413264989853, 0.27099373936653137, 0.13677507638931274, -0.28461697697639465, -0.13093365728855133, -0.2508532404899597, 0.0993327721953392, 0.08809970319271088, -0.05188071355223656, -0.03654556721448898, -0.17495644092559814, 0.12011972069740295, -0.156808003783226, 0.030208250507712364, 0.08003503084182739, 0.22567127645015717, -0.228678360581398, 0.05119899660348892, -0.02707473188638687, -0.7622627019882202, -0.26648974418640137, 0.1611560881137848, 0.21835191547870636, 0.3103652000427246, -0.05319963023066521, -0.36315587162971497, 0.10413522273302078, 0.7312303781509399, -0.2512860894203186, 0.40123283863067627, -0.19966961443424225, 0.10264904052019119, -0.07945092022418976, 0.049079958349466324, -0.25359907746315, 0.028739791363477707, 0.10644838213920593, -0.0015855119563639164, 0.1489664614200592, 0.13465137779712677, 0.2005055993795395, 0.3425019085407257, 0.12842373549938202, -0.07307126373052597, -0.08213423937559128, -0.10311286151409149, 0.018959280103445053, -0.09239199012517929, 0.10546442866325378, -0.0785188302397728, 0.0321049690246582, 0.38329923152923584, 0.265323668718338, 0.15211538970470428, -0.19214138388633728, -0.27264654636383057, 0.16660644114017487, 0.06212841346859932, 0.050200290977954865, -0.5713691115379333, -0.18956609070301056, -0.14671839773654938, 0.2738974094390869, -0.13556650280952454, 0.008320076391100883, 0.058894094079732895, 0.343470960855484, 0.014243606477975845, 0.40694040060043335, -0.2461446076631546, -0.3659568130970001, 0.24746306240558624, 0.35784733295440674, -0.014686841517686844, 0.20195215940475464, -0.1792822778224945, 0.3015729486942291, -0.27422115206718445, 0.13178616762161255, -0.2411264032125473, 0.02963738515973091, -0.040415678173303604, 0.01817943900823593, 0.015765130519866943, -0.19213467836380005, -0.07062512636184692, 0.12417487055063248, -0.005081467796117067, -0.14555072784423828, -0.23697243630886078, -0.21792146563529968, -0.2661692202091217, 0.010866539552807808, 0.2214522659778595, -0.09629268944263458, -0.15862511098384857, 0.09401401877403259, 0.24247825145721436, -0.13439618051052094, 0.06567893177270889, 0.3680279552936554, -0.41160619258880615, -0.3428401052951813, 0.14796990156173706, 0.3282008171081543, -0.2508280277252197, 0.2512415647506714, 0.14280644059181213, 0.14620205760002136, -0.21855075657367706, 0.2511519491672516, -0.02978610433638096, -0.02357676438987255, -0.10146127641201019, 0.10038235783576965, 0.28480425477027893, -0.23871193826198578, 0.1450526863336563, -0.028035014867782593, -0.2209252268075943, 0.03441384434700012, -0.10647498071193695, 0.033674441277980804, -0.21236656606197357, -0.2256511151790619, -0.05268314108252525, -0.08971843868494034, 0.13249188661575317, -0.0018576292786747217, 0.2829998731613159, -0.02795885130763054, -0.0938238874077797, 0.06966564059257507, -0.07877036184072495, 0.07980790734291077, -0.03682148456573486, -0.006430853623896837, -0.029160384088754654, 0.05609450861811638, -0.14018608629703522, -0.05937132611870766, -0.25424888730049133, -0.05420272797346115, 0.10132793337106705, -0.19746989011764526, -0.15823568403720856, -0.014711189083755016, -0.029507899656891823, 0.0712759792804718, 0.049972932785749435, 0.05294538289308548, -0.15712720155715942, 0.03567112237215042, 0.12472988665103912, 0.22287911176681519, -0.03287059813737869, -0.026716411113739014, 0.050763778388500214, 0.1728074997663498, -0.17711026966571808, -0.0665527805685997, 0.07855980098247528, -0.03751826286315918, 0.013659815303981304, -0.18335086107254028, 0.21806982159614563, -0.006698235869407654, 0.08719497919082642, 0.15891286730766296, 0.0098024383187294, -0.0750364139676094, -0.30353012681007385, -0.14289256930351257, -0.06280052661895752, -0.11014442145824432, 0.008274099789559841, -0.31756022572517395, 0.3785775601863861, -0.3588678538799286, 0.4001657962799072, -0.277801513671875, -0.1080143004655838, 0.23240940272808075, -0.26034268736839294, -0.026528701186180115, 0.5106903910636902, -0.35352104902267456, 0.05423106253147125, -0.09385190159082413, 0.06380260735750198, 0.06011044234037399, 0.33538973331451416, -0.38677099347114563, 0.04690398648381233, 0.13110855221748352, 0.19225966930389404, 0.157964289188385, 0.011413519270718098, -0.05646339803934097, 0.12345611304044724, 0.053598470985889435, 0.09406431019306183, -0.12416733801364899, -0.34700024127960205, -0.09178879112005234, -0.25608858466148376, 0.008871695958077908, 0.2156296819448471, -0.03513211011886597, 0.11115085333585739, 0.08394332230091095, -0.11496945470571518, 0.10266486555337906, -0.0707927867770195, -0.15406794846057892, 0.0066535803489387035, 0.17544448375701904, 0.09501975774765015, -0.07554204761981964, 0.0008271121187135577, 0.05423200502991676, 0.02029232680797577, -0.055925559252500534, 0.07776510715484619, 0.04714081063866615, -0.042401690036058426, 0.18320544064044952, -0.29025065898895264, 0.013907095417380333, -0.07339928299188614, 0.2280908077955246, 0.1047285944223404, 0.08681647479534149, -0.15099768340587616, -0.011367429979145527, -0.28566983342170715, 0.21507319808006287, -0.02869051694869995, -0.48368170857429504, 0.608546257019043, -0.014926791191101074, 0.20989911258220673, -0.2429807335138321, 0.09725919365882874, 0.12838709354400635, -0.7383608222007751, 0.01944104954600334, 0.1424894779920578, -0.3109561800956726, -0.1273060441017151, -0.023266764357686043, 0.15384197235107422, -0.13750162720680237, -0.060267772525548935, -0.1823650598526001, -0.10167673975229263, 0.004702589008957148, 0.08858473598957062, 0.054191023111343384, -0.20002707839012146, -0.021828122437000275, -0.056823670864105225, -0.02140430361032486, 0.1449548900127411, -0.09592089802026749, -0.11488180607557297, 0.14158567786216736, -0.11657160520553589, -0.03496814891695976, 0.23108793795108795, -0.00017078756354749203, 0.219801664352417, -0.23887541890144348, -0.04593421518802643, -0.08045744895935059, 0.009498964063823223, 0.14086472988128662, -0.14895452558994293, -0.060696665197610855, 0.11638108640909195, -0.09988567233085632, 0.001812325674109161, 0.23824749886989594, -0.17634335160255432, -0.008778825402259827, -0.03944970667362213, 0.05588934198021889, -0.19851094484329224, 0.20049628615379333, -0.08944223076105118, -0.07019791752099991, -0.11601589620113373, 0.02416214905679226, -0.014709197916090488, -0.11474887281656265, 0.2363072633743286, 0.005158950109034777, -0.12952621281147003, -0.17611923813819885, -0.024255383759737015, 0.08956511318683624, 0.1662932187318802, 0.058528900146484375, -0.23443327844142914, -0.09190364181995392, 0.017585115507245064, 0.13339602947235107, -0.16594919562339783, -0.06398724764585495, 0.24421726167201996, -0.1493275910615921, -0.07371063530445099, 0.11811909079551697, -0.03631122037768364, 0.05490472540259361, 0.13395147025585175, -0.094608373939991, -0.07309197634458542, 0.13469433784484863, -0.026155734434723854, 0.2652358114719391, -0.0007096353801898658, -0.06846892833709717, -0.10320688784122467, 0.03994615748524666, 0.2167789787054062, 0.17295794188976288, -0.02246653474867344, -0.10420989245176315, 0.017771640792489052, 0.09957750886678696, 0.09180860966444016, -0.014425775967538357, -0.09422581642866135, 0.08338858187198639, -0.09455757588148117, 0.05878268554806709, 0.027427736669778824, 0.18369008600711823, 0.17082536220550537, 0.1594158262014389, -0.11359340697526932, -0.04719659686088562, 0.013143842108547688, -0.04014267772436142, 0.08960893750190735, -0.0643632709980011, -0.13114745914936066, 0.03561986982822418, -0.0206071175634861, 0.11766353994607925, -0.15453629195690155, -0.1961638331413269, -0.1982523500919342, 0.1250080019235611, 0.0842975601553917, -0.04567456990480423, 0.17871667444705963, -0.04226253926753998, -0.05693942680954933, -0.020768122747540474, -0.07500289380550385, -0.07357806712388992, 0.09159532189369202, -0.20515196025371552, 0.010273191146552563, 0.1382034569978714, -0.09349546581506729, 0.10360217094421387, 0.1740032136440277, -0.025869421660900116, -0.05208749324083328, 0.05877095088362694, -0.12403184175491333, 0.02906693145632744, 0.007325161714106798, 0.10872069746255875, -0.15676872432231903, -0.29623234272003174, 0.18828019499778748, 0.15076859295368195, -0.16482582688331604, 0.07733430713415146, -0.052670639008283615, -0.06889873743057251, -0.08449707180261612, 0.1442447453737259, 0.07387243211269379, 0.15303075313568115, 0.19941414892673492, 0.18033340573310852, -0.3057281970977783, -0.01953737623989582, 0.15693742036819458, 0.13846144080162048, -0.19856920838356018, -0.06598223745822906, 0.04112299531698227, -0.13971282541751862, 0.12827734649181366, 0.24949152767658234, -0.07657533884048462, -0.06935717910528183, 0.162198007106781, 0.11114870756864548, 0.053558241575956345, 0.20893798768520355, 0.15068715810775757, -0.20085401833057404, 0.14819681644439697, -0.1592688113451004, -0.2179163098335266, 0.07584503293037415, -0.008764139376580715, -0.033581264317035675, -0.00191844895016402, -0.020624961704015732, -0.026812836527824402, -0.1652947962284088, -0.046114806085824966, -0.02091037668287754, 0.21348053216934204, 0.13818597793579102, 0.05528554320335388, -0.07216060906648636, 0.05300728604197502, -0.05664093419909477, -0.06918385624885559, 0.07542207092046738, 0.08846041560173035, 0.0806858167052269, -0.07695183902978897, -0.16828787326812744, -0.18945439159870148, 0.09787668287754059, -0.04507424309849739, 0.06558625400066376, -0.09563332796096802, -0.004033888690173626, -0.053452424705028534, 0.10204480588436127, 0.10888932645320892, 0.14411665499210358, 0.030143937095999718, -0.04247348755598068, -0.15138091146945953, -0.08741256594657898, -0.01074813399463892, 0.19571515917778015, -0.07919846475124359, -0.028773535043001175, -0.03968100994825363, 0.035468220710754395, 0.17338812351226807, -0.19823920726776123, -0.18750834465026855, 0.06387699395418167, 0.05272198095917702, -0.04269060492515564, 0.031096629798412323, -0.009939688257873058, -0.14524801075458527, -0.11107488721609116, 0.1264292448759079, -0.014207876287400723, -0.0119565324857831, 0.11932102590799332, -0.22733020782470703, -0.032698895782232285, -0.267033189535141, 0.2603307068347931, -0.012275747954845428, 0.0784747451543808, -0.177935391664505, -0.0729418620467186, -0.06023230776190758, 0.2134566307067871, 0.01537172868847847, -0.4023694694042206, 0.3418600261211395, -0.13070666790008545, 0.15378734469413757, -0.051936615258455276, 0.11092643439769745, 0.3471572697162628, -0.6029645800590515, 0.02391458861529827, 0.09276764839887619, -0.18261456489562988, 0.27162453532218933, 0.16879209876060486, 0.0861181765794754, -0.19197557866573334, 0.13890530169010162, -0.15028801560401917, 0.06321556121110916, 0.2510622441768646, 0.07355260103940964, -0.010729803703725338, 0.19273315370082855, -0.045631296932697296, -0.060580089688301086, 0.24405445158481598, 0.1728953868150711, -0.03638099133968353, -0.009314113296568394, -0.08833388984203339, 0.005107658449560404, 0.07166574150323868, 0.17510986328125, -0.2483331561088562, 0.03506897762417793, -0.14945778250694275, -0.016707777976989746, -0.021414360031485558, 0.09582959860563278, -0.00959391612559557, 0.07696752995252609, 0.08310791105031967, -0.08228067308664322, -0.052188094705343246, -0.03429020568728447, 0.1619005799293518, 0.11347359418869019, -0.031022269278764725, -0.016630113124847412, -0.04709939286112785, 0.0170575100928545, 0.08284740895032883, 0.16357102990150452, 0.1402381956577301, 0.08925288170576096, 0.17970016598701477, 0.08944285660982132, 0.09178846329450607, 0.07501961290836334, 0.13082315027713776, -0.1125890240073204, 0.04565573111176491, -0.08326707780361176, -0.039793696254491806, 0.07472912967205048, 0.0857052132487297, -0.0077665457502007484, -0.009186439216136932, -0.09715838730335236, 0.1580788642168045, -0.07820379734039307, 0.06045890599489212, 0.04936975613236427, -0.03541263937950134, 0.10381573438644409, 0.21011313796043396, -0.050619740039110184, 0.026506179943680763, -0.13919541239738464, -0.2644461393356323, -0.029950503259897232, 0.05417666211724281, -0.03542821481823921, 0.07833918184041977, 0.03126860037446022, 0.02393549680709839, 0.07929987460374832, 0.1704341620206833, 0.04287015274167061, 0.10192646831274033, -0.10240156948566437, -0.12090449035167694, -0.070591501891613, 0.017387976869940758, -0.1500990092754364, -0.004879333544522524, -0.1208711639046669, -0.2350974828004837, 0.048468995839357376, -0.12897220253944397, 0.1830146610736847, -0.17071957886219025, -0.06847543269395828, 0.1990213394165039, -0.212432861328125, -0.015253015793859959, 0.23127427697181702, -0.1575358361005783, -0.07265293598175049, 0.01982584223151207, -0.03746628016233444, 0.16562475264072418, 0.19930601119995117, 0.019712936133146286, -0.006770196836441755, 0.044439468532800674, -0.06014840304851532, 0.08874791860580444, -0.09844768047332764, -0.06412623822689056, -0.01595703698694706, -0.17793363332748413, -0.03484945744276047, -0.08064411580562592, -0.1929880678653717, 0.0006409100024029613, -0.16688403487205505, -0.012346608564257622, 0.07804601639509201, 0.08837880194187164, -0.010938739404082298, -0.047853678464889526, -0.026058176532387733, 0.20279525220394135, 0.10819627344608307, -0.13333037495613098, -0.2302732765674591, -0.20690129697322845, -0.1337541937828064, 0.2617908716201782, 0.0314779169857502, 0.10523129999637604, 0.1526307910680771, 0.06685449928045273, -0.05549054220318794, 0.1283659189939499, 0.12541376054286957, 0.04627295956015587, -0.1970280557870865, -0.0506645068526268, -0.13353870809078217, 0.031265780329704285, -0.1495957225561142, -0.05970950424671173, -0.26865360140800476, -0.12041497975587845, 0.12194512784481049, 0.053516604006290436, -0.1520456224679947, 0.07445985823869705, -0.11238199472427368, 0.06434182822704315, -0.14935778081417084, 0.1993734985589981, -0.1012469008564949, -0.14481770992279053, -0.00843732338398695, -0.04257873073220253, 0.07992042601108551, 0.13798749446868896, 0.16239877045154572, 0.027713103219866753, 0.10759084671735764, -0.03369799628853798, -0.11559396237134933, 0.12509290874004364, -0.07252776622772217, -0.03156769275665283, -0.07238797843456268, -0.17634044587612152, -0.2070189267396927, 0.03750201687216759, 0.16898934543132782, 0.06338928639888763, -0.03676136955618858, 0.055195365101099014, 0.02786547690629959, -0.11392677575349808, 0.08896303921937943, -0.03764987364411354, -0.002685291925445199, 0.13085277378559113, -0.06006273254752159, 0.2900431156158447, 0.06482299417257309, -0.01201765239238739, -0.12210772186517715, -0.0995853841304779, 0.0991738960146904, -0.09008381515741348, -0.010664003901183605, 0.13400709629058838, -0.16564811766147614, 0.01988365314900875, 0.23384250700473785, -0.001262884703464806, 0.16170108318328857, -0.11294842511415482, -0.1398399919271469, -0.08293160796165466, 0.14410588145256042, -0.08848841488361359, 0.05338505282998085, -0.013950697146356106, 0.01788661815226078, 0.0006686943233944476, -0.016808485612273216, -0.017724771052598953, -0.048245254904031754, -0.11982716619968414, -0.10142287611961365, 0.05662703514099121, -0.049899809062480927, -0.015694202855229378, -0.06939862668514252, 0.01991606503725052, -0.11890106648206711, -0.018516913056373596, -0.20336958765983582, -0.15694057941436768, 0.05962624028325081, 0.06675300002098083, 0.0006989359972067177, 0.08848019689321518, -0.25186747312545776, -0.1958739459514618, -0.05463724583387375, 0.2364901453256607, -0.14272014796733856, -0.051604680716991425, -0.09020594507455826, 0.18491952121257782, 0.11399619281291962, -0.30828192830085754, -0.05725151672959328, 0.019093208014965057, -0.022183652967214584, -0.17019212245941162, 0.08242093771696091, 0.3948083519935608, 0.10368453711271286, 0.07804444432258606, 0.06428122520446777, -0.08691011369228363, 0.047655899077653885, 0.2605798542499542, -0.03131713345646858, -0.19338348507881165, -0.03487296402454376, -0.08621102571487427, -0.024205641821026802, 0.04538825899362564, -0.08930990099906921, -0.027201617136597633, -0.0714864656329155, -0.13928204774856567, 0.0139493178576231, 0.1042783185839653, -0.04710236191749573, -0.07024051249027252, 0.0755695030093193, -0.12193505465984344, 0.03510767221450806, 0.011143148876726627, -0.05452706664800644, -0.15859423577785492, 0.14653287827968597, -0.06512238085269928, 0.08008459955453873, -0.032926466315984726, 0.09869399666786194, -0.1467481404542923, -0.17636632919311523, -0.2174268662929535, 0.23614194989204407, 0.25490108132362366, 0.047988127917051315, -0.03851919248700142, -0.008968994952738285, 0.22712594270706177, -0.17171961069107056, -0.1624121516942978, -0.09936807304620743, 0.04634670540690422, -0.14518509805202484, -0.3488680124282837, 0.1570749431848526, 0.25892940163612366, 0.1473679095506668, 0.17241647839546204, -0.03305269777774811, 0.12149722874164581, -0.032213520258665085, 0.07455343008041382, -0.17226344347000122, 0.13145866990089417, -0.06256568431854248, -0.23145276308059692, 0.033644407987594604, 0.016691695898771286, -0.09940170496702194, 0.038130030035972595, 0.11127620935440063, -0.19636476039886475, -0.128294438123703, 0.12207396328449249, 0.08818133175373077, 0.0150076262652874, -0.005231708288192749, -0.024881107732653618, -0.02580326981842518, -0.08177975565195084, -0.17762722074985504, 0.1300835907459259, 0.19993841648101807, -0.12788031995296478, -0.020132604986429214, -0.22179116308689117, 0.056878671050071716, 0.007777797058224678, 0.026804519817233086, 0.167554572224617, 0.11848880350589752, -0.055664677172899246, 0.05753761902451515, 0.038859471678733826, -0.0060828737914562225, 0.12144948542118073, -0.12464175373315811, -0.16092228889465332, 0.010205557569861412, -0.0582219734787941, 0.203055739402771, -0.12157295644283295, -0.10299935191869736, -0.029485713690519333, -0.1743926852941513, -0.058364853262901306, 0.13918308913707733, -0.14068558812141418, 0.0020820798818022013, -0.0060977633111178875, -0.0014092996716499329, 0.08993944525718689, -0.057222768664360046, 0.14448896050453186, 0.13352008163928986, -0.032320939004421234, 0.15515217185020447, -0.1351090669631958, -0.030907906591892242, 0.18646438419818878, -0.08697985857725143, 0.012915593571960926, -0.03539592772722244, -0.06761637330055237, -0.1345415562391281, 0.20728379487991333, -0.06434474885463715, -0.0849524736404419, 0.09338896721601486, 0.14520591497421265, 0.07641716301441193, -0.015455277636647224, -0.19953453540802002, 0.07026486843824387, -0.033056966960430145, 0.21784158051013947, -0.012363075278699398, 0.17858898639678955, -0.17603254318237305, -0.0213679987937212, -0.036993276327848434, 0.12349757552146912, -0.011482739821076393, -0.08277449011802673, 0.22971490025520325, 0.12228173017501831, -0.11910399794578552, -0.005931979976594448, -0.0432199127972126, 0.166151762008667, -0.2105167955160141, 0.07860011607408524, 0.0694604441523552, -0.06727674603462219, 0.046949293464422226, 0.10301286727190018, -0.05757126212120056, 0.0008764476515352726, 0.04828811436891556, -0.18785002827644348, 0.18530040979385376, 0.12111642211675644, 0.06807100772857666, -0.08447224646806717, -0.03729948773980141, 0.09316675364971161, -0.14123369753360748, -0.027823425829410553, 0.060581449419260025, -0.07376239448785782, 0.12378354370594025, 0.12427733093500137, -0.1745353788137436, 0.04795623570680618, 0.06305836141109467, -0.1519879251718521, 0.016798770055174828, -0.13926313817501068, -0.015818271785974503, -0.17234086990356445, -0.38341930508613586, -0.32943791151046753, 0.01944822072982788, 0.2544093132019043, 0.08183584362268448, -0.029416115954518318, -0.00025758493575267494, 0.11331158876419067, -0.24712297320365906, -0.026691706851124763, 0.04232732579112053, -0.33801236748695374, 0.004132512025535107, -0.04967872053384781, -0.02778143808245659, -0.14645080268383026, -0.25307419896125793, 0.19938020408153534, -0.26191627979278564, -0.10217505693435669, 0.30043333768844604, 0.08326224237680435, -0.16653384268283844, 0.1603291630744934, -0.0759582668542862, 0.17512063682079315, 0.07018283754587173, -0.006977586541324854, 0.08891972154378891, -0.09529544413089752, -0.08438116312026978, 0.1968715786933899, -0.18237051367759705, -0.14104995131492615, -0.11128830909729004, -0.09707990288734436, 0.10324149578809738, 0.2267816960811615, -0.2596144676208496, -0.24498124420642853, -0.0826478973031044, -0.42511430382728577, -0.09099899232387543, -0.06859708577394485, 0.6332867741584778, 0.2552811801433563, 0.393384724855423, -0.23753081262111664, 0.13014422357082367, -0.17667199671268463, 0.06859906762838364, -0.07947975397109985, -0.02432468719780445, 0.033102065324783325, 0.1228686198592186, 0.09168065339326859, 0.10679784417152405, 0.04535380378365517, -0.06780771911144257, 0.05999277904629707, -0.13115355372428894, -0.03926080837845802, -0.033495351672172546, -0.07059503346681595, 0.06516832858324051, -0.18219664692878723, 0.1213264986872673, -0.22305916249752045, -0.0028532894793897867, -0.09887205809354782, -0.04619571939110756, -0.09695834666490555, -0.10357342660427094, -0.17579983174800873, -0.11328169703483582, 0.2108585089445114, 0.2810574769973755, 0.0327441468834877, 0.09746957570314407, -0.1856008619070053, -0.009086738340556622, 0.02907225303351879, 0.038436632603406906, -0.02525453083217144, -0.07914711534976959, 0.07523129135370255, 0.05279269441962242, 0.09914812445640564, -0.14639133214950562, 0.070564866065979, -0.07299622148275375, 0.01122833788394928, 0.03157118707895279, 0.25946423411369324, 0.17490823566913605, 0.047205351293087006, 0.07131131738424301, -0.013940767385065556, 0.13054697215557098, -0.07992597669363022, 0.04955960065126419, 0.08557809144258499, 0.04398621991276741, 0.035134512931108475, -0.037966955453157425, 0.0492980070412159, 0.13456924259662628, 0.07538481056690216, -0.03733815252780914, -0.4547426402568817, -0.026537397876381874, -0.29268941283226013, 0.09332261979579926, 0.44549596309661865, -0.40507692098617554, 0.35884302854537964, -0.6768567562103271, -0.5191698670387268, -0.2564370036125183, 0.8624331951141357, -1.0436880588531494, -0.5807623267173767, -1.0015240907669067, 0.1995958685874939, -0.7647268176078796, 0.027048608288168907, -1.0709675550460815, -0.27154338359832764, -0.23949943482875824, 0.02530795708298683, 0.3328850269317627, 0.32372599840164185, -0.1298404335975647, -0.2725900709629059, -0.1844377964735031, 0.07984756678342819, 0.11479055136442184, 0.036728207021951675, 0.11940617114305496, 0.29846587777137756, 0.017085498198866844, -0.2475355565547943, 0.04096435382962227, -0.08844927698373795, -0.07934419065713882, 0.11830385029315948, -0.03865467384457588, -0.23288369178771973, 0.02012803964316845, -0.043790411204099655, -0.053095173090696335, 0.11229304224252701, -0.19366708397865295, 0.16788224875926971, 0.3587886393070221, -0.118397556245327, -0.0026912991888821125, 0.14056380093097687, 0.06509577482938766, 0.10359223932027817, -0.20729395747184753, 0.01949855126440525, 0.20007535815238953, -0.0007638886454515159, 0.3195902109146118, -0.018578002229332924, 0.018320968374609947, -0.0023814889136701822, -0.01665525510907173, -0.30385035276412964, -0.3379383087158203, 0.0030028896871954203, 0.14578238129615784, 0.22808778285980225, -0.003299890784546733, 0.14729708433151245, 0.15161891281604767, -0.11753752827644348, -0.2494836300611496, -0.1295192390680313, 0.0162284504622221, -0.11271737515926361, 0.08944249153137207, -0.15482869744300842, -0.04476603493094444, 0.15898171067237854, 0.24954478442668915, 0.01340967696160078, -0.07805892080068588, 0.0947132557630539, -0.13734978437423706, 0.15017235279083252, 0.1285102665424347, -0.20131422579288483, -0.2363959401845932, 0.10394163429737091, -0.17685551941394806, -0.09690098464488983, 0.1484224498271942, 0.2145439088344574, -0.2702818512916565, 0.069821298122406, 0.23367832601070404, -0.07612364739179611, -0.27191901206970215, -0.03338085114955902, -0.29215556383132935, -0.14832109212875366, -0.004597854800522327, -0.09866714477539062, -0.046175699681043625, 0.07975124567747116, -0.2671905755996704, 0.014014296233654022, 0.07898695766925812, -0.0064499578438699245, 0.19509872794151306, 0.16795065999031067, 0.16555291414260864, -0.24370642006397247, -0.05189919099211693, 0.03440988063812256, -0.08913582563400269, 0.2027813047170639, -0.07218223810195923, -0.05778992548584938, -0.06900371611118317, -0.019541917368769646, 0.32422101497650146, -0.08075396716594696, -0.007805871777236462, 0.1806465983390808, -0.09625991433858871, -0.20414768159389496, 0.09594094008207321, 0.10509531944990158, -0.017230074852705002, -0.06601238250732422, 0.2175685167312622, 0.14357782900333405, 0.1277705729007721, 0.058778923004865646, 0.01706336811184883, 0.008187049999833107, -0.15259183943271637, -0.0165110994130373, 0.13017241656780243, -0.11985273659229279, 0.10588862001895905, -0.15258343517780304, 0.046710774302482605, -0.1523430496454239, -0.03163917362689972, 0.24134233593940735, -0.059829019010066986, 0.08612675964832306, 0.06590647250413895, -0.2056931108236313, -0.05314144119620323, -0.211300790309906, -0.10243789851665497, -0.05950351431965828, -0.15968522429466248, 0.11027746647596359, -0.08736521750688553, 0.03198796510696411, -0.2561520040035248, -0.02460564114153385, 0.24522051215171814, -0.22910310328006744, 0.3314402401447296, -0.10298807919025421, 0.11076179146766663, -0.06505953520536423, -0.013433410786092281, 0.13690859079360962, -0.10917238891124725, 0.15451855957508087, 0.09316312521696091, -0.09528985619544983, -0.23534896969795227, 0.14264054596424103, 0.12956327199935913, 0.10070552676916122, -0.036508046090602875, 0.3121071755886078, -0.24954526126384735, -0.27439001202583313, -0.2694832980632782, -0.22596973180770874, 0.33532828092575073, 0.11204549670219421, -0.12797287106513977, -0.18616537749767303, -0.23788565397262573, 0.3886776268482208, 0.25778475403785706, -0.31245559453964233, 0.06635665148496628, 0.330564945936203, 0.0268744807690382, -0.1942548006772995, 0.1867535263299942, 0.23712071776390076, 0.29893890023231506, -0.17962847650051117, -0.08758866786956787, -0.2428871989250183, -0.08860944211483002, 0.09817899763584137, 0.2270122766494751, -0.28197574615478516, 0.10394533723592758, 0.27729764580726624, -0.03788597881793976, -0.11633323132991791, -0.11868104338645935, 0.057910434901714325, -0.19057726860046387, -0.23728027939796448, -0.28616195917129517, -0.26822328567504883, 0.30561792850494385, -0.011823243461549282, -0.07441888004541397, -0.22236254811286926, -0.019107194617390633, -0.10393165796995163, -0.19092875719070435, -0.3146499693393707, -0.17334198951721191, 0.30263975262641907, -0.20867004990577698, -0.10564202070236206, 0.16705675423145294, 0.2066507190465927, -0.10012312233448029, -0.3460422158241272, 0.45696884393692017, -0.25764766335487366, 0.2426193505525589, -0.1217571422457695, -0.15319208800792694, 0.31938326358795166, 0.14406166970729828, -0.07999594509601593, -0.21410109102725983, 0.30498871207237244, 0.23893655836582184, -0.10676520317792892, 0.04051128774881363, -0.032234854996204376, 0.281673789024353, 0.16409148275852203, -0.17717649042606354, -0.11049370467662811, -0.22108618915081024, 0.25014448165893555, 0.11579213291406631, -0.2246481478214264, -0.014105287380516529, 0.014101307839155197, 0.18266192078590393, -0.3029876947402954, 0.034629613161087036, 0.3189236521720886, 0.07303562760353088, 0.2679837942123413, -0.2586400508880615, -0.26867297291755676, 0.02037406526505947, -0.2686079740524292, 0.2739793360233307, -0.17164544761180878, 0.002929536160081625, 0.18830232322216034, -0.02897636406123638, 0.14185655117034912, -0.1386696696281433, -0.10347777605056763, 0.26969751715660095, -0.18989908695220947, -0.07369177788496017, -0.16348227858543396, 0.07717245072126389, -0.08236853033304214, -0.015618196688592434, -0.07973673939704895, 0.2048625499010086, 0.23790845274925232, 0.24207817018032074, -0.12957751750946045, 0.13231635093688965, 0.06418434530496597, -0.11354824155569077, -0.051040224730968475, -0.3210665285587311, -0.1713842898607254, -0.1380089670419693, 0.04283387213945389, -0.028705673292279243, -0.12249244004487991, 0.014324316754937172, -0.19325803220272064, -0.023377614095807076, -0.049665600061416626, -0.031774938106536865, 0.07414748519659042, -0.015964718535542488, -0.18533273041248322, -0.08436979353427887, 0.10225005447864532, -0.019585587084293365, -0.02721484564244747, 0.06190333887934685, 0.0020710367243736982, -0.1464243084192276, -0.04372347891330719, 0.037934884428977966, 0.09891995042562485, 0.1281314194202423, 0.17621858417987823, -0.14912909269332886, -0.07774969190359116, 0.06399499624967575, 0.07459724694490433, 0.09863270074129105, 0.1123596727848053, -0.07118330150842667, -0.13835331797599792, 0.00248164520598948, -0.0019157248316332698, -0.12432034313678741, -0.00931927002966404, -0.07177577167749405, -0.09555666893720627, -0.05720294639468193, 0.09873055666685104, -0.12743185460567474, 0.07918098568916321, -0.01529252715408802, -0.05737621709704399, -0.021912340074777603, -0.1791752725839615, 0.10691945999860764, -0.057294223457574844, 0.12932315468788147, -0.055643681436777115, 0.0019741335418075323, -0.040239185094833374, -0.026257209479808807, 0.1291661411523819, -0.10079968720674515, 0.1758243292570114, 0.07847890257835388, 0.07139426469802856, -0.05367640033364296, -0.18231730163097382, -0.01636349968612194, 0.26436176896095276, -0.12140899151563644, 0.11634023487567902, -0.01757722720503807, 0.13830311596393585, -0.07052972912788391, 0.14383725821971893, -0.08319338411092758, 0.0920424833893776, -0.1050562933087349, -0.02981651946902275, -0.05397927016019821, 0.05910313501954079, -0.06101205572485924, -0.14668461680412292, 0.06190795823931694, 0.18186698853969574, 0.07954077422618866, 0.21742385625839233, 0.0830814391374588, -0.03753291442990303, -0.04846975579857826, -0.23447613418102264, 0.25434210896492004, -0.028533466160297394, 0.047253530472517014, -0.13473987579345703, 0.03162647783756256, -0.03543918952345848, -0.1437230259180069, -0.07222949713468552, -0.04877375811338425, 0.31927689909935, 0.14450597763061523, -0.058315083384513855, -0.03735710680484772, -0.09899673610925674, 0.04401683807373047, -0.257383793592453, 0.2976694405078888, -0.2380203753709793, 0.02774783782660961, 0.13342821598052979, 0.07031022012233734, 0.09169266372919083, -0.0018488785717636347, -0.18307530879974365, 0.24619454145431519, -0.022687561810016632, -0.33054548501968384, -0.049305181950330734, 0.016659840941429138, -0.025626860558986664, -0.01752878539264202, 0.02178102545440197, 0.14338457584381104, -0.024356942623853683, -0.08768536895513535, 0.14860764145851135, 0.027696039527654648, 0.10130060464143753, -0.03391582891345024, 0.014739942736923695, -0.03143656253814697, 0.0872117429971695, -0.11036018282175064, -0.11605275422334671, 0.09724844247102737, -0.10332568734884262, 0.26563361287117004, -0.3197656571865082, 0.33858051896095276, 0.04963712766766548, 0.03394581377506256, -0.009024184197187424, 0.0022015918511897326, 0.019380131736397743, 0.026808522641658783, 0.21651361882686615, -0.48375260829925537, 0.147695854306221, -0.1296394169330597, -0.06952784210443497, 0.05494912341237068, 0.009095949120819569, -0.056886766105890274, 0.018779529258608818, -0.08093959838151932, -0.018127620220184326, -0.07668279111385345, 0.09030245244503021, 0.040360525250434875, -0.16836592555046082, -0.03226016089320183, -0.1629999577999115, -0.07285261154174805, 0.03117816336452961, -0.1587507426738739, -0.045194678008556366, -0.04140971228480339, 0.08180499821901321, 0.10873997211456299, 0.252000629901886, 0.03814025968313217, -0.12173110246658325, -0.01341385580599308, 0.23246607184410095, 0.11383351683616638, 0.026753947138786316, -0.103337362408638, 0.0249948613345623, -0.10852591693401337, 0.09834573417901993, -0.08996979147195816, 0.10026949644088745, -0.05162801966071129, -0.08051814138889313, 0.034919146448373795, -0.2999045252799988, 0.24929538369178772, 0.07289585471153259, -0.1665676385164261, -0.10109014064073563, 0.1892230361700058, -0.15698984265327454, 0.04860527440905571, -0.2728458642959595, -0.5114440321922302, 0.31157416105270386, 0.04290737956762314, -0.027900544926524162, 0.06053107976913452, -0.08480512350797653, -0.33086204528808594, 0.05639957636594772, -0.08557930588722229, 0.20052401721477509, 0.05515813082456589, -0.03602540120482445, 0.10342048853635788, 0.04435841366648674, 0.101571224629879, 0.38329458236694336, -0.10657345503568649, -0.013363296166062355, 0.1383156031370163, -0.041972581297159195, 0.037199776619672775, 0.03721949830651283, -0.0810462012887001, -0.3009813129901886, -0.18448422849178314, 0.10194510221481323, -0.015531768091022968, -0.20858977735042572, 0.014616038650274277, -0.033351995050907135, -0.05823056772351265, 0.13919571042060852, 0.1225644201040268, 0.013075469061732292, -0.006744560785591602, -0.18899163603782654, -0.059418752789497375, 0.12406562268733978, 0.17159457504749298, 0.4552513360977173, -0.3612774908542633, -0.14594583213329315, 0.10408620536327362, 0.10104695707559586, -0.1324307769536972, -0.04759546369314194, 0.19995662569999695, 0.2154592126607895, 0.3207396864891052, 0.03302524983882904, 0.0003442367597017437, -0.02827768586575985, -0.024546999484300613, 0.04885559901595116, -0.03447491675615311, -0.07262267172336578, 0.09867623448371887, -0.04881441220641136, -0.050794344395399094, -0.23690856993198395, -0.255786269903183, 0.0011629320215433836, -0.09683477133512497, -0.19699245691299438, 0.042408622801303864, 0.08023194223642349, -0.02873910218477249, 0.03039361722767353, -0.019836096093058586, 0.05941043049097061, -0.018566207960247993, -0.08519542217254639, 0.15359292924404144, 0.17369423806667328, 0.09424997121095657, 0.007351886481046677, 0.04956325143575668, -0.04982464388012886, -0.16166818141937256, -0.10780715942382812, 0.05852750316262245, 0.16924618184566498, -0.0024367545265704393, -0.05490483343601227, -0.02804371528327465, 0.07703682035207748, 0.06003136560320854, 0.012491567060351372, 0.010882352478802204, -0.0429346077144146, -0.1448439508676529, 0.02821424975991249, -0.15549781918525696, -0.08929543942213058, 0.0899638757109642, -0.15713857114315033, -0.28505536913871765, -0.17155520617961884, 0.09700578451156616, -0.027944235131144524, 0.05847443640232086, -0.12467919290065765, -0.1036040261387825, -0.030257118865847588, 0.05813779681921005, -0.04189596697688103, -0.08087087422609329, 0.08005881309509277, -0.04688511788845062, 0.05965286120772362, -0.06144915521144867, 0.17175494134426117, 0.027749162167310715, -0.10647642612457275, 0.07303739339113235, -0.022714627906680107, -0.10080389678478241, -0.06134787201881409, -0.1721578985452652, -0.1690434217453003, -0.1362450271844864, -0.13938342034816742, 0.1883469820022583, 0.032831598073244095, -0.16403627395629883, -0.14528077840805054, 0.0014743624487891793, 0.1590675264596939, 0.02114470675587654, 0.10993525385856628, -0.13258549571037292, -0.249179869890213, 0.028388168662786484, -0.06257544457912445, -0.06298909336328506, 0.040758583694696426, -0.12820908427238464, -0.15579932928085327, -0.03480581194162369, 0.17807172238826752, -0.08868426084518433, -0.053453024476766586, 0.10576945543289185, -0.06642881780862808, 0.23203526437282562, 0.09865674376487732, 0.020044764503836632, -0.15525434911251068, 0.056924641132354736, -0.11499517410993576, 0.05201972648501396, -0.24390345811843872, 0.0691191777586937, 0.04915094003081322, 0.10060753673315048, -0.15309637784957886, 0.02309129387140274, -0.03320794552564621, -0.17033128440380096, -0.03400054946541786, 0.07081572711467743, -0.23596039414405823, 0.19227725267410278, -0.01669187843799591, 0.07726322114467621, 0.05610233172774315, -0.02245047129690647, -0.012758014723658562, 0.02391994558274746, 0.12087839096784592, 0.030157318338751793, 0.0797385573387146, -0.06796276569366455, 0.009965197183191776, 0.1300245225429535, -0.024791356176137924, -0.0016761015867814422, 0.08060391247272491, -0.1591949313879013, -0.012864606454968452, -0.09368289262056351, -0.021242886781692505, 0.007527587469667196, 0.004582162015140057, -0.29819852113723755, -0.10804035514593124, 0.15543168783187866, 0.16149115562438965, -0.1797289252281189, -0.08200182020664215, 0.0651695504784584, -0.08909881114959717, -0.12191136926412582, -0.22235402464866638, -0.10039697587490082, -0.13044744729995728, -0.005055719055235386, -0.023939158767461777, -0.11608019471168518, -0.05830644071102142, 0.07562637329101562, 0.029031414538621902, 0.21656447649002075, -0.007409381214529276, 0.33728936314582825, -0.15741360187530518, 0.014984076842665672, 0.2063220590353012, 0.15851353108882904, -0.21862228214740753, -0.040479253977537155, -0.009506914764642715, 0.08352015912532806, -0.22494113445281982, 0.16333866119384766, 0.04359065741300583, 0.04296793416142464, -0.07222628593444824, -0.016588011756539345, -0.25469544529914856, 0.048274602741003036, 0.09716454148292542, 0.06251335889101028, 0.027700144797563553, 0.01648464798927307, -0.10050547868013382, 0.1532934606075287, 0.033909253776073456, 0.11509532481431961, -0.21966195106506348, 0.05065985023975372, 0.19908404350280762, 0.0018133799312636256, -0.10742884129285812, 0.14443694055080414, -0.2714245617389679, -0.030220774933695793, 0.15917906165122986, 0.0010812791297212243, 0.24791134893894196, 0.17259204387664795, -0.08837775141000748, -0.10561156272888184, 0.1885189563035965, -0.14781181514263153, -0.017532221972942352, 0.05532808229327202, -0.07172102481126785, 0.005769750569015741, 0.1038360744714737, 0.037191614508628845, 0.13561202585697174, 0.08485827594995499, -0.008731856942176819, 0.06270856410264969, 0.0060580214485526085, -0.1376747488975525, 0.08852319419384003, -0.002944410312920809, 0.041381362825632095, -0.11469367146492004, 0.06346704810857773, 0.174173966050148, -0.16161391139030457, -0.039391715079545975, -0.1970665007829666, -0.1310557723045349, -0.33212241530418396, -0.024168523028492928, -0.06521884351968765, -0.18229569494724274, -0.05912059545516968, 0.03156861290335655, -0.1603979617357254, 0.12744542956352234, 0.16139794886112213, 0.09424469619989395, -0.09827523678541183, -0.11591560393571854, 0.1579490751028061, -0.09374990314245224, 0.08526665717363358, 0.033965371549129486, -0.21210217475891113, 0.031125809997320175, -0.09287456423044205, -0.13394403457641602, 0.14989608526229858, 0.22778423130512238, -0.08412858843803406, 0.14783909916877747, -0.023550335317850113, -0.18274275958538055, -0.0863080695271492, 0.09090526401996613, -0.06557848304510117, 0.16311271488666534, -0.043347809463739395, 0.17497843503952026, 0.11482257395982742, 0.07007530331611633, 0.09290263801813126, 0.12862423062324524, -0.11464687436819077, 0.19245918095111847, 0.13395419716835022, -0.3180704414844513, 0.06328920274972916, -0.022807227447628975, 0.05951548367738724, -0.06175484135746956, 0.17440709471702576, 0.20258179306983948, -0.11050110310316086, -0.0014381385408341885, 0.20615234971046448, -0.028216246515512466, 0.042516157031059265, -0.002204419579356909, 0.024275558069348335, -0.097655288875103, 0.09634848684072495, 0.030603092163801193, 0.12773331999778748, -0.02375403232872486, 0.05275777354836464, 0.33449339866638184, -0.3870002031326294, 0.505571186542511, 0.14278806746006012, -0.03271118924021721, -0.04230424389243126, 0.17996130883693695, -0.1866442859172821, -0.08626929670572281, -0.016271552070975304, -0.24710145592689514, 0.08745595812797546, 0.15123850107192993, -0.09915220737457275, 0.06322955340147018, -0.0009195500169880688, 0.061752207577228546, 0.12818537652492523, -0.02738722413778305, -0.14623954892158508, 0.0774737149477005, -0.04436592757701874, -0.008061550557613373, 0.15475592017173767, -0.21578720211982727, -0.019625253975391388, 0.0003275570925325155, 0.11965695768594742, -0.035339850932359695, 0.08323302865028381, -0.06634020060300827, -0.20855113863945007, -0.05887342616915703, -0.10674088448286057, 0.11124949157238007, 0.1023603305220604, 0.1787160038948059, -0.09509608894586563, -0.1339990198612213, -0.18907922506332397, 0.06879735738039017, -0.09321132302284241, -0.0738295167684555, -0.09860759228467941, -0.16745403409004211, -0.1238771453499794, -0.0561598502099514, -0.02250637486577034, -0.13904210925102234, -0.024594953283667564, -0.2793775498867035, -0.09386647492647171, 0.0016595304477959871, -0.0042913625948131084, -0.15130050480365753, -0.06273739039897919, 0.17778322100639343, -0.17905233800411224, -0.01987556740641594, 0.03704947605729103, -0.09796701371669769, -0.08148343861103058, -0.09849562495946884, 0.05521690845489502, -0.052122827619314194, 0.10404366254806519, 0.20272287726402283, 0.0011601324658840895, -0.20001888275146484, 0.13635921478271484, -0.08465598523616791, 0.058998044580221176, 0.00877716951072216, -0.06607995182275772, 0.08018112182617188, 0.09718906134366989, -0.16750375926494598, 0.15853728353977203, -0.13106586039066315, 0.059929173439741135, -0.06772276014089584, -0.04333283752202988, 0.13481859862804413, -0.11363018304109573, 0.00817048642784357, 0.03776698559522629, -0.007059416268020868, 0.08187951147556305, -0.23285143077373505, 0.058466020971536636, -0.16880908608436584, 0.14095066487789154, -0.012299325317144394, 0.15226177871227264, 0.03751898556947708, -0.031354013830423355, 0.021867500618100166, -0.018328504636883736, 0.5090818405151367, 0.025016970932483673, -0.044413335621356964, -0.061195649206638336, 0.16851122677326202, 0.00807980541139841, 0.02861221507191658, 0.020816609263420105, 0.015883145853877068, 0.24810047447681427, 0.19175350666046143, -0.048867885023355484, 0.025405287742614746, 0.1410929411649704, 0.1809607893228531, -0.34678685665130615, 0.07907287776470184, -0.14885149896144867, 0.09271613508462906, 0.19431042671203613, -0.024431657046079636, -0.12728406488895416, -0.2164674550294876, -0.2559661567211151, 0.39145806431770325, -0.10968149453401566, 0.06458983570337296, 0.31677907705307007, -0.14454127848148346, 0.034984130412340164, -0.11410856992006302, 0.08624044060707092, -0.040006011724472046, -0.04774956777691841, -0.025726623833179474, 0.15168814361095428, -0.1278851181268692, 0.02301088720560074, -0.08922754228115082, -5.861898898729123e-05, -0.04217284545302391, 0.07006850093603134, 0.1119062751531601, 0.14811769127845764, -0.01968306675553322, -0.19176159799098969, -0.1569777876138687, -0.41622209548950195, 0.5578171610832214, 0.001943213283084333, 0.05133290961384773, -0.09366218745708466, 0.16419927775859833, 0.023867258802056313, -0.12034599483013153, -0.1591758131980896, -0.3894791603088379, 0.3481314480304718, 0.05583236739039421, -0.10982178151607513, 0.03560572862625122, 0.06356380134820938, 0.21097403764724731, 0.17745277285575867, 0.10256578773260117, 0.00795874185860157, 0.049408167600631714, -0.016425425186753273, -0.03473787009716034, 0.19647638499736786, -0.1773429811000824, -0.19765102863311768, 0.045135948807001114, 0.055204205214977264, -0.09115385264158249, -0.14560860395431519, -0.03028010204434395, -0.0717741996049881, -0.3208276629447937, -0.19993455708026886, -0.08116918057203293, -0.207617849111557, 0.08476656675338745, 0.09993422031402588, -0.04468487203121185, -0.015671297907829285, -0.22014859318733215, 0.11497867852449417, 0.19091957807540894, 0.15240627527236938, 0.031754959374666214, -0.11805618554353714, -0.03907543048262596, 0.08335929363965988, -0.11381982266902924, -0.017237136140465736, -0.09892980754375458, -0.14634080231189728, -0.11028889566659927, 0.07928337901830673, -0.10492146015167236, -0.2021741271018982, 0.11177859455347061, -0.18641513586044312, -0.27145907282829285, 0.07342535257339478, -0.014421154744923115, 0.0773528516292572, 0.039658524096012115, -0.11238297075033188, -0.17073628306388855, 0.09511564671993256, -0.1592952311038971, 0.2198021560907364, 0.2447471171617508, -0.1654524803161621, 0.026738766580820084, 0.11564567685127258, -0.14383059740066528, 0.3314530849456787, 0.14266912639141083, 0.010660344734787941, 0.3279544413089752, 0.147775799036026, 0.17106422781944275, -0.0020117934327572584, -0.09639258682727814, -0.007384071126580238, -0.09361771494150162, 0.09183954447507858, 0.11960870772600174, -0.029332971200346947, 0.061809517443180084, -0.05169447883963585, 0.014309139922261238, 0.06988313794136047, -0.01313737966120243, -0.061136431992053986, -0.0972926989197731, -0.1726391464471817, -0.20226791501045227, 0.09999693930149078, -0.09186889976263046, 0.42655783891677856, -0.05801065266132355, -0.2278049886226654, 0.11894965171813965, -0.03516828641295433, -0.15191113948822021, 0.06287450343370438, -0.007201444357633591, 0.21992084383964539, 0.41704049706459045, -0.0894901379942894, -0.21201752126216888, -0.11749561131000519, 0.13985629379749298, 0.12208776921033859, 0.03679216653108597, 0.03895526006817818, -0.08005928993225098, 0.020412664860486984, 0.08323156088590622, -0.14464320242404938, 0.030293582007288933, 0.13636113703250885, 0.029652701690793037, 0.07140053063631058, 0.03070169687271118, -0.15119683742523193, 0.05469773709774017, -0.17573916912078857, 0.029048938304185867, -0.27758878469467163, -0.5684790015220642, 0.7343786954879761, 0.22153601050376892, -0.35026541352272034, 0.014309491962194443, -0.3227262496948242, -0.11000768095254898, 0.7117128372192383, -0.7022079825401306, 0.860410749912262, 0.6054031252861023, -0.08305859565734863, -0.6246322989463806, 0.038545772433280945, -0.6129705905914307, 0.23044700920581818, -0.2758913040161133, -0.00793601293116808, -0.40455079078674316, 0.4209536612033844, 0.23801195621490479, 0.29482120275497437, 0.21253766119480133, 0.2560463845729828, 0.0028925049118697643, -0.10414745658636093, 0.36768174171447754, -0.3920275568962097, -0.20530667901039124, -0.17223212122917175, 0.09747345745563507, 0.23376429080963135, 0.015639616176486015, -0.1294698715209961, 0.08819973468780518, 0.26700982451438904, 0.06374049931764603, 0.021151874214410782, -0.21243764460086823, -0.3259442150592804, 0.08947210013866425, -0.09918531775474548, -0.1022791638970375, 0.1866452395915985, 0.13460010290145874, 0.20467397570610046, -0.004681847989559174, -0.0775311291217804, -0.138588085770607, 0.08864802122116089, -0.10672393441200256, 0.03185379505157471, -0.13288162648677826, -0.19572095572948456, -0.31015005707740784, -0.13316243886947632, 0.09651805460453033, -0.057647254317998886, -0.05599835142493248, 0.29499587416648865, -0.1920667141675949, 0.0001704393798718229, 0.005419185385107994, 0.3675963580608368, -0.09893124550580978, 0.16309460997581482, -0.023753494024276733, 9.15632481337525e-05, 0.12784869968891144, -0.15136218070983887, 0.19667132198810577, 0.25546857714653015, -0.11337126046419144, 0.11559250950813293, 0.19958646595478058, 0.0843430757522583, 0.18132387101650238, 0.22091470658779144, -0.10463130474090576, 0.08812350779771805, -0.2671237289905548, 0.6373527646064758, -0.10794050246477127, -0.11285623908042908, -0.21408811211585999, -0.09508753567934036, 0.012119979597628117, 0.3183461129665375, -0.2113540768623352, 0.05556384101510048, -0.059966884553432465, -0.20495577156543732, -0.16307072341442108, 0.09934373944997787, -0.29311004281044006, 0.0069923847913742065, -0.008184777572751045, 0.09381231665611267, 0.018662912771105766, -0.06467508524656296, 0.005238762125372887, 0.43077781796455383, 0.20461951196193695, -0.2705093324184418, -0.2035697102546692, 0.11251261830329895, 0.023217927664518356, 0.06631811708211899, 0.23283153772354126, 0.31052136421203613, -0.03858418017625809, 0.1264304220676422, 0.08653983473777771, 0.04709059000015259, 0.04126119613647461, 0.3570771813392639, -0.052505407482385635, 0.17636191844940186, -0.006071993615478277, -0.19149741530418396, 0.054442789405584335, 0.08690967410802841, -0.02416115626692772, 0.0672135129570961, -0.11524657160043716, 0.15363462269306183, 0.1446813941001892, 0.2081989049911499, 0.20339035987854004, -0.16737914085388184, -0.15353621542453766, 0.08278608322143555, -0.1671469658613205, 0.0667530745267868, -0.12603116035461426, 0.07006185501813889, 0.027453482151031494, 0.09069526195526123, 0.2417220026254654, 0.05801699310541153, 0.041678473353385925, 0.03637618571519852, -0.0787714496254921, -0.12833164632320404, 0.25092974305152893, -0.05928504839539528, 0.2672717273235321, 0.050116077065467834, 0.010573897510766983, -0.24779172241687775, -0.0647057592868805, -0.2044648975133896, 0.07630398124456406, 0.06476147472858429, 0.1340571641921997, -0.10357630997896194, 0.1873336285352707, 0.02042256109416485, -0.023696647956967354, 0.2849811315536499, -0.2147541642189026, -0.14188481867313385, 0.14324571192264557, 0.1301080286502838, 0.2306002825498581, -0.06261541694402695, -0.07599025219678879, -0.06982171535491943, -0.11622913926839828, 0.01943397894501686, -0.005386502016335726, -0.07835011929273605, -0.19588306546211243, 0.35656553506851196, -0.15357573330402374, 0.22235630452632904, -0.19787922501564026, -0.11480628699064255, -0.3788749575614929, 0.3647703528404236, -0.2016592025756836, 0.19203785061836243, 0.0005854195333085954, 0.2566086947917938, 0.08597040921449661, -0.4025862216949463, 0.1387706845998764, -0.03769715875387192, -0.4224022924900055, 0.05375637859106064, 0.34028640389442444, 0.16482952237129211, -0.078285351395607, -0.0815538763999939, -0.02262028120458126, -0.03549684211611748, 0.23686730861663818, 0.34609976410865784, 0.19171786308288574, -0.15844757854938507, -0.21780751645565033, -0.2769360840320587, 0.3272419273853302, -0.2511045038700104, -0.22932660579681396, 0.04679488763213158, 0.09718379378318787, -0.3598819375038147, -0.18349893391132355, -0.06261858344078064, -0.026488885283470154, 0.1077171042561531, 0.22323614358901978, -0.24570147693157196, -0.18431858718395233, 0.04010159149765968, 0.09930171072483063, -0.12125599384307861, -0.0431271456182003, -0.007098865695297718, 0.11845673620700836, 0.07086062431335449, -0.16502204537391663, -0.2743564546108246, 0.23376008868217468, -0.07846388965845108, -0.05763860419392586, -0.02761571668088436, -0.1687452495098114, -0.022998295724391937, -0.2527715265750885, 0.16806715726852417, 0.1761307418346405, 0.14597399532794952, -0.36367347836494446, 0.04383816197514534, 0.17203164100646973, -0.2458433359861374, 0.06913559138774872, 0.07477778196334839, 0.1920006424188614, -0.018990544602274895, 0.13528555631637573, -0.21107380092144012, 0.01830471307039261, 0.03751301392912865, -0.1691540777683258, -0.0010542761301621795, 0.1543198823928833, 0.19845013320446014, 0.08849925547838211, -0.0677700787782669, 0.18394073843955994, 0.1488092988729477, -0.24767473340034485, -0.2517658472061157, -0.0423290953040123, 0.007310443092137575, -0.21702252328395844, -0.1908682882785797, -0.19573859870433807, -0.12858416140079498, -0.401551216840744, 0.2607177793979645, 0.15466715395450592, 0.21280072629451752, 0.1007826030254364, -0.04293901100754738, -0.08462952822446823, -0.314087450504303, 0.11051337420940399, 0.0696229487657547, 0.1273539662361145, -0.0451885424554348, 0.20116688311100006, -0.03283065930008888, 0.35187074542045593, 0.22159399092197418, 0.01287662424147129, -0.3101288974285126, -0.12571409344673157, 0.08652794361114502, 0.04246995598077774, -0.017217185348272324, 0.05592380464076996, 0.07294067740440369, -0.021818174049258232, -0.009911593049764633, 0.030062807723879814, 0.324200838804245, -0.01574256271123886, 0.010284056887030602, 0.2242954671382904, 0.2433396279811859, 0.04895174130797386, -0.10315755009651184, -0.015703022480010986, 0.12288502603769302, 0.15004131197929382, 0.004291756544262171, -0.350293904542923, -0.35556796193122864, -0.034677110612392426, -0.024141689762473106, 0.29437217116355896, 0.21517710387706757, 0.08628208935260773, 0.05387033149600029, -0.40140411257743835, 0.01698906160891056, 0.2031637281179428, 0.25323328375816345, -0.06686854362487793, -0.23667338490486145, -0.2093248963356018, 0.029682589694857597, 0.09613825380802155, 0.033105310052633286, -0.0280914306640625, 0.08547693490982056, -0.16385090351104736, -0.11406082659959793, 0.03416141867637634, 0.0871216356754303, 0.05498169735074043, -0.18153315782546997, 0.23731276392936707, 0.03466832637786865, -0.2850165367126465, 0.19722113013267517, -0.15460999310016632, -0.325547993183136, 0.22938889265060425, 0.015671560540795326, -0.18566420674324036, 0.08221939206123352, 0.5076410174369812, -0.03224446624517441, 0.24419589340686798, -0.21075834333896637, -0.11334361881017685, -0.037316951900720596, 0.006567332893610001, 0.12674187123775482, -0.12631694972515106, 0.04103826731443405, 0.0543585941195488, -0.24783053994178772, 0.25637754797935486, 0.1990213692188263, 0.11537792533636093, -0.2314024269580841, -0.1303030550479889, -0.18963132798671722, 0.13341383635997772, -0.025556553155183792, 0.03953640162944794, -0.21051888167858124, -0.2005673348903656, -0.0755372866988182, 0.11381477117538452, -0.06507337838411331, 0.11054877936840057, 0.10060262680053711, 0.0933767780661583, -0.06530608981847763, 0.32606348395347595, 0.160030797123909, 0.2190464586019516, 0.024985510855913162, -0.21619144082069397, -0.18854083120822906, 0.03678159415721893, 0.059990569949150085, -0.21361427009105682, 0.17098519206047058, -0.04112306237220764, 0.11441516131162643, -0.03917047381401062, 0.06373263895511627, -0.11499525606632233, 0.10628262907266617, 0.009467869997024536, -0.052101075649261475, -0.07946068048477173, 0.00818625371903181, 0.05885191261768341, -0.06513847410678864, -0.13735221326351166, -0.016662264242768288, 0.008074533194303513, -0.05336375534534454, -0.11850859224796295, 0.016913289204239845, -0.06833096593618393, 0.16847334802150726, -0.07513792812824249, 0.0040543219074606895, -0.3200092017650604, -0.20279353857040405, 0.11396203190088272, 0.10235410928726196, 0.055563248693943024, -0.2248990684747696, -0.16975100338459015, -0.06301487982273102, 0.2394060641527176, 0.10008559376001358, 0.13514675199985504, -0.030297670513391495, -0.09295730292797089, -0.0866951048374176, 0.2145598828792572, 0.1463705152273178, 0.07279154658317566, -0.3140871524810791, -0.1422778069972992, -0.15155825018882751, -0.06493308395147324, 0.05251629278063774, 0.0546519011259079, -0.15758150815963745, 0.09152693301439285, 0.047835517674684525, -0.2078714668750763, 0.2329043298959732, -0.09814105927944183, -0.16849644482135773, 0.07340347021818161, 0.10131349414587021, -0.12863688170909882, 0.09145666658878326, 0.4646230936050415, 0.017539745196700096, 0.07875843346118927, -0.12399432063102722, 0.22276608645915985, 0.19018657505512238, 0.0927589014172554, -0.16938717663288116, 0.0618184357881546, 0.07918927818536758, 0.006932465825229883, -0.08292914927005768, 0.2663438022136688, -0.12704676389694214, -0.12052836269140244, -0.18257786333560944, 0.15691667795181274, 0.177927628159523, 0.01819397695362568, 0.014628053642809391, -0.1025971993803978, -0.04307295382022858, 0.21803291141986847, 0.13812197744846344, -0.13418996334075928, -0.20915691554546356, -0.2482801079750061, -0.017364216968417168, 0.21168430149555206, 0.09205841273069382, 0.24420998990535736, -0.18291924893856049, 0.028019152581691742, 0.12464001029729843, 0.10108388960361481, 0.03559111803770065, 0.16540426015853882, -0.21458739042282104, 0.1757282018661499, 0.12596359848976135, -0.22091776132583618, 0.058822546154260635, -0.09970800578594208, -0.09247080981731415, 0.017158767208456993, 0.08544278889894485, -0.23727813363075256, -0.0662769228219986, 0.11996821314096451, -0.12328290194272995, 0.18619288504123688, -0.25259098410606384, -0.12702040374279022, -0.14864353835582733, 0.017240600660443306, 0.012323617935180664, -0.04815058037638664, -0.23750466108322144, -0.2198687046766281, 0.08825986087322235, 0.3050113022327423, -0.3503526747226715, -0.1784239560365677, 0.08452924340963364, -0.017379265278577805, -0.022897569462656975, -0.23127025365829468, 0.09324085712432861, 0.29944896697998047, 0.22674940526485443, -0.0009852644288912416, -0.2952702045440674, -0.028765905648469925, -0.1613427996635437, -0.10722111165523529, -0.022699816152453423, -0.05296861752867699, -0.07235760241746902, 0.014933832921087742, -0.0031148178968578577, -0.1412258744239807, -0.2321382611989975, -0.21969395875930786, -0.3175562918186188, -0.031673088669776917, 0.008778014220297337, -0.15647351741790771, -0.10348977893590927, 0.029082180932164192, -0.25302594900131226, -0.28573307394981384, 0.04757494106888771, 0.13507139682769775, -0.06750541180372238, 0.16578705608844757, -0.14183923602104187, -0.41628187894821167, 0.0040825908072292805, -0.2789810597896576, 0.07376576215028763, -0.2537175714969635, 0.09583202004432678, 0.079746313393116, 0.17092549800872803, -0.16359452903270721, 0.053028836846351624, -0.1663912832736969, 0.19754551351070404, -0.2798590064048767, -0.14917078614234924, -0.19948522746562958, -0.07847734540700912, 0.024876993149518967, -0.005369225051254034, -0.032601356506347656, 0.01120257843285799, 0.022529352456331253, 0.06925704330205917, 0.04183468595147133, -0.0001305111072724685, 0.14946983754634857, -0.010492016561329365, -0.10248089581727982, 0.10699190944433212, -0.028376298025250435, -0.04810156673192978, -0.2751726508140564, -0.05805588513612747, -0.12477238476276398, -0.003592158667743206, 0.21800227463245392, 0.1654372215270996, 0.008452283218502998, -0.09557443857192993, 0.07573845237493515, -0.0938953086733818, -0.1382085084915161, 0.09208956360816956, 0.4015422463417053, -0.13165853917598724, 0.12135463207960129, 0.04039983078837395, -0.03291283920407295, -0.14842550456523895, 0.035738639533519745, -0.10145845264196396, 0.00471197534352541, -0.061405401676893234, 0.034946881234645844, 0.16294296085834503, 0.1976260095834732, -0.027239879593253136, -0.2409593015909195, -0.16985255479812622, -0.2278917282819748, -0.15537141263484955, 0.11603520810604095, 0.07137580960988998, -0.29662859439849854, -0.1516823023557663, 0.13290278613567352, -0.1610196828842163, -0.2069593220949173, -0.2911497950553894, 0.07060281187295914, 0.05627311393618584, 0.12797650694847107, 0.164390429854393, 0.22496533393859863, -0.0742110088467598, -0.05109107494354248, 0.05063148960471153, 0.19851510226726532, 0.08963622152805328, 0.00329641648568213, -0.12907806038856506, -0.24435840547084808, -0.09765986353158951, 0.04124579206109047, 0.2344815731048584, -0.13581661880016327, -0.20790283381938934, 0.005562875885516405, 0.02414550632238388, -0.27425646781921387, 0.20725017786026, 0.05765354633331299, 0.005888183135539293, 0.19313858449459076, 0.0379447415471077, -0.2833566963672638, -0.01674395613372326, 0.07713274657726288, -0.022334875538945198, -0.039624929428100586, -0.153938427567482, 0.11431882530450821, 0.025533486157655716, -0.07199438661336899, 0.06311196833848953, -0.10724397748708725, 0.13567587733268738, 0.06272666901350021, -0.09330341219902039, 0.09164361655712128, 0.14211523532867432, -0.24157868325710297, -0.14436309039592743, -0.030404847115278244, 0.0354761965572834, -0.200212761759758, -0.043890152126550674, -0.1934443861246109, 0.006941867992281914, 0.05211706459522247, 0.1997329145669937, 0.060973186045885086, -0.04553578794002533, -0.18120113015174866, -0.11431554704904556, 0.16819018125534058, 0.018948949873447418, -0.03892967849969864, -0.26678216457366943, -0.06225335970520973, -0.004022453911602497, 0.21258695423603058, 0.2020932286977768, 0.03517983853816986, 0.008328096941113472, 0.21904803812503815, -0.11027904599905014, -0.16157685220241547, 0.03190605714917183, -0.19956469535827637, -0.06642012298107147, 0.11512230336666107, 0.022032739594578743, -0.08519537001848221, 0.12061065435409546, 0.10656458139419556, 0.12412847578525543, 0.3254431486129761, -0.021965155377984047, 0.14623014628887177, -0.12486657500267029, 0.05541166290640831, 0.0759081318974495, 0.005276533775031567, -0.07000574469566345, -0.13140466809272766, -0.15839064121246338, -0.2124922275543213, -0.39143282175064087, 0.09024970978498459, -0.04824308678507805, -0.1287064552307129, -0.11858434230089188, -0.045741382986307144, -0.11482328176498413, -0.0730077400803566, -0.1863391101360321, -0.24449487030506134, 0.06837481260299683, 0.20498895645141602, 0.06351055949926376, 0.1658104658126831, 0.08018848299980164, -0.17436501383781433, 0.06989359110593796, 0.048474427312612534, 0.08004791289567947, 0.5105602145195007, 0.043142449110746384, -0.1360924243927002, -0.016586357727646828, 0.012005302123725414, -0.15671606361865997, -0.16072414815425873, 0.23774655163288116, 0.12207145988941193, 0.2880549728870392, 0.24200302362442017, 0.16650040447711945, -0.17571379244327545, -0.048933450132608414, 0.168915793299675, -0.22629256546497345, 0.22522281110286713, 0.15934133529663086, 0.288184255361557, -0.09111663699150085, 0.15929488837718964, 0.03753966465592384, 0.09293162077665329, -0.032142143696546555, 0.04899204149842262, -0.07747451961040497, 0.013480158522725105, -0.1706760972738266, 0.08166837692260742, -0.05598201975226402, -0.007309825159609318, -0.019347678869962692, -0.04859108850359917, -0.04716075211763382, -0.04294836148619652, 0.10109753906726837, 0.06439930945634842, 0.008419698104262352, 0.08242940157651901, 0.005051310174167156, 0.054538577795028687, -0.047533635050058365, -0.04981054365634918, -0.03179215267300606, 0.006627513095736504, -0.20456503331661224, 0.29534614086151123, -0.021747319027781487, -0.14368923008441925, -0.011145257391035557, -0.0679059699177742, -0.06923950463533401, -0.15330065786838531, -0.17894209921360016, -0.1325358897447586, 0.1515650749206543, -0.07814066112041473, 0.09386708587408066, 0.09697581827640533, -0.06547423452138901, -0.008451520465314388, -0.01728973537683487, 0.03542698919773102, -0.02819979377090931, -0.11108997464179993, -0.13029564917087555, 0.1719464361667633, -0.05869879573583603, 0.08503954857587814, -0.21378323435783386, -0.1035943329334259, 0.24255789816379547, -0.002338822465389967, -0.09976499527692795, -0.25433775782585144, -0.13041500747203827, 0.03108501248061657, -0.18358714878559113, 0.16809038817882538, 0.04189789667725563, -0.12995094060897827, 0.0722326785326004, 0.013768164440989494, -0.08515888452529907, 0.1928529441356659, 0.09538642317056656, 0.053688064217567444, -0.23903584480285645, -0.04213428869843483, 0.14209279417991638, 0.13290496170520782, 0.11977573484182358, -0.014927221462130547, -0.08361784368753433, 0.005764151457697153, -0.014379207044839859, -0.038336582481861115, -0.13211043179035187, -0.34550175070762634, -0.09475414454936981, -0.09095194190740585, 0.21638000011444092, -0.11648213863372803, -0.08003018796443939, 0.15609803795814514, -0.1948346346616745, -0.09771104156970978, 0.058926619589328766, -0.0832010805606842, 0.013673522509634495, 0.12495844811201096, -0.27715492248535156, 0.11327481269836426, 0.08162675052881241, 0.11403556913137436, 0.1187712624669075, -0.3186397850513458, 0.03518452122807503, -0.0038766295183449984, 0.0035550971515476704, -0.12039583921432495, -0.11738771200180054, -0.21672338247299194, -0.19842220842838287, -0.24515347182750702, 0.3097476363182068, -0.10813454538583755, -0.12196463346481323, -0.019765814766287804, -0.03249732032418251, -0.09306804090738297, -0.3600703775882721, -0.020029380917549133, -0.00965881533920765, 0.34973764419555664, 0.09732974320650101, 0.041086241602897644, -0.06154216453433037, -0.1973186433315277, 0.07688720524311066, 0.2270069122314453, 0.14217106997966766, -0.05934169888496399, -0.12837615609169006, -0.06894365698099136, -0.04664621874690056, -0.12797707319259644, 0.1373996138572693, 0.074334055185318, -0.2453927993774414, 0.2517613172531128, -0.023450041189789772, -0.04918574541807175, 0.04239524155855179, -0.07468433678150177, -0.5166186690330505, 0.14818541705608368, -0.0663287416100502, -0.017497725784778595, 0.07053027302026749, 0.10078699886798859, -0.10955919325351715, -0.1554008424282074, -0.24122829735279083, -0.03907657414674759, 0.2348070740699768, -0.024927552789449692, -0.2519344985485077, -0.1597146838903427, -0.03927479311823845, -0.12156011164188385, 0.13796095550060272, 0.2663305103778839, -0.03956598415970802, -0.06769009679555893, -0.08044962584972382, 0.029512150213122368, -0.0803360715508461, -4.434757283888757e-05, -0.1902962327003479, -0.09635088592767715, 0.04379928112030029, 0.2411535233259201, -0.01933395117521286, 0.13965527713298798, -0.29979705810546875, -0.23178280889987946, 0.08636870235204697, 0.20171746611595154, 0.01569070853292942, -0.05321222543716431, -0.3893639147281647, -0.1518734097480774, -0.10709185898303986, 0.19928182661533356, 0.13337188959121704, 0.024127855896949768, -0.2172355055809021, 0.28031712770462036, 0.018824171274900436, -0.14314071834087372, 0.14890553057193756, -0.12968149781227112, -0.06101924553513527, 0.31563544273376465, 0.18589210510253906, -0.11165312677621841, -0.12358618527650833, 0.20127175748348236, 0.15492162108421326, 0.13248750567436218, 0.12543298304080963, 0.05604921653866768, -0.2516440451145172, 0.004507485311478376, 0.1321621984243393, 0.012067843228578568, -0.02880794182419777, -0.03514963015913963, 0.08715710043907166, -0.016788756474852562, 0.06765769422054291, 0.1705121546983719, 0.1003575548529625, 0.02158105932176113, -0.2623927891254425, 0.07648202031850815, 0.21073293685913086, 0.04817543923854828, -0.03201979771256447, -0.2261866331100464, -0.1969597488641739, -0.05570708587765694, 0.11763858795166016, 0.09356148540973663, -0.10769421607255936, -0.004458729177713394, -0.0676412507891655, -0.01810464821755886, 0.25406718254089355, 0.10026823729276657, -0.04841500148177147, -0.012496468611061573, -0.12394458800554276, -0.052455753087997437, 0.029468562453985214, -0.1977703869342804, -0.10181859880685806, 0.16930750012397766, -0.14527484774589539, -0.17265425622463226, 0.3112344741821289, -0.12560467422008514, 0.06077354773879051, 0.21149833500385284, -0.05398125573992729, -0.3598445653915405, 0.2072962373495102, -0.23696495592594147, 0.15993012487888336, -0.18482409417629242, 0.025735003873705864, -0.05196794867515564, 0.1418159157037735, -0.033735472708940506, 0.05933377519249916, 0.11707083880901337, 0.11316528171300888, -0.03693772479891777, 0.16105441749095917, 0.11259231716394424, -0.04589305445551872, -0.07331974059343338, 0.10145667940378189, -0.14089056849479675, 0.1203421875834465, -0.040070317685604095, 0.06850387156009674, 0.03685345500707626, -0.04206198826432228, 0.052528467029333115, 0.08679214864969254, -0.10367488861083984, 0.09375946968793869, 0.009997939690947533, 0.03730642795562744, -0.24440282583236694, 0.15968485176563263, 0.19013002514839172, -0.07328435778617859, -0.0870344340801239, -0.09435540437698364, -0.008585070259869099, 0.04909651726484299, -0.06537070870399475, 0.08520839363336563, -0.025212673470377922, -0.19753524661064148, 0.26067671179771423, -0.31454160809516907, -0.016288017854094505, 0.03140474110841751, 0.09105882048606873, 0.01980823650956154, 0.22014778852462769, 0.2733372747898102, -0.27001845836639404, -0.14026503264904022, 0.05332692340016365, -0.023554768413305283, -0.06488687545061111, -0.2861148416996002, 0.10814812779426575, 0.13030986487865448, 0.16708944737911224, -0.269432008266449, 0.2533346116542816, 0.09310334175825119, -0.23502957820892334, -0.10843106359243393, 0.22100187838077545, 0.15362828969955444, 0.04044597968459129, -0.07400724291801453, -0.23723062872886658, 0.06865370273590088, 0.053329821676015854, 0.16689977049827576, -0.044037893414497375, -0.20899218320846558, -0.28239011764526367, -0.11541853100061417, 0.2712092995643616, 0.05136571824550629, 0.14663751423358917, -0.25412923097610474, -0.04329335317015648, -0.09030687808990479, 0.05041873827576637, 0.04641078785061836, -0.01094385702162981, -0.10824000835418701, 0.03762441128492355, 0.07980047911405563, -0.09222038835287094, 0.24906954169273376, 0.13546715676784515, -0.0974830612540245, 0.10185661166906357, 0.07834839075803757, -0.017362290993332863, 0.14180725812911987, -0.10529772192239761, 0.06813781708478928, -0.10026665031909943, 0.10609683394432068, 0.08655311912298203, -0.23920147120952606, -0.19263489544391632, -0.03700922057032585, 0.13201572000980377, -0.022452833130955696, -0.26886633038520813, 0.061395589262247086, 0.1070324182510376, -0.02521037869155407, 0.17871931195259094, 0.6915881037712097, -0.06104495748877525, 0.7728727459907532, -0.864798367023468, -0.3020685315132141, 0.3761361837387085, 0.5652614831924438, 0.010662456974387169, 0.012592893093824387, 0.20067979395389557, -0.7975323796272278, 0.9296138286590576, 0.20208977162837982, -1.0608069896697998, 0.21022357046604156, -0.15737824141979218, -0.12600700557231903, -0.1781638264656067, 0.06711595505475998, -0.2952573597431183, 0.11669515818357468, 0.06925152242183685, -0.11791512370109558, -0.20063163340091705, -0.1842970848083496, 0.037746019661426544, -0.04427030310034752, -0.0005382075323723257, -0.06394630670547485, 0.03190457820892334, -0.03674174100160599, -0.13850697875022888, 0.0629180371761322, -0.37679949402809143, 0.19774247705936432, 0.05270622670650482, 0.05951887369155884, 0.1226731687784195, 0.22257190942764282, -0.07415369153022766, -0.26723745465278625, -0.11687104403972626, -0.2729528248310089, 0.11303659528493881, 0.08560483157634735, -0.10165081173181534, 0.2766583561897278, 0.20628979802131653, -0.2871030271053314, 0.2301640659570694, -0.2796989977359772, -0.32743263244628906, -0.038766149431467056, -0.14571557939052582, -0.3134632110595703, -0.05352851748466492, 0.11583280563354492, 0.038085658103227615, -0.015430849976837635, -0.4487028121948242, -0.1418372392654419, 0.20649507641792297, -0.03861329331994057, 0.2613464891910553, -0.3078083097934723, 0.16245116293430328, -0.12813952565193176, 0.2184981405735016, 0.30151405930519104, 0.1989966630935669, 0.19545811414718628, -0.20148296654224396, -0.003333186497911811, -0.10195636749267578, 0.33544886112213135, -0.1511426568031311, 0.1181468665599823, 0.08966048061847687, -0.07429317384958267, -0.4073137640953064, 0.20473961532115936, -0.0021346639841794968, 0.02310778573155403, 0.058109309524297714, 0.3961810767650604, 0.06558632850646973, 0.20130415260791779, -0.23030978441238403, 0.5292276740074158, 0.2457987517118454, 0.33532458543777466, 0.08352737128734589, -0.259732723236084, -0.09961528331041336, -0.07027848809957504, -0.03320322930812836, -0.22457335889339447, 0.33441397547721863, 0.25960999727249146, 0.38386964797973633, -0.11911249905824661, 0.10740663856267929, 0.10452350974082947, -0.04314727336168289, 0.14518950879573822, 0.11903268843889236, -0.21116772294044495, 0.31397372484207153, 0.03812723606824875, -0.0471598245203495, -0.2803884744644165, 0.10791337490081787, -0.15330222249031067, -0.12619440257549286, -0.10554145276546478, -0.23667214810848236, 0.007643511518836021, 0.009002255275845528, 0.25509190559387207, 0.20902720093727112, -0.1726890504360199, -0.024188226088881493, 0.01612083613872528, 0.13211998343467712, -0.10148484259843826, -0.028011610731482506, 0.08438297361135483, -0.2497730702161789, -0.15816058218479156, 0.031061481684446335, -0.2581537365913391, 0.057548150420188904, 0.2157759815454483, 0.012593396939337254, -0.06843378394842148, 0.3246985375881195, -0.216389462351799, 0.08638815581798553, -0.0011261776089668274, 0.1514485478401184, -0.1237347200512886, 0.03456335514783859, 0.27253296971321106, -0.11142309010028839, -0.3981115221977234, 0.02465321682393551, -0.19867868721485138, -0.151372030377388, 0.13817822933197021, 0.03683905676007271, -0.31155502796173096, -0.28907376527786255, -0.10977579653263092, 0.0018614097498357296, 0.10761598497629166, -0.37822213768959045, 0.0535496287047863, 0.26666906476020813, 0.05003856495022774, 0.02219141274690628, 0.15501892566680908, 0.063839852809906, 0.18496979773044586, 0.05253260210156441, -0.2946467697620392, 0.11153268069028854, -0.07028476148843765, 0.2205876111984253, -0.13654503226280212, -0.06785830110311508, -0.0015549231320619583, -0.006914225406944752, 0.3731238842010498, -0.3168810307979584, 0.32855796813964844, 0.04631828889250755, -0.1936131715774536, 0.24080850183963776, -0.36106744408607483, -0.26465266942977905, -0.17022481560707092, 0.11698861420154572, -0.06645776331424713, -0.3214491903781891, 0.270010769367218, -0.09928929060697556, -0.06503770500421524, -0.010778849944472313, -0.4151213765144348, 0.1427258849143982, 0.08389326184988022, -0.1819918304681778, -0.4511304497718811, 0.23352192342281342, -0.4309796392917633, -0.4448787569999695, 0.08015367388725281, -0.27402928471565247, -0.18089619278907776, -0.2711918354034424, -0.1749185025691986, 0.041527312248945236, 0.5870652794837952, -0.039987992495298386, -0.44345077872276306, 0.3796071708202362, -0.03607574477791786, -0.3979159891605377, 0.08489955216646194, 0.3955945372581482, 0.10351653397083282, 0.2724454998970032, -0.4301062822341919, -0.09466750919818878, -0.27931472659111023, -0.13407355546951294, 0.28703877329826355, -0.05803215503692627, -0.21711185574531555, -0.07117532938718796, -0.47139793634414673, 0.2345137596130371, 0.01830253191292286, -0.13685506582260132, -0.12196563184261322, -0.016675112769007683, -0.0920354574918747, 0.1952333152294159, 0.08563718944787979, 0.20482231676578522, -0.24386757612228394, -0.11460607498884201, -0.2011738270521164, 0.1045897975564003, 0.2393498420715332, -0.32912635803222656, -0.37565556168556213, -0.11322678625583649, 0.09617676585912704, 0.07893786579370499, 0.24143482744693756, -0.0636407658457756, 0.1413853019475937, 0.3619735836982727, -0.08123019337654114, -0.1891874521970749, 0.12001532316207886, 0.11864377558231354, -0.1875583529472351, 0.017001498490571976, -0.22908762097358704, 0.006032159086316824, 0.1121366024017334, -0.009270058013498783, 0.049300551414489746, 0.18572109937667847, -0.003760911989957094, 0.12838520109653473, -0.22613301873207092, -0.15742488205432892, -0.11016378551721573, -0.09141629189252853, 0.18559235334396362, 0.047670986503362656, -0.23638319969177246, 0.03931815177202225, -0.277243435382843, 0.0783349871635437, 0.06611231714487076, 0.0004120523517485708, 0.08727577328681946, 0.13116058707237244, -0.18363234400749207, 0.04301885515451431, -0.032826345413923264, 0.08762070536613464, 0.27286985516548157, 0.08634087443351746, 0.10373575985431671, 0.09876849502325058, -0.29567474126815796, 0.27717700600624084, 0.07943537831306458, -0.13549157977104187, -0.1922277957201004, -0.3009210228919983, -0.09157818555831909, -0.008558767847716808, 0.10059530287981033, -0.1737697273492813, -0.02657860703766346, -0.1888284683227539, -0.03865416720509529, -0.345565527677536, -0.11763900518417358, 0.08070939779281616, -0.1815415918827057, -0.01516919769346714, -0.01587051898241043, -0.28162720799446106, 0.17930205166339874, 0.013170775026082993, 0.06627605110406876, 0.2323666512966156, -0.003897429909557104, -0.0032600124832242727, 0.055254977196455, 0.0008174977847374976, 0.16908273100852966, 0.41280609369277954, 0.1479283720254898, -0.1114603728055954, -0.03407086431980133, 0.006831252481788397, 0.06701455265283585, 0.19850067794322968, -0.16882792115211487, -0.10508573800325394, 0.021470850333571434, 0.07880713790655136, -0.0796869620680809, 0.19456852972507477, 0.1602359563112259, -0.3471548855304718, -0.08284971863031387, 0.02273091860115528, 0.15537866950035095, -0.2203199863433838, -0.057202309370040894, 0.06411699950695038, -0.10451538860797882, -0.036266978830099106, 0.10379443317651749, -0.15391221642494202, 0.1071653738617897, 0.21230898797512054, 0.03321138024330139, 0.08097977191209793, 0.2964039742946625, 0.0476885586977005, -0.02003384195268154, -0.15010465681552887, -0.20518270134925842, -0.20787544548511505, 0.0944194495677948, -0.17966946959495544, 0.07672449946403503, -0.033445827662944794, 0.10168768465518951, -0.07787656784057617, 0.09211324900388718, 0.10939192771911621, 0.013157246634364128, -0.24326565861701965, -0.16944189369678497, 0.00861422996968031, 0.12270376831293106, -0.07031312584877014, 0.08032950013875961, -0.1608780026435852, -0.19083160161972046, -0.006065645255148411, 0.2502274811267853, 0.04853639751672745, 0.17797482013702393, -0.12527310848236084, 0.020119519904255867, -0.23162202537059784, 0.2585042417049408, -0.2439052164554596, -0.19911900162696838, 0.060430269688367844, -0.02629595808684826, -0.1976030170917511, 0.1549612581729889, -0.07226607203483582, -0.20088200271129608, 0.18243326246738434, 0.08514683693647385, -0.04426195099949837, -0.1787135899066925, -0.1128392368555069, -0.18411885201931, 0.04912833869457245, -0.16041423380374908, -0.12316085398197174, -0.01088267844170332, 0.021815994754433632, 0.2352331429719925, 0.2577480673789978, -0.1949259340763092, -0.22612468898296356, 0.005109649151563644, 0.18799149990081787, 0.21916940808296204, -0.21928900480270386, 0.35072970390319824, 0.10474707186222076, -0.5405962467193604, 0.29275330901145935, 0.3616703152656555, -0.018540341407060623, 0.57136470079422, 0.48304420709609985, 0.17881736159324646, 0.03825872391462326, 0.11876848340034485, -0.2123604416847229, -0.11760426312685013, -0.39305323362350464, -0.13643936812877655, 0.06084864214062691, -0.06268899142742157, 0.016039066016674042, 0.17522399127483368, 0.09767511487007141, 0.009414050728082657, 0.06057644262909889, 0.09000571072101593, -0.21281872689723969, -0.0923817828297615, -0.08698826283216476, 0.11018683761358261, 0.005611066706478596, -0.040058683604002, 0.24479955434799194, -0.04305725544691086, 0.021582020446658134, 0.3097550868988037, -0.17564837634563446, -0.1493890881538391, 0.3246811032295227, -0.16051112115383148, -0.20101097226142883, -0.0637197196483612, 0.00028143904637545347, -0.01687847636640072, 0.08176746964454651, 0.12477448582649231, 0.2380766123533249, -0.13483639061450958, 0.09033902734518051, -0.10801476240158081, 0.098765529692173, 0.0381803885102272, 0.028221476823091507, 0.024991972371935844, -0.09281545877456665, -0.07333414256572723, 0.3964380621910095, 0.1215767189860344, -0.17082767188549042, -0.0195010919123888, 0.05142291635274887, -0.07011792063713074, -0.02444196678698063, 0.10147859901189804, 0.11626812070608139, -0.13228002190589905, -0.19178292155265808, -0.05704132467508316, 0.22415553033351898, 0.05510172247886658, 0.16366150975227356, -0.27714186906814575, -0.08827653527259827, 0.01140451617538929, -0.18423616886138916, 0.011544992215931416, 0.09656532853841782, -0.2258073389530182, 0.053628433495759964, 0.20100243389606476, -0.33512231707572937, 0.1511981189250946, 0.006247405894100666, 0.147613525390625, 0.12732981145381927, 0.0850650817155838, -0.07967761158943176, 0.12430261075496674, 0.12247459590435028, -0.034349650144577026, -0.06288781017065048, 0.09386231750249863, 0.06313525885343552, -0.032915063202381134, -0.05563444271683693, 0.09622429311275482, 0.06767123192548752, 0.09245601296424866, -0.2628938555717468, 0.20090553164482117, -0.0709386095404625, -0.21741344034671783, 0.28305432200431824, 0.1041703000664711, -0.3229529857635498, 0.006492049898952246, -0.16029760241508484, -0.013905404135584831, 0.23341861367225647, 0.05714678019285202, 0.025046225637197495, -0.09711658209562302, -0.10332323610782623, 0.17304536700248718, 0.17952381074428558, 0.14491739869117737, 0.037854019552469254, -0.10361775755882263, -0.050492122769355774, -0.09042912721633911, 0.21471711993217468, -0.056793585419654846, -0.38428977131843567, -0.23300538957118988, 0.010214854031801224, 0.0376284159719944, -0.23372328281402588, -0.10823947936296463, 0.0657467246055603, -0.16152100265026093, 0.046846892684698105, 0.13686946034431458, -0.34344446659088135, -0.07006976008415222, 0.2248447835445404, -0.0835919976234436, 0.16493937373161316, -0.07140129059553146, 0.0011809843126684427, -0.031847964972257614, 0.04573976993560791, 0.07529396563768387, -0.11683265119791031, -0.05276329070329666, -0.1273152232170105, -0.014778255484998226, -0.1930975615978241, -0.1890489012002945, -0.01539515983313322, -0.2749052047729492, -0.0951906219124794, -0.04800136014819145, -0.10521610081195831, 0.05182698369026184, -0.24440231919288635, -0.3559544086456299, -0.07200193405151367, 0.13552749156951904, -0.05900571495294571, -0.029448959976434708, -0.17725436389446259, 0.06200553476810455, -0.07166500389575958, 0.13109740614891052, -0.17813265323638916, 0.061828456819057465, -0.028154801577329636, 0.025885604321956635, -0.18180683255195618, 0.12332163751125336, -0.028572846204042435, 0.11163736879825592, -0.06963729113340378, -0.1040998175740242, -0.14327341318130493, -0.21348527073860168, 0.033486928790807724, 0.08305202424526215, 0.1337452232837677, -0.008757606148719788, 0.13334082067012787, 0.05834967643022537, 0.12867975234985352, -0.01255884487181902, 0.005457214079797268, 0.08164289593696594, 0.1021588146686554, 0.15868820250034332, -0.20846234261989594, -0.15265898406505585, -0.2703665792942047, 0.1638277769088745, -0.09046772122383118, 0.016128042712807655, 0.08045893907546997, 0.14802755415439606, 0.029527081176638603, 0.07546674460172653, 0.1953815072774887, 0.18017105758190155, -0.06957497447729111, 0.0621824637055397, 0.1890154480934143, 0.13855388760566711, -0.006670168600976467, 0.031679704785346985, -0.05359993129968643, -0.25660306215286255, -0.20130810141563416, 0.2922430634498596, 0.14199060201644897, 0.24984794855117798, -0.18267934024333954, -0.13727997243404388, 